{"layers":[{"vperc":{},"lib":{},"src":{},"bin":{},"vimdir":{},"colors":{},"eclim":{},"bundle":{},"spec":{},"test":{},"config":{},"snippets":{},"vimrc":{},"elisp":{},"vim":{},"bashrc":{},"install":{},"gitmodules":{},"makefile":{},"autoload":{},"doc":{},"ftplugin":{},"indent":{},"plugin":{},"syntax":{},"after":{}},{"0":{"bias":4.425023884467854,"weights":{"vperc":-17.34794162244885,"lib":0.8853077801579561,"src":3.374807615144397,"bin":1.0179684356426777,"vimdir":-0.04171705794504906,"colors":0.9896714592276816,"eclim":5.4182126310461936,"bundle":1.7256722137858211,"spec":-1.8651724951404016,"test":-5.752208748219712,"config":1.7602688424158184,"snippets":-0.6504847298497098,"vimrc":8.74760174902679,"elisp":3.0955684611960432,"vim":0.3872359972779117,"bashrc":-0.14603560159121923,"install":-0.008682665896423854,"gitmodules":1.2626295983671931,"makefile":0.5416808513997635,"autoload":2.707826044323115,"doc":-2.67130018736901,"ftplugin":1.138902403697201,"indent":-0.2850474453378908,"plugin":4.231621043865693,"syntax":1.0587712493042716,"after":3.2699477336627547}},"1":{"bias":-3.6084371109612765,"weights":{"vperc":-0.3172625376143547,"lib":0.5298584725140152,"src":0.13462286462829298,"bin":0.433945337253834,"vimdir":0.09421550132831893,"colors":-0.8613120684558557,"eclim":1.2079690892572994,"bundle":1.4712087153361815,"spec":-0.4753498897475221,"test":-2.416125368338561,"config":2.9976434786702297,"snippets":0.8424446108555401,"vimrc":3.8031867772560712,"elisp":3.646832747966109,"vim":0.8517086536954291,"bashrc":-0.17415253059757937,"install":1.4986622996084666,"gitmodules":1.7520700850780426,"makefile":2.147345708746212,"autoload":1.6392000674182032,"doc":-1.6039633405368952,"ftplugin":0.6438027153422252,"indent":0.14456594371854356,"plugin":-0.4955692284189905,"syntax":0.5269623696193617,"after":1.8032694670275753}},"2":{"bias":-2.484210121263684,"weights":{"vperc":1.7342636408643008,"lib":-0.45278948053465584,"src":-1.7045367541137937,"bin":-0.17158929902911504,"vimdir":0.1793337230944914,"colors":-0.9567819762219117,"eclim":-0.6224369837117594,"bundle":-0.323059216041783,"spec":0.22573072989402998,"test":0.10946041302949715,"config":-0.7010555637802591,"snippets":0.03229976671240157,"vimrc":-1.6247408662651739,"elisp":-1.176541498408742,"vim":-0.02360779213263392,"bashrc":0.18559489905864657,"install":-0.20192702165722276,"gitmodules":0.07277604236800525,"makefile":-0.60012460945287,"autoload":0.48960774062701384,"doc":0.06633449996623932,"ftplugin":0.4050722502752438,"indent":0.1859295716423301,"plugin":0.21042928037793776,"syntax":-0.23398281522369987,"after":0.23955596728685982}},"3":{"bias":-3.3357164310881187,"weights":{"vperc":3.0029494587067447,"lib":-0.6587695639790402,"src":-3.0145354151089867,"bin":0.07482298703146668,"vimdir":0.15099539260400877,"colors":-1.1195482128895045,"eclim":-1.6909227286841078,"bundle":-0.9780291609093771,"spec":0.7843666195767891,"test":0.8142809110617407,"config":-0.6894313069007191,"snippets":-0.2535016043350961,"vimrc":-2.5094313189171173,"elisp":-1.7494568423588872,"vim":-0.18815019014530604,"bashrc":-0.016870863302533443,"install":-0.08615278373899839,"gitmodules":-0.0070493008011422425,"makefile":-0.8116048565563007,"autoload":1.1580422601918086,"doc":0.5677024125924575,"ftplugin":0.07757649463087787,"indent":0.12205667245807732,"plugin":1.4159220455111647,"syntax":-0.724837455416249,"after":-0.035169747624491064}},"4":{"bias":-2.213201635624442,"weights":{"vperc":0.5542313473336364,"lib":-0.21311823072274153,"src":-0.7336337578262976,"bin":-0.039481361986184405,"vimdir":-0.19376300827033524,"colors":-1.0412592899499717,"eclim":-0.2937810772210021,"bundle":-0.4304557413955379,"spec":-0.004315145659409135,"test":-0.43107965139957605,"config":-0.22170976146800975,"snippets":-0.05220196425597488,"vimrc":-0.4932830373798601,"elisp":-0.3675896473555934,"vim":-0.08833619905259346,"bashrc":-0.06821552071691449,"install":-0.2689834944549634,"gitmodules":0.05779794724462155,"makefile":0.03190547175306328,"autoload":0.3073794434018847,"doc":-0.3702703964536083,"ftplugin":0.27253903042773037,"indent":-0.00398391806406052,"plugin":-0.4038417654106689,"syntax":-0.0516230484055618,"after":0.32985548649797714}},"5":{"bias":-2.0511467398925634,"weights":{"vperc":-1.473730490759932,"lib":0.05137661107218242,"src":0.18537143261110586,"bin":-0.06771256680898796,"vimdir":0.12445610287340883,"colors":-1.4278617580105661,"eclim":0.4856148805715427,"bundle":0.42864494174878653,"spec":-0.4626550081263398,"test":-0.6826322743484641,"config":0.6218113334841883,"snippets":0.1843587973181974,"vimrc":1.4997974357444646,"elisp":0.8066661453916382,"vim":0.3673700240733676,"bashrc":0.15564311124696567,"install":0.6417465894728763,"gitmodules":0.4377847413782904,"makefile":0.420222436759361,"autoload":0.5528435413161811,"doc":-0.8474488980286583,"ftplugin":-0.010687223492199081,"indent":-0.10485235922127147,"plugin":0.2505831434479777,"syntax":0.5824828766862733,"after":0.6092462553366397}},"6":{"bias":2.0686609306804695,"weights":{"vperc":2.486584916404961,"lib":-0.5493916610226696,"src":-4.737436769292327,"bin":-1.3612795336188592,"vimdir":0.048779831986251104,"colors":2.8000843704358385,"eclim":-1.1337029475771607,"bundle":-1.1420389462323393,"spec":0.811413940925418,"test":-0.6916364699356662,"config":-4.949337673565228,"snippets":-1.4737681613377307,"vimrc":-4.148454890319618,"elisp":-1.9386296674676486,"vim":-1.2569483358601843,"bashrc":-0.09325625267027284,"install":-5.082593601116891,"gitmodules":-4.521775852405041,"makefile":-2.9000227207818754,"autoload":-4.920299994530511,"doc":-3.751040616892546,"ftplugin":0.9616910290113542,"indent":0.22236145647023783,"plugin":-6.1257625974963155,"syntax":1.6327793048917802,"after":-2.152218379043426}},"7":{"bias":-1.8403324868467494,"weights":{"vperc":-6.943959362255158,"lib":1.1233560261199549,"src":1.5604718628825869,"bin":0.1945038851876318,"vimdir":-0.036649396232584855,"colors":-3.418093357533844,"eclim":2.7657024880579493,"bundle":0.5830386676178976,"spec":-0.9295166029139877,"test":-0.30889214148848776,"config":2.681007754245841,"snippets":0.22402710760485967,"vimrc":2.481817907680205,"elisp":1.81709012237194,"vim":0.21797464307611328,"bashrc":-0.08157166671189536,"install":1.889785640228601,"gitmodules":-0.853083419210167,"makefile":1.2782913969112228,"autoload":-1.8370387243299937,"doc":-0.44860989873484947,"ftplugin":-1.0781432564994868,"indent":-0.3895194282397807,"plugin":4.41740262956574,"syntax":1.5939874278737365,"after":-0.4238895861164002}},"8":{"bias":-1.4544449204242729,"weights":{"vperc":-3.4213425456823847,"lib":0.6819634179784231,"src":1.4819318557317247,"bin":0.24647325182285817,"vimdir":-0.04563656989712942,"colors":-1.964422001591913,"eclim":1.755702383671723,"bundle":0.9182127373766059,"spec":-0.7837470772535958,"test":-0.9834239640144548,"config":1.017255611264034,"snippets":0.3235935212155403,"vimrc":2.6751961949484615,"elisp":1.9778121239462219,"vim":0.3311593799547873,"bashrc":-0.0876111176038423,"install":0.36914115437904804,"gitmodules":0.6021070530220348,"makefile":0.7711011883782023,"autoload":-0.154610840330235,"doc":-1.0447535072705962,"ftplugin":-0.09448821979165586,"indent":-0.20709583282581884,"plugin":-0.8969129620377372,"syntax":-0.6377945993289788,"after":0.6674093160852672}},"9":{"bias":-1.3507754036065,"weights":{"vperc":8.081972155000114,"lib":-0.6952808597439876,"src":-0.38344810869845164,"bin":0.27760598959570876,"vimdir":0.17843838707392473,"colors":3.6654199594309875,"eclim":-2.245999572725343,"bundle":-0.033437798205159186,"spec":0.7310870652074907,"test":-0.6685103028412668,"config":-1.5982941026537032,"snippets":0.08467286463944527,"vimrc":-1.3452929596114749,"elisp":-2.899305427067021,"vim":0.17120832496198662,"bashrc":0.19434714511801024,"install":-1.7890804896021437,"gitmodules":1.6211872240599252,"makefile":-3.0551086413268833,"autoload":3.335928749821359,"doc":0.4681768544510278,"ftplugin":1.6270221558476008,"indent":0.517471169246951,"plugin":-3.4858324442563813,"syntax":-0.5482134827550503,"after":1.537230559528072}},"10":{"bias":-3.162868702755185,"weights":{"vperc":2.8551312872098187,"lib":-0.5292188944051605,"src":-2.7528089296102123,"bin":-0.0015678250680174915,"vimdir":-0.07048465207201629,"colors":-1.0431980753356693,"eclim":-1.5621583034615039,"bundle":-1.0293390209025746,"spec":0.5608972461437574,"test":0.776391665725642,"config":-0.6280314031539315,"snippets":-0.15774982747523575,"vimrc":-2.5343075389461034,"elisp":-1.605818289377077,"vim":-0.40524029513188314,"bashrc":0.06677055352178685,"install":-0.13859480738498633,"gitmodules":0.014637476179347594,"makefile":-0.6644384198104323,"autoload":0.931147452460437,"doc":0.3760830525583741,"ftplugin":0.408522841108051,"indent":0.0859947885466044,"plugin":1.2865400656617274,"syntax":-0.37982515428049685,"after":-0.14937063082195307}},"11":{"bias":2.2152083384396777,"weights":{"vperc":9.724184348359563,"lib":-1.4525092169928295,"src":-0.4752069842555726,"bin":-0.9479799227889397,"vimdir":0.008597903282416755,"colors":3.3750920502403723,"eclim":-1.681976258185656,"bundle":-0.36309080800389254,"spec":0.4372606463360928,"test":-3.6965919133318343,"config":-0.4465843297768323,"snippets":-0.4806985442975234,"vimrc":-1.973745341581518,"elisp":-4.925137852091427,"vim":0.16693919886911676,"bashrc":-0.19109986367385995,"install":-0.945036460587726,"gitmodules":1.5665504352350217,"makefile":-5.047790302025716,"autoload":3.2296926072971437,"doc":-2.6687343507257415,"ftplugin":1.0753827501316087,"indent":0.4872688833036804,"plugin":0.4824979469483573,"syntax":2.708306209914807,"after":1.8700387275401917}},"12":{"bias":5.435960903133826,"weights":{"vperc":-5.571239814109085,"lib":1.2876483340604818,"src":3.9600544601950163,"bin":0.21336788302645765,"vimdir":-0.11234758842800296,"colors":-1.0936865709708181,"eclim":3.404701379274317,"bundle":1.9522772713275116,"spec":-1.3542145364688398,"test":-1.9884862318979764,"config":1.0259474981461174,"snippets":0.6973158211074303,"vimrc":4.301831535230681,"elisp":3.1702854235883544,"vim":0.838546909887424,"bashrc":0.09277538525521964,"install":0.1718706520767549,"gitmodules":1.0485663603535231,"makefile":1.2776599261366584,"autoload":-1.1689326289680753,"doc":-1.7621345048394583,"ftplugin":-0.43995911518746,"indent":-0.22725119991365375,"plugin":-2.2783493719104846,"syntax":0.030633303046820926,"after":0.5804120278081403}}},{"plugin":{"bias":-1.8790923430595714,"weights":{"0":-8.911479358847286,"1":-4.107375161109681,"2":0.5871507421589904,"3":2.476445048046375,"4":-0.006794720514387353,"5":-0.6240077297234414,"6":9.34213847419873,"7":-4.547690861727946,"8":-0.4237805768243294,"9":2.3823161820841063,"10":2.086609513151536,"11":6.550468207913069,"12":-6.75427797649482}},"other":{"bias":1.9158238572724882,"weights":{"0":8.910474233868538,"1":4.126213814217792,"2":-0.38091505665733366,"3":-2.5652624555003407,"4":-0.12151676641889624,"5":0.5463302224940676,"6":-9.346940929959228,"7":4.488578540581085,"8":0.29943489370047927,"9":-2.4283423844088072,"10":-2.061355980052931,"11":-6.556440416570476,"12":6.776789898820395}}}],"outputLookup":true,"inputLookup":true}