{"layers":[{"vperc":{},"lib":{},"bin":{},"vimdir":{},"colors":{},"bundle":{},"spec":{},"test":{},"config":{},"snippets":{},"vimrc":{},"elisp":{},"vim":{},"install":{},"gitmodules":{},"makefile":{},"autoload":{},"doc":{},"ftplugin":{},"indent":{},"plugin":{},"syntax":{},"after":{}},{"0":{"bias":-2.506728839271556,"weights":{"vperc":-5.218844185158951,"lib":0.8338066979583815,"bin":-0.022580635301831072,"vimdir":0.0970097556503872,"colors":-2.2353933095274345,"bundle":1.907953114738567,"spec":-1.3222845177934737,"test":-1.6224941004146136,"config":3.756055371418741,"snippets":1.3428165391903688,"vimrc":6.529195646606498,"elisp":2.2510042141070126,"vim":2.5121025320096755,"install":2.0222968528695002,"gitmodules":1.2595854222141696,"makefile":0.9764366955033338,"autoload":1.5904445202153197,"doc":-5.533356906944272,"ftplugin":-0.6575504455807325,"indent":0.6904343692502384,"plugin":5.342551678049669,"syntax":1.1997837753410734,"after":0.7339786303557374}},"1":{"bias":-2.0517780714233376,"weights":{"vperc":1.4443032481983737,"lib":-0.07005535894193732,"bin":-0.06548425780541298,"vimdir":-0.09778810998091929,"colors":-1.366691146692736,"bundle":-0.22836370595388847,"spec":0.2957220258643524,"test":-0.4284812432032518,"config":-0.4051951606030421,"snippets":-0.13547741862149312,"vimrc":-1.2076015658588255,"elisp":-0.5482200744522889,"vim":-0.364495248665662,"install":-0.22182863971534778,"gitmodules":0.23357257656217606,"makefile":-0.04328360530432133,"autoload":0.914899601033584,"doc":0.6046463976508765,"ftplugin":0.3045248622735469,"indent":-0.1044531865262096,"plugin":0.283022474671097,"syntax":-0.28901306050941716,"after":0.006902207009348501}},"2":{"bias":-1.9321488966773537,"weights":{"vperc":-6.0836087095173115,"lib":1.697295726188854,"bin":1.457701003837012,"vimdir":0.013342261949647778,"colors":-2.935973929944229,"bundle":1.056941518926429,"spec":-0.349029690217759,"test":2.471945010297587,"config":1.8026221270007425,"snippets":0.6071833931071985,"vimrc":2.221318944266062,"elisp":3.3106408291836824,"vim":1.9539009457036507,"install":0.4891840111903683,"gitmodules":3.1998399480272663,"makefile":1.5188295975551491,"autoload":0.5862123911407482,"doc":4.224380331447311,"ftplugin":-0.12013202444556013,"indent":0.4586172851949727,"plugin":-4.8880854903688,"syntax":-3.1325569132471176,"after":-0.4012644351447795}},"3":{"bias":-2.4751034262214753,"weights":{"vperc":2.9334184457961157,"lib":-0.3336306083807465,"bin":0.009949335882870614,"vimdir":0.0016991681770267678,"colors":-1.478787157258709,"bundle":-0.6540492344598837,"spec":0.3292907032604316,"test":0.19585401895779486,"config":-0.8028384209845228,"snippets":-0.28112254883837223,"vimrc":-2.180025702388699,"elisp":-1.3557202371689063,"vim":-0.6528050089925049,"install":-0.35899555532423216,"gitmodules":0.4060114722466222,"makefile":-0.19242967176159032,"autoload":0.6154225886629843,"doc":0.78024064417939,"ftplugin":0.5204066265721975,"indent":0.042854298164391784,"plugin":-0.0053331682988374315,"syntax":-0.25699824302444446,"after":0.04106045987069804}},"4":{"bias":-1.8993833380108667,"weights":{"vperc":-0.11305330636449198,"lib":0.13556774947330733,"bin":-0.003026968266463067,"vimdir":0.005083011468972262,"colors":-0.8291954202990045,"bundle":0.2377132889538706,"spec":-0.2731174609743025,"test":-0.1713167236373709,"config":0.06226603756249934,"snippets":0.09923582562731445,"vimrc":0.09922026371681592,"elisp":0.05206678797651763,"vim":0.27730753405992614,"install":0.018455828593117195,"gitmodules":0.07313451401968556,"makefile":0.0115710186110144,"autoload":0.2609431442493825,"doc":-0.010984358994138311,"ftplugin":-0.07730639542967581,"indent":-0.14091880579046193,"plugin":-0.2644545362578786,"syntax":-0.3313546583919935,"after":0.0713921215853093}},"5":{"bias":-1.8969240289923162,"weights":{"vperc":-0.11360717660697693,"lib":-0.13572361820924583,"bin":0.09621958801528036,"vimdir":0.09567658264407781,"colors":-0.8297865269848492,"bundle":0.09242786443812588,"spec":-0.2306675319210433,"test":-0.17524262937624452,"config":-0.1293924206375532,"snippets":0.1820685046165528,"vimrc":0.03574155346982581,"elisp":0.0733969838073755,"vim":0.06580697438580792,"install":0.12366204021733514,"gitmodules":-0.19547151764142345,"makefile":0.1990611152522918,"autoload":0.24439554477119382,"doc":0.13738398275626496,"ftplugin":0.040646772662961975,"indent":-0.1140183353355546,"plugin":-0.3342223577535105,"syntax":-0.276553674903241,"after":0.04413393374491401}},"6":{"bias":-5.871219179382056,"weights":{"vperc":8.613440478193453,"lib":-1.0068650753889177,"bin":0.26924395247554156,"vimdir":0.015689983754079612,"colors":0.8463550700609607,"bundle":-1.5704425467767222,"spec":1.1734102421276529,"test":-0.08643522224507964,"config":-0.9843337338676214,"snippets":-0.9528610195653242,"vimrc":-4.832045927811642,"elisp":-3.8488957930617804,"vim":-1.2163424572057382,"install":-0.46426426829884293,"gitmodules":0.8143567895303587,"makefile":-1.0586337583846233,"autoload":0.7913070405974146,"doc":1.8781399626004123,"ftplugin":0.9779437375748345,"indent":-0.6420098397870015,"plugin":2.0127670097266033,"syntax":-2.0512761536104662,"after":-0.04104246927824247}},"7":{"bias":-1.5808580772691132,"weights":{"vperc":-3.4173250020470367,"lib":0.6053559330791893,"bin":0.24852107040966967,"vimdir":0.04572084156416805,"colors":-2.470647415442583,"bundle":0.694174794230174,"spec":-0.5280306505195734,"test":1.4722989277931569,"config":1.0080251618467744,"snippets":0.3931289030709463,"vimrc":1.911476780389036,"elisp":1.957409965580593,"vim":0.878791882632267,"install":1.6193577931110135,"gitmodules":-0.4451162375969634,"makefile":0.32356373417178125,"autoload":-0.798206627756359,"doc":2.79996848849363,"ftplugin":0.04395382982609227,"indent":0.3407162879080663,"plugin":-2.244589377319122,"syntax":-1.9311701162777288,"after":-0.17210822889677446}},"8":{"bias":4.881962336080471,"weights":{"vperc":-7.586157533506287,"lib":1.486878360916364,"bin":0.9432585154384772,"vimdir":-0.14319994186710674,"colors":-0.749818859499165,"bundle":1.7859221869074138,"spec":-1.5862130973950752,"test":-5.087715640077185,"config":1.4783351373974338,"snippets":0.910601487255415,"vimrc":6.465759812309964,"elisp":3.7929388671656485,"vim":1.3189959946713155,"install":0.04245988880312785,"gitmodules":-0.4490603757271013,"makefile":2.097525264695969,"autoload":-0.6412135946343575,"doc":-1.912489753348615,"ftplugin":-0.30431578215701094,"indent":0.47013810874444284,"plugin":1.3309008108722034,"syntax":-2.9166581090173356,"after":0.5821684119868239}},"9":{"bias":-1.7518145661973104,"weights":{"vperc":-0.9801331210188622,"lib":-0.0020686194555493403,"bin":0.14522908432941223,"vimdir":0.0064595475504124,"colors":-0.9930063962672304,"bundle":0.4049309541577524,"spec":-0.2638819647238115,"test":-0.4027358326750036,"config":0.385531801785257,"snippets":0.18912948018911024,"vimrc":0.44131458742287827,"elisp":0.17292078066133815,"vim":0.18394917366636793,"install":0.29297587408022796,"gitmodules":-0.1149087361761745,"makefile":0.1401069205837461,"autoload":0.18974597103865007,"doc":-0.09063825674379239,"ftplugin":-0.08924060730791097,"indent":0.04048864132259815,"plugin":-0.5630816753503836,"syntax":-0.5718697241783923,"after":0.06101000013327024}},"10":{"bias":0.7878362010846328,"weights":{"vperc":5.565152384113309,"lib":-0.43024262471217417,"bin":0.8135650020566875,"vimdir":0.15445719663757568,"colors":2.5371347729746394,"bundle":-1.469558511618207,"spec":1.362207243924113,"test":-0.5648801853517672,"config":-3.7543547061084626,"snippets":-0.6876559183411705,"vimrc":-7.029464196142253,"elisp":-3.587949514605785,"vim":-1.4231993669816996,"install":-4.859789921250704,"gitmodules":0.42368945180026857,"makefile":-0.34387117527975514,"autoload":0.9499902924688284,"doc":-3.386494908254472,"ftplugin":1.103198028642185,"indent":-0.4354408898985351,"plugin":-4.513237614192822,"syntax":-0.4616416922254276,"after":0.2022226718703385}}},{"plugin":{"bias":1.0557385055180317,"weights":{"0":-8.190927899015229,"1":0.8697520358423465,"2":-8.696103633016625,"3":1.969379334494677,"4":-0.10678172532529989,"5":-0.14826635918592926,"6":8.472298141689139,"7":-3.549193173090147,"8":-7.1032033067227305,"9":-0.12307490147422445,"10":6.895261643262034}},"other":{"bias":-1.0705657894816876,"weights":{"0":8.208490159348075,"1":-0.8765770050648201,"2":8.743149129334267,"3":-1.884118789665453,"4":-0.01770877790604501,"5":-0.09030765976566668,"6":-8.480068452119303,"7":3.5437786310788404,"8":7.138278706069531,"9":0.25759671197281486,"10":-6.9026424763117795}}}],"outputLookup":true,"inputLookup":true}