{"layers":[{"vperc":{},"lib":{},"src":{},"bin":{},"vimdir":{},"colors":{},"eclim":{},"bundle":{},"spec":{},"test":{},"config":{},"snippets":{},"vimrc":{},"elisp":{},"vim":{},"bashrc":{},"install":{},"gitmodules":{},"makefile":{},"autoload":{},"doc":{},"ftplugin":{},"indent":{},"plugin":{},"syntax":{},"after":{}},{"0":{"bias":-0.5959152908079244,"weights":{"vperc":6.513030919812355,"lib":-0.5605109485396991,"src":2.766980478661725,"bin":-0.35509738650634237,"vimdir":0.041571401260857656,"colors":4.331538188241385,"eclim":-3.69531964238051,"bundle":-0.8526592073106737,"spec":1.0289659719326034,"test":-2.553002049287182,"config":-2.8422328881000483,"snippets":0.23610853264477796,"vimrc":-9.124014895217984,"elisp":-4.922762649911282,"vim":-1.9807866677570853,"bashrc":-0.11324226774440756,"install":-0.8971217752895718,"gitmodules":-0.2826169723906796,"makefile":-0.01975713884457947,"autoload":-0.31659252114198155,"doc":-1.8297031455086703,"ftplugin":-0.37556820264344676,"indent":0.15666043525803675,"plugin":2.948190549374207,"syntax":1.0053523719141835,"after":1.0222410960053654}},"1":{"bias":0.5458744552895035,"weights":{"vperc":-3.1656697010615242,"lib":0.9822472862407345,"src":3.630852772925781,"bin":0.9348177227389374,"vimdir":-0.03251748243290619,"colors":-5.3243361196797805,"eclim":4.478083701997162,"bundle":1.2582800783028285,"spec":-1.2213416222144553,"test":-0.6412736161302827,"config":3.6872498734001096,"snippets":-0.4084956189135986,"vimrc":7.82199421811385,"elisp":3.6664318866343355,"vim":3.36581045082478,"bashrc":0.10446095663605652,"install":1.2428174348043026,"gitmodules":1.0741153507906904,"makefile":-0.07682335507124663,"autoload":-1.189637060172574,"doc":2.3858529918487243,"ftplugin":0.6395187120561135,"indent":0.05656626321248454,"plugin":-4.145787356016294,"syntax":-2.3296407269055615,"after":-0.9064864551832676}},"2":{"bias":-0.5145920761440334,"weights":{"vperc":-8.430584485956524,"lib":0.711910506470122,"src":2.1695175642482085,"bin":0.34174000987428743,"vimdir":0.28441605888976756,"colors":-4.124276134849564,"eclim":3.657827681152541,"bundle":1.1231512700054866,"spec":-1.5895802199412468,"test":-1.00473744287636,"config":3.766414485416019,"snippets":-0.5121692363711761,"vimrc":8.53224621178079,"elisp":2.8901899192734515,"vim":2.3113792125269943,"bashrc":0.17118773854124406,"install":0.6568890415191583,"gitmodules":0.5980651325364627,"makefile":0.06977671096101401,"autoload":0.5868200035693771,"doc":-1.676073689483822,"ftplugin":0.028068417907483805,"indent":0.09870891707854706,"plugin":3.8197953681802868,"syntax":1.853061248510684,"after":-0.3805606778015438}},"3":{"bias":-2.021588421195715,"weights":{"vperc":-0.5013258497091453,"lib":-0.191684808946416,"src":-0.1801191937042119,"bin":-0.10630374883333651,"vimdir":0.09618961300869709,"colors":-1.2690227871594426,"eclim":-0.004938155151263743,"bundle":0.1387171810121951,"spec":0.11388470504409612,"test":-0.25193920577705003,"config":-0.18876135987740406,"snippets":0.059639676484739605,"vimrc":-0.2910816856529146,"elisp":0.0942461910085024,"vim":-0.04401611786231078,"bashrc":0.1799693814238819,"install":-0.14783165788953295,"gitmodules":-0.33085388187513926,"makefile":0.12951813908293847,"autoload":0.13004735804086653,"doc":-0.5553930071365005,"ftplugin":-0.08484706385157997,"indent":-0.10352170828574163,"plugin":-0.5880868224453593,"syntax":-0.2031786481274896,"after":0.08550209467443115}},"4":{"bias":-2.7448769766595227,"weights":{"vperc":2.4897439538506507,"lib":0.0905441428892422,"src":-2.1594382438284705,"bin":-0.10566276210148737,"vimdir":-0.027314689354860196,"colors":-1.3936146669099756,"eclim":-0.8228215076626889,"bundle":-0.6615530667439828,"spec":0.6566402967040074,"test":0.5487614099126368,"config":-0.5901175440744866,"snippets":0.004274180403863653,"vimrc":-1.9622536394322287,"elisp":-1.2395364253979824,"vim":-0.6115867761206366,"bashrc":-0.0590104735305851,"install":0.2089208907064047,"gitmodules":0.562485859784709,"makefile":-0.1978500590659678,"autoload":0.9610323044275401,"doc":-0.09082631943407486,"ftplugin":0.15243413592844102,"indent":-0.32544108727305787,"plugin":0.9334161167230597,"syntax":0.22411806145099167,"after":0.12470518035960063}},"5":{"bias":-4.199636925725206,"weights":{"vperc":5.306525760184872,"lib":-0.4104991089310128,"src":-1.3200778071463588,"bin":-0.018260480930660256,"vimdir":-0.023845575380250367,"colors":-1.77774091316928,"eclim":-1.527441764992015,"bundle":-0.8286565740056596,"spec":0.969060444312073,"test":0.30509997812303086,"config":-0.6559544306581776,"snippets":0.22703707166027579,"vimrc":-2.9880056584065224,"elisp":-1.505890235170367,"vim":-0.912535405010376,"bashrc":0.13692280883276395,"install":-0.1626294992564963,"gitmodules":0.28207738802778587,"makefile":-0.05795844690874219,"autoload":0.3522744414215438,"doc":0.2890204721032318,"ftplugin":-0.2068649696369295,"indent":-0.47318635946257065,"plugin":-0.22781930351989488,"syntax":0.1517934418039413,"after":0.06438071928079245}},"6":{"bias":-0.09509803473688228,"weights":{"vperc":-5.574996956140422,"lib":0.7578420889612356,"src":-2.992136401405687,"bin":0.5582755162418959,"vimdir":-0.07326517009083137,"colors":-5.143577908980891,"eclim":3.301306694551918,"bundle":0.7271262160878934,"spec":-0.7982778722468957,"test":3.012022954230349,"config":2.6207639506192204,"snippets":-0.29925238671203547,"vimrc":7.207076410917286,"elisp":4.850196046544881,"vim":1.816692710551574,"bashrc":0.2464693183033698,"install":0.8979773877396058,"gitmodules":0.021730448570265223,"makefile":-0.09408515701070429,"autoload":-0.9561782077534519,"doc":1.7291938377764395,"ftplugin":0.495452958238747,"indent":-0.003084677584624184,"plugin":-2.6011773083050773,"syntax":-1.5297904005219425,"after":-0.7538316604427253}},"7":{"bias":-2.1105741392377553,"weights":{"vperc":-3.463622528266886,"lib":0.23714736393305247,"src":0.6294890162455624,"bin":-0.2877035684005824,"vimdir":0.04169730094897426,"colors":-2.255627403084415,"eclim":1.0187055092676722,"bundle":1.009294301353781,"spec":-1.0411055471458661,"test":-2.259409575095018,"config":0.8131945174046612,"snippets":-0.12911292773969382,"vimrc":2.142809151934527,"elisp":0.5848599700491223,"vim":1.3028331300589198,"bashrc":0.21736879470256357,"install":0.10417658691595977,"gitmodules":0.4304640140416336,"makefile":0.10062297256663444,"autoload":0.5148165288084865,"doc":-2.250016231997841,"ftplugin":0.07736788085538644,"indent":0.7839205099623517,"plugin":3.2981761099280633,"syntax":1.0558402949856291,"after":0.7341372469434604}},"8":{"bias":-1.8005642498861723,"weights":{"vperc":-1.669394234565071,"lib":-0.11721053261647248,"src":0.010760262591135572,"bin":0.07115636980343674,"vimdir":0.030614017948259162,"colors":-1.5927485693266121,"eclim":0.15142120654730665,"bundle":0.5906727403592285,"spec":-0.398882944347255,"test":-1.064074586642618,"config":0.31461513278849607,"snippets":0.17548978722156833,"vimrc":0.45710272173836664,"elisp":0.28602712990562534,"vim":0.5408630610884062,"bashrc":0.18641480469865818,"install":-0.21199252317296233,"gitmodules":0.11183466926273199,"makefile":0.07367260809987786,"autoload":0.22248842687108247,"doc":-1.0479929131898573,"ftplugin":0.25040128027344744,"indent":0.2904484259748063,"plugin":0.6026195813778814,"syntax":0.12046860072168719,"after":0.5387330798813257}},"9":{"bias":-2.4703510636002344,"weights":{"vperc":1.893819952239578,"lib":-0.18897093849462024,"src":-1.2769422607940095,"bin":0.1245945807748458,"vimdir":-0.18136897436878524,"colors":-1.2499614163680626,"eclim":-0.4095416820723625,"bundle":-0.3950503288216772,"spec":0.6216863760503347,"test":0.1849361490017255,"config":-0.4663876334332666,"snippets":0.020179461846876814,"vimrc":-1.5656036577194068,"elisp":-1.1577702631852214,"vim":-0.532858446521723,"bashrc":0.10475720106200631,"install":0.027906898271121403,"gitmodules":0.23919475994093914,"makefile":-0.1320407534018159,"autoload":0.5405240534371879,"doc":-0.3617546814693673,"ftplugin":-0.02692849526864794,"indent":-0.13243108300082948,"plugin":0.036040157289150165,"syntax":0.2871187366178852,"after":0.06397278046985168}},"10":{"bias":-4.279132887804155,"weights":{"vperc":9.636136368546383,"lib":-0.4310800131757638,"src":0.6594904417954306,"bin":0.06908118134117258,"vimdir":-0.223449758771102,"colors":-1.2052126566586014,"eclim":-2.2749013947622365,"bundle":-1.1982720958920847,"spec":1.5013094913872531,"test":1.2035851575714942,"config":-0.7412780224232706,"snippets":-0.08575489816446617,"vimrc":-4.688183894179154,"elisp":-2.2121182207165404,"vim":-1.2121540146294705,"bashrc":-0.1490178875183189,"install":-0.36442619054449027,"gitmodules":0.43009454755800974,"makefile":-0.1464696235023439,"autoload":-0.07064654471262186,"doc":2.2865955569709677,"ftplugin":-0.31460312749551966,"indent":-0.6992586133353793,"plugin":-0.9071570639572061,"syntax":0.16453564053474132,"after":-0.3197691677532051}},"11":{"bias":0.4963973137225191,"weights":{"vperc":-7.09832650567934,"lib":0.294256705380178,"src":3.0254905293383976,"bin":-0.6417007033483728,"vimdir":-0.011395582208599916,"colors":-5.223694365369947,"eclim":1.2415710973135767,"bundle":1.6433024631959754,"spec":-2.310939908021883,"test":-2.01769711643491,"config":2.397524425833361,"snippets":-0.45811806171107256,"vimrc":4.530956894800021,"elisp":3.73143907144153,"vim":2.516712886050072,"bashrc":0.19062322630281195,"install":0.6576262023002442,"gitmodules":0.385142320078071,"makefile":-0.09038028856739402,"autoload":-1.767249907745297,"doc":4.831848385815635,"ftplugin":0.2229232100300574,"indent":0.7376060705314506,"plugin":6.385027793148065,"syntax":-1.7177478643546762,"after":0.28544793399391266}},"12":{"bias":-5.06946157577225,"weights":{"vperc":14.025888731960247,"lib":-0.7117156752675633,"src":-1.2024820893848884,"bin":0.07541048080386777,"vimdir":0.09441567498570023,"colors":-0.33496277555196086,"eclim":-2.414414805596063,"bundle":-1.8303660227877525,"spec":2.0856173409979104,"test":6.097197479194494,"config":-0.8399696073125855,"snippets":0.29060395862361793,"vimrc":-5.728207496838108,"elisp":-2.118366989875408,"vim":-1.5635690872202719,"bashrc":-0.13801640270362708,"install":-0.3480095671559792,"gitmodules":0.08547663564294172,"makefile":-0.17936084857210519,"autoload":-0.5721513109527389,"doc":2.873721530696468,"ftplugin":-0.49588007890983127,"indent":-0.8899403406376292,"plugin":-2.60240228649044,"syntax":0.7837771847633638,"after":-0.7219734739926267}}},{"plugin":{"bias":-3.3083284722766373,"weights":{"0":4.228992646940417,"1":-7.712732128227022,"2":-7.38723869343853,"3":0.008016696819948424,"4":1.5263487193853944,"5":0.46196567104980996,"6":-5.840891038058452,"7":-3.5062259104724327,"8":-0.623317525534956,"9":0.5246629778239369,"10":4.9558995958127925,"11":-7.316572504442387,"12":8.72828610739347}},"other":{"bias":3.310562144109381,"weights":{"0":-4.237936488597191,"1":7.777230676338096,"2":7.332302098311629,"3":0.15154102161121022,"4":-1.4367961461641607,"5":-0.37999019416690044,"6":5.810064479606527,"7":3.5515422174907583,"8":0.6586224142928624,"9":-0.6226119193182121,"10":-5.1436597107678015,"11":7.3459602172133405,"12":-8.64171811680581}}}],"outputLookup":true,"inputLookup":true}