{"layers":[{"vperc":{},"lib":{},"vimdir":{},"colors":{},"spec":{},"test":{},"t":{},"snippets":{},"vimrc":{},"elisp":{},"vim":{},"install":{},"makefile":{},"autoload":{},"doc":{},"ftplugin":{},"indent":{},"plugin":{},"syntax":{},"after":{}},{"0":{"bias":-0.7976630980509568,"weights":{"vperc":2.295397757335678,"lib":-0.4662610008652808,"vimdir":0.05274044507229378,"colors":0.7388279078241968,"spec":0.6252733510591687,"test":-0.08109859654706117,"t":0.28459080681608084,"snippets":-0.0045346564719080775,"vimrc":-2.399315444538834,"elisp":-1.389305241200048,"vim":-0.056704009104918865,"install":-0.5615305442858722,"makefile":-0.5325464557828394,"autoload":0.6196081207835467,"doc":0.03598687983960655,"ftplugin":0.32455404701918245,"indent":-0.02433691863221998,"plugin":-0.5214855149633321,"syntax":-0.0474341879234507,"after":0.41325598660307017}},"1":{"bias":-1.0577299397893611,"weights":{"vperc":2.9329334696489724,"lib":-0.2325187804240118,"vimdir":0.18565003158656865,"colors":0.9757011570042793,"spec":0.5809389969548697,"test":-0.1312731072149886,"t":0.3518002680321339,"snippets":0.13770060982918972,"vimrc":-2.7794466579485277,"elisp":-1.6164699084735166,"vim":-0.032807985136391056,"install":-0.4018885461335202,"makefile":-0.563548700249131,"autoload":0.8147174132882296,"doc":-0.13270479163894297,"ftplugin":0.29922145378393505,"indent":0.3184486215313815,"plugin":-0.6352313191284998,"syntax":-0.1341601631033542,"after":0.2743174246075269}},"2":{"bias":1.3478532797553335,"weights":{"vperc":-4.5798422276648925,"lib":0.5919745781990581,"vimdir":-0.08591721437329547,"colors":-4.588144916655239,"spec":-0.9607180542843353,"test":1.182432938944182,"t":0.06403053171154949,"snippets":0.1523633720446399,"vimrc":4.003872855170055,"elisp":2.553099366416398,"vim":0.13457940500437365,"install":0.945138388972125,"makefile":0.9728037814713628,"autoload":0.35905567601958926,"doc":1.055157556755766,"ftplugin":-0.3886034794317099,"indent":-0.09373512016561956,"plugin":-3.853078617662411,"syntax":-0.8121785236054928,"after":-0.30586526091046534}},"3":{"bias":0.11741647748567917,"weights":{"vperc":-5.939572800975355,"lib":0.6764904075731983,"vimdir":-0.005051141998619648,"colors":-1.4429888872147623,"spec":-1.5357910018253793,"test":-3.322393176957263,"t":-1.838795531382973,"snippets":0.14108053275969212,"vimrc":5.18727876954137,"elisp":2.9918983423384624,"vim":-0.20100717721306638,"install":1.5577568362557126,"makefile":1.631009291529841,"autoload":1.2393867567587211,"doc":-4.035778573795743,"ftplugin":-0.5973612128618593,"indent":-0.36144140091979343,"plugin":3.819053705931262,"syntax":0.871100604605674,"after":-0.32253604134654973}},"4":{"bias":0.7249923206180555,"weights":{"vperc":-2.8545621458260437,"lib":0.23021905208543358,"vimdir":0.1818080624119034,"colors":-1.5148530908104694,"spec":-0.7424878835781531,"test":0.2742972662904337,"t":-0.2452293028882992,"snippets":-0.11665093345229464,"vimrc":2.549632024165196,"elisp":1.6819296403927917,"vim":0.11687448452220757,"install":0.5714020549954386,"makefile":0.49499396947970553,"autoload":-0.5310737162051198,"doc":0.34308359396221794,"ftplugin":-0.1741890460083968,"indent":-0.12372475102604812,"plugin":-0.3315041166921348,"syntax":-0.03175669470769691,"after":-0.14299238007909}},"5":{"bias":-0.6326041321745154,"weights":{"vperc":1.2141991959382872,"lib":-0.17125709199362213,"vimdir":0.17783655387364689,"colors":0.521868696553059,"spec":0.16176078087448442,"test":-0.06944683122228988,"t":0.21767211159670286,"snippets":-0.0037117432573772926,"vimrc":-1.2874375719576328,"elisp":-0.6850338172895426,"vim":0.16710972729788617,"install":-0.11754223223723016,"makefile":-0.18396494427494725,"autoload":0.5772330373764922,"doc":-0.02256844520458173,"ftplugin":0.07372415888982503,"indent":0.052264330124171046,"plugin":-0.48547759915380223,"syntax":0.06710899404041588,"after":0.1361886704518864}},"6":{"bias":-0.5116685290834433,"weights":{"vperc":1.4447894617900685,"lib":-0.08051808572090674,"vimdir":-0.014073938131150878,"colors":0.5204867107123783,"spec":0.19422762776698202,"test":-0.09646520585151738,"t":0.09031703023217699,"snippets":-0.020106852301330563,"vimrc":-1.1984668046090765,"elisp":-0.609077073395719,"vim":-0.09541952808649315,"install":-0.37577360692325773,"makefile":-0.20143201321905563,"autoload":0.5052533013933623,"doc":-0.17624479385878278,"ftplugin":0.14247736169583208,"indent":0.038818985412074375,"plugin":-0.2924732363286604,"syntax":-0.03403800102597903,"after":0.14538591364603154}},"7":{"bias":0.19294533151910293,"weights":{"vperc":-2.353842728398198,"lib":0.4881293117080309,"vimdir":0.19621245173772275,"colors":-0.45626884469629986,"spec":-0.43436522510357606,"test":-1.0093951030887047,"t":-0.11936036605137915,"snippets":-0.00666464775278109,"vimrc":2.1433532649502487,"elisp":1.436079451610862,"vim":-0.14756906688109467,"install":0.5339906251115623,"makefile":0.7701014090201119,"autoload":-0.02358835291129087,"doc":-0.660232756879448,"ftplugin":-0.07875856437092632,"indent":-0.3053309298045768,"plugin":0.9083739752777081,"syntax":0.31029031153804,"after":0.11400765959055537}},"8":{"bias":-1.441507344395351,"weights":{"vperc":3.9754493089182565,"lib":-0.6310631161804466,"vimdir":0.15027933265708288,"colors":1.4055721806498935,"spec":0.9560752041196032,"test":-0.19408045899941764,"t":0.5062626214513255,"snippets":-0.06061179446908891,"vimrc":-3.9159776554058614,"elisp":-2.4991246534990306,"vim":-0.12818697183383262,"install":-0.7466354077289408,"makefile":-0.6784292162733153,"autoload":0.9616643889171478,"doc":-0.15651644898861483,"ftplugin":0.4824939929848531,"indent":0.2426441433034755,"plugin":-0.7772106153908417,"syntax":-0.14070126820459336,"after":0.37865631201281}},"9":{"bias":-1.5086262136672082,"weights":{"vperc":4.193767113917223,"lib":-0.5379325776765331,"vimdir":0.01602328901497538,"colors":1.4487787535646166,"spec":1.030055884424688,"test":-0.1416979613546721,"t":0.6164295614872874,"snippets":-0.050560110422617446,"vimrc":-3.994842069195513,"elisp":-2.4596746958032596,"vim":0.17147120479886446,"install":-0.7685913693135051,"makefile":-0.8407813887398791,"autoload":0.9968898143112086,"doc":-0.17637450846128142,"ftplugin":0.4058853275765946,"indent":0.08514707430792677,"plugin":-0.83170405054456,"syntax":-0.1320051273358171,"after":0.2945489266748085}}},{"plugin":{"bias":-1.0299522387355198,"weights":{"0":2.2623086969267123,"1":3.0238635046160005,"2":-6.860733202069735,"3":-7.644709746156516,"4":-3.0169842985684987,"5":1.1181169143998868,"6":1.1186427471922817,"7":-2.573834503248613,"8":4.143620209917102,"9":4.199172014357338}},"other":{"bias":0.9862834276559863,"weights":{"0":-2.3865361700219414,"1":-2.654819265421962,"2":6.778308359569606,"3":7.59072922130958,"4":3.287312828325309,"5":-1.197755713990942,"6":-1.3327428827614103,"7":2.694124966660959,"8":-4.103263578084967,"9":-4.299280670394539}}}],"outputLookup":true,"inputLookup":true}