{"layers":[{"vperc":{},"lib":{},"src":{},"bin":{},"vimdir":{},"colors":{},"eclim":{},"bundle":{},"spec":{},"test":{},"config":{},"snippets":{},"vimrc":{},"elisp":{},"vim":{},"install":{},"gitmodules":{},"makefile":{},"autoload":{},"doc":{},"ftplugin":{},"indent":{},"plugin":{},"syntax":{},"after":{}},{"0":{"bias":5.395666066623287,"weights":{"vperc":-7.291595843496065,"lib":0.450858820429258,"src":4.62292189926799,"bin":0.22881195186761458,"vimdir":0.024489968152911126,"colors":-0.442364488438415,"eclim":3.383810497676405,"bundle":0.6042800265387234,"spec":-1.4176817635719425,"test":0.39753647082590104,"config":1.4210562018348374,"snippets":0.1314465063691873,"vimrc":6.310511134570835,"elisp":5.620953082671324,"vim":0.7360321811433196,"install":0.9460764599304227,"gitmodules":-0.8615824119359452,"makefile":-0.037569044809788454,"autoload":-1.5056807850452,"doc":-0.8453052905794931,"ftplugin":-0.9308747330800544,"indent":-0.10422026732451631,"plugin":-1.5668702500216007,"syntax":0.14391492904828962,"after":-0.7238287550381225}},"1":{"bias":-1.794561786550063,"weights":{"vperc":-6.776760838730362,"lib":0.3090791029232352,"src":3.4401822736145027,"bin":0.32934902412139694,"vimdir":0.18123195597851663,"colors":-2.9075769225698385,"eclim":1.6006102064650887,"bundle":1.1878039192133147,"spec":-1.2605438386316687,"test":-1.8440122562809205,"config":3.858050852029921,"snippets":0.6748724698968266,"vimrc":6.5905425925945025,"elisp":1.401863604347513,"vim":2.561994714209782,"install":0.24676538142079832,"gitmodules":1.1227200836132092,"makefile":0.19424663316458463,"autoload":1.0446879295756877,"doc":-2.4887096128754167,"ftplugin":-0.044285264332571316,"indent":0.5922687660924322,"plugin":4.76245813086374,"syntax":1.3397798933703513,"after":0.6511479761051121}},"2":{"bias":-2.11917315748758,"weights":{"vperc":-2.3607185082469875,"lib":0.15564834859651772,"src":0.26423273445151385,"bin":0.15946919105748017,"vimdir":-0.11500842028772958,"colors":-1.7016091259760613,"eclim":0.8315834800869305,"bundle":0.47714639665993563,"spec":-0.10888428696579744,"test":-0.9779902754664451,"config":0.6648369021305569,"snippets":0.3687486977797168,"vimrc":1.1115496570885288,"elisp":0.9411852160586546,"vim":0.6596107816177073,"install":-0.006818156876900012,"gitmodules":-0.020706864576346278,"makefile":0.0997968018986285,"autoload":-0.06628446165304609,"doc":0.3108099096737368,"ftplugin":0.16925729547537874,"indent":0.26300346429210997,"plugin":-0.440095527540009,"syntax":-0.6820755072861174,"after":0.297904382681354}},"3":{"bias":-1.8410680901732495,"weights":{"vperc":-4.406743259492374,"lib":0.14816594116091972,"src":1.070678898618314,"bin":0.16633739201870856,"vimdir":-0.06734075301339452,"colors":-2.4833696437769315,"eclim":1.0142411238018512,"bundle":0.8737643921469666,"spec":-0.6252915793284901,"test":-0.6208794677798202,"config":0.9925320590369195,"snippets":0.4671809598525622,"vimrc":1.989468259165479,"elisp":1.5171000754843162,"vim":0.9584142450347329,"install":0.4270975938884263,"gitmodules":-0.1264350687918841,"makefile":0.05700401896610857,"autoload":-0.17018063034013783,"doc":0.15699028246775135,"ftplugin":0.10178025219103953,"indent":0.33526384689417565,"plugin":0.25543538936389315,"syntax":-0.4530535473450945,"after":0.1406158508399585}},"4":{"bias":-2.7435530927221707,"weights":{"vperc":16.635380781314275,"lib":-0.5045672494787616,"src":3.737016973045253,"bin":-0.6462583246693661,"vimdir":-0.12704145482981355,"colors":9.028868427294505,"eclim":-5.9888278678859574,"bundle":-0.6767532172466525,"spec":0.8715535230266274,"test":-1.9890229551229053,"config":-1.5333170735303823,"snippets":-0.30564349118399736,"vimrc":-9.140679483638035,"elisp":-8.701821253019563,"vim":-0.8147712249648793,"install":-0.3277910506973564,"gitmodules":-0.10404020389965825,"makefile":0.13787782033905388,"autoload":-0.6088292636175854,"doc":-5.633894588491371,"ftplugin":0.8786810950290749,"indent":0.4660072370757216,"plugin":3.1070589100320394,"syntax":2.435610500674204,"after":1.6195292284693423}},"5":{"bias":-1.6055745244884259,"weights":{"vperc":-4.945903761622348,"lib":0.24117879761878724,"src":1.1434451616849124,"bin":0.20877393806961345,"vimdir":-0.1130793728480041,"colors":-2.808885469117985,"eclim":1.274334604307728,"bundle":0.7071679439125816,"spec":-0.6665739896590395,"test":-0.5615490500899823,"config":1.500305613323247,"snippets":0.40677250828848377,"vimrc":2.8191969349574992,"elisp":2.3546497307428607,"vim":0.9078401461243861,"install":0.3361641992749872,"gitmodules":-0.12246982095842718,"makefile":-0.14402022706344725,"autoload":-0.23410621293644024,"doc":0.23764055992667582,"ftplugin":0.028314887860781537,"indent":0.32673570674970354,"plugin":0.5212934459013338,"syntax":-0.23612579287048577,"after":0.24593642845349628}},"6":{"bias":-1.8266547589942845,"weights":{"vperc":-6.619644541078238,"lib":0.39562934002125466,"src":2.906790938068821,"bin":-0.016558048433953965,"vimdir":0.16045987199824127,"colors":-3.0161899517964943,"eclim":2.2312249136970785,"bundle":1.0500306149374945,"spec":-1.0793816421545601,"test":-1.7276180360124516,"config":1.9836148032452472,"snippets":0.4597332255283968,"vimrc":4.625459652912748,"elisp":1.180364140819566,"vim":1.771297482484077,"install":0.3606886628383165,"gitmodules":0.49622701219085996,"makefile":0.035361762903630745,"autoload":0.3640562286561418,"doc":-1.7477064458056315,"ftplugin":0.19005852795684092,"indent":0.5892357630794274,"plugin":4.584638059142181,"syntax":1.1457232854245598,"after":0.5593517599279811}},"7":{"bias":-2.067187019646929,"weights":{"vperc":2.155197787368793,"lib":-0.21150942140744827,"src":-1.8412550897963333,"bin":-0.16529320701978342,"vimdir":-0.15944517387227553,"colors":-1.1669397781636297,"eclim":-0.5733027711987121,"bundle":-0.4045855037581984,"spec":0.37325133180551445,"test":0.8313672384701112,"config":-0.6690957939793131,"snippets":-0.26287960622325096,"vimrc":-2.0770233731295917,"elisp":-1.4671887806570858,"vim":-0.4541252258088734,"install":-0.043756739954427984,"gitmodules":0.1084881489757442,"makefile":0.13703216053545475,"autoload":0.4865593492079798,"doc":-1.424133233858485,"ftplugin":0.09697325491079654,"indent":-0.27208845514810465,"plugin":-0.15650644215382403,"syntax":0.7775488348890514,"after":-0.17248666920191505}},"8":{"bias":-2.08395654155481,"weights":{"vperc":-2.290016128781625,"lib":-0.06518668437526175,"src":0.39949083398046065,"bin":-0.19800791224217562,"vimdir":0.18209668211913035,"colors":-1.6811282427258325,"eclim":0.5609187202199802,"bundle":0.39516318659476346,"spec":-0.259280384683393,"test":-0.8321406504840761,"config":0.6034320640183402,"snippets":0.3888635419928535,"vimrc":1.0796331516701294,"elisp":0.5765476053303816,"vim":0.37670434805395214,"install":0.11832235926347526,"gitmodules":-0.23257435176026622,"makefile":-0.03749001258984208,"autoload":0.13784741049156313,"doc":0.13784553148112044,"ftplugin":0.17703710088841973,"indent":0.3535956031772159,"plugin":-0.46291821089100443,"syntax":-0.7481459337205912,"after":0.31831677903961497}},"9":{"bias":-2.8257526147459755,"weights":{"vperc":3.8960436555574316,"lib":-0.17613364992830127,"src":-2.6544321681271574,"bin":0.008603037858838678,"vimdir":-0.06144373377578557,"colors":-1.1162630524214285,"eclim":-1.2015188907543426,"bundle":-0.9614637371763963,"spec":1.1078428027878073,"test":1.2048938515141805,"config":-0.9693140018058857,"snippets":-0.36235317274764683,"vimrc":-3.752584751915447,"elisp":-2.5620879388591966,"vim":-0.5872512423862668,"install":-0.05738394117306149,"gitmodules":0.6235667488994138,"makefile":-0.03259591814130544,"autoload":0.8012429276165254,"doc":-1.4065726441201039,"ftplugin":0.3728933846337933,"indent":-0.220858083886621,"plugin":0.14254488538340165,"syntax":1.2877300107569372,"after":-0.2075219843842203}},"10":{"bias":-3.468847507327958,"weights":{"vperc":4.570686811334654,"lib":-0.28405138563483784,"src":-1.7404886906427304,"bin":-0.211875392065894,"vimdir":-0.16433871696723149,"colors":-0.5357598365840882,"eclim":-1.1063393521359024,"bundle":-0.6786763423113126,"spec":1.0330044901280213,"test":5.252645422687471,"config":-1.1324588355627476,"snippets":-0.44522604012824285,"vimrc":-5.360986827346551,"elisp":-2.6971272703101454,"vim":-0.8501818193045905,"install":-0.28148707812261003,"gitmodules":0.20972096747528057,"makefile":0.16650230661034587,"autoload":0.1025548537902434,"doc":-2.9559176579743145,"ftplugin":0.3738687357269021,"indent":-0.3343635023883376,"plugin":-1.6224662743605431,"syntax":2.708319695241152,"after":-0.0010723911241080333}},"11":{"bias":-1.690573303627082,"weights":{"vperc":-8.379198933570168,"lib":0.23586960479033492,"src":4.390523439765762,"bin":-0.10879561964056482,"vimdir":0.004631833556561752,"colors":-3.011115446524616,"eclim":1.3609011153367037,"bundle":1.2620221264919984,"spec":-1.5808231468988039,"test":-1.6188979544836581,"config":4.515063895134541,"snippets":0.6159738178837536,"vimrc":7.768685179619299,"elisp":0.9392493299226646,"vim":3.409158530200725,"install":0.5835662356910074,"gitmodules":1.3197188813285146,"makefile":-0.06245929580181839,"autoload":1.1036911295984158,"doc":-2.766818339270379,"ftplugin":0.14302366401339162,"indent":0.663037553064416,"plugin":5.5875608406072805,"syntax":1.41746285442695,"after":0.5582938912416945}}},{"plugin":{"bias":-1.5418110839727965,"weights":{"0":-8.890771176564192,"1":-6.641492487758163,"2":-0.6910074715942763,"3":-1.1080086546828252,"4":11.01616234507505,"5":-1.0709313627319756,"6":-4.833220492746728,"7":1.099395462424922,"8":-0.5323609682814695,"9":3.0335303797028983,"10":5.343863185767639,"11":-8.5198372114244}},"other":{"bias":1.5818728753613451,"weights":{"0":8.853272028970652,"1":6.699178767197371,"2":0.5487692129552837,"3":1.1042412833594912,"4":-11.011157819707208,"5":1.0477876851629098,"6":5.010832629573111,"7":-1.285497143980818,"8":0.584110855709042,"9":-3.0722003697921108,"10":-5.2830128021736975,"11":8.40493698011168}}}],"outputLookup":true,"inputLookup":true}