{"layers":[{"vperc":{},"lib":{},"src":{},"bin":{},"vimdir":{},"colors":{},"eclim":{},"bundle":{},"spec":{},"test":{},"config":{},"snippets":{},"vimrc":{},"elisp":{},"vim":{},"bashrc":{},"install":{},"gitmodules":{},"makefile":{},"autoload":{},"doc":{},"ftplugin":{},"indent":{},"plugin":{},"syntax":{},"after":{}},{"0":{"bias":-1.0724105542743856,"weights":{"vperc":8.073567444559044,"lib":-1.0789803781852914,"src":3.898276036013398,"bin":-0.7914269643908882,"vimdir":-0.27928010012554183,"colors":6.892840633133987,"eclim":-3.9853408594874598,"bundle":-0.8416965058724669,"spec":0.34937980115778816,"test":-3.283370882117495,"config":-1.2921840795654036,"snippets":0.6616584839418768,"vimrc":-4.996411041224022,"elisp":-5.592373568221428,"vim":-0.5576955699000091,"bashrc":-0.3367852184227686,"install":-1.4307807275471511,"gitmodules":-0.007721815020322272,"makefile":-0.19393024761229755,"autoload":2.4064020239790422,"doc":-2.596176333591611,"ftplugin":0.01601883503351001,"indent":0.28710678277075335,"plugin":2.1372858209693786,"syntax":3.346342340990121,"after":1.41751733012722}},"1":{"bias":-4.145354646410152,"weights":{"vperc":5.9479005422943,"lib":-0.3119772832568749,"src":-1.103907776861689,"bin":-0.08075444198048759,"vimdir":-0.1608325193929182,"colors":-1.8943405816105796,"eclim":-1.4548251279843913,"bundle":-0.9487608226156329,"spec":0.8062854687117565,"test":-0.1518575819995069,"config":-1.0103215862921342,"snippets":0.19669222652586293,"vimrc":-3.5346507351948455,"elisp":-1.8437362117046316,"vim":-0.9346092553572637,"bashrc":0.15508437218916915,"install":-0.16704260909177124,"gitmodules":0.055085282067702024,"makefile":-0.016387750487774605,"autoload":0.5165350636806738,"doc":-0.30814992819284154,"ftplugin":-0.09956056723396872,"indent":-0.3462225370089622,"plugin":-0.79488847091769,"syntax":0.251237859880696,"after":-0.021787085433405528}},"2":{"bias":-1.911892736237991,"weights":{"vperc":-4.689993701811893,"lib":0.3446856864827078,"src":1.7923172385651334,"bin":-0.08969783530451474,"vimdir":0.07094984668323352,"colors":-2.4992621357113136,"eclim":1.1956660094352556,"bundle":1.0551728603725734,"spec":-0.8109808249375979,"test":-1.720821504453451,"config":1.8985139870412067,"snippets":-0.13755487161234348,"vimrc":4.251427794608721,"elisp":0.906743154529545,"vim":1.431300311875142,"bashrc":0.26124840638338537,"install":0.5506748600768515,"gitmodules":0.328785059095368,"makefile":0.036380876135081064,"autoload":0.7781705613919486,"doc":-2.1116478476102727,"ftplugin":0.0970724824997077,"indent":0.3222025206499647,"plugin":3.7635425360669323,"syntax":1.1250015002378069,"after":0.569209307539712}},"3":{"bias":-1.2032898291903973,"weights":{"vperc":-8.511733571437976,"lib":0.7626676947174617,"src":3.1831074080097923,"bin":0.07161281582636786,"vimdir":0.30897557124470054,"colors":-3.1272558155383274,"eclim":2.6418763818439372,"bundle":1.5400330703074083,"spec":-1.3337017532062774,"test":-0.8937558658576753,"config":4.301422346245642,"snippets":-0.2796862362327023,"vimrc":7.048021843672019,"elisp":1.8862101025670504,"vim":2.599109488673817,"bashrc":-0.006091544714340691,"install":0.8963374416644758,"gitmodules":0.9170406944563378,"makefile":0.025060933735221613,"autoload":1.031669971891946,"doc":-1.82904097354017,"ftplugin":0.25454033510961555,"indent":0.6864747862276179,"plugin":4.932372415941641,"syntax":1.5743933303651603,"after":0.5314274597827698}},"4":{"bias":-2.083517678341541,"weights":{"vperc":-0.23480191158785138,"lib":-0.03726843856674678,"src":-0.26647614536310676,"bin":-0.03071527650589009,"vimdir":0.12452375819937184,"colors":-1.2339169884646446,"eclim":0.08995106268056208,"bundle":0.07626045957017215,"spec":0.177619037165297,"test":-0.5113107112778374,"config":-0.15193380061326595,"snippets":0.04151003083646425,"vimrc":-0.4751890502706724,"elisp":-0.11499755867412706,"vim":-0.12169965310494295,"bashrc":0.16484887022240777,"install":-0.2041782864964866,"gitmodules":-0.3433990896122622,"makefile":0.01613440308719874,"autoload":-0.17008549128286468,"doc":-0.5245216904010401,"ftplugin":0.18386923081177353,"indent":-0.11499239692324482,"plugin":-0.8097317001501914,"syntax":-0.2428177604644038,"after":-0.01391589410716881}},"5":{"bias":-2.1948297938386028,"weights":{"vperc":0.34672256685901487,"lib":-0.02553281885413445,"src":-0.6118881682693497,"bin":0.18885689824739998,"vimdir":0.1383603941656466,"colors":-1.2126770644718705,"eclim":-0.18736603765259455,"bundle":-0.2695548610023189,"spec":0.3518968721199125,"test":-0.33579287438222855,"config":-0.34469860814653003,"snippets":0.1649071885864978,"vimrc":-0.662841115327522,"elisp":-0.5937459800279895,"vim":-0.3046940977532803,"bashrc":0.1711407062155499,"install":0.09800447502967481,"gitmodules":-0.12444934141005548,"makefile":-0.06904143486171962,"autoload":0.007070989591696262,"doc":-0.36465635988926703,"ftplugin":0.22038120074935605,"indent":0.06253935236771291,"plugin":-0.4902660298219281,"syntax":-0.22170489809751667,"after":-0.04441840936294422}},"6":{"bias":-0.7008135221897273,"weights":{"vperc":-1.9012899065353712,"lib":0.6549842269229571,"src":3.2754788245615982,"bin":0.5763707070570112,"vimdir":-0.011437114692016406,"colors":-4.273738596845216,"eclim":2.3508184081953787,"bundle":0.6161297101945331,"spec":-0.638463738425952,"test":-0.04324253758260422,"config":2.262486790101426,"snippets":-0.41572530558073034,"vimrc":5.403468175364029,"elisp":2.8472344513706576,"vim":1.2687182100104137,"bashrc":0.26952375490274133,"install":0.7663919951612717,"gitmodules":0.16555327881076173,"makefile":-0.11959694651886821,"autoload":-0.34997167753562797,"doc":2.3306116162229125,"ftplugin":0.304319334277516,"indent":-0.0720123851519891,"plugin":-2.691031175999061,"syntax":-1.336379080815773,"after":-0.5445533900079544}},"7":{"bias":-1.4138615158473118,"weights":{"vperc":-3.391442733393042,"lib":0.4776018624054274,"src":0.016367770084928,"bin":0.17822022149843353,"vimdir":0.18809095326907233,"colors":-2.7091095986604476,"eclim":0.9762266977836475,"bundle":0.981753054636783,"spec":-0.7202138532437732,"test":-0.5202648951343161,"config":1.1699261855879044,"snippets":-0.1886854708244991,"vimrc":3.155855134962207,"elisp":1.491045663041896,"vim":0.995445260623389,"bashrc":0.20799029798608498,"install":0.3715533984442845,"gitmodules":0.32242612915857977,"makefile":-0.015820495318621397,"autoload":0.2145091552474024,"doc":-0.9979086613141077,"ftplugin":0.2000547592328302,"indent":0.44674939269865455,"plugin":1.897018720755204,"syntax":1.023462513765049,"after":0.1528641519751354}},"8":{"bias":-3.329748714271509,"weights":{"vperc":4.09032007745724,"lib":-0.15048028550735437,"src":-2.100621960828862,"bin":0.028943234532724287,"vimdir":0.037267460617138,"colors":-1.0593016016453751,"eclim":-1.289736587784094,"bundle":-0.7228274111258429,"spec":0.7026406376453765,"test":0.292352127686194,"config":-0.8705328368346874,"snippets":0.08471542541591334,"vimrc":-3.2446141083507753,"elisp":-2.2066758803471704,"vim":-0.7566197353294015,"bashrc":-0.021627337843039503,"install":0.12356448893772978,"gitmodules":0.298727242351197,"makefile":0.02517826734110712,"autoload":1.199554931844429,"doc":-0.6448969693262667,"ftplugin":-0.19254422128228915,"indent":-0.3891826074640877,"plugin":0.38480616834218623,"syntax":0.8262564131380216,"after":0.13462372248661028}},"9":{"bias":5.247685987313865,"weights":{"vperc":-15.596389366328312,"lib":0.9138997105458636,"src":0.9127436664191446,"bin":0.04565801181099055,"vimdir":0.03763649729322973,"colors":-0.04456736045829213,"eclim":3.246587029423012,"bundle":1.5381079060740324,"spec":-1.7111043260410252,"test":-5.678177648514887,"config":1.2814500169801606,"snippets":-0.43890353580374963,"vimrc":6.661416359967378,"elisp":2.843141879231383,"vim":1.4715023392576614,"bashrc":0.03821121686687313,"install":0.6586798121032641,"gitmodules":-0.05747433312088665,"makefile":0.03277786001563071,"autoload":0.010856455422157955,"doc":-1.799769700874722,"ftplugin":0.3927113831920522,"indent":0.5952543226105291,"plugin":2.905195377012516,"syntax":-0.30073249055120993,"after":0.4202065131105257}},"10":{"bias":-4.798006137313348,"weights":{"vperc":6.748116554378123,"lib":-0.6131360308822796,"src":-2.3877905515572535,"bin":0.36862334847323286,"vimdir":-0.23240186447989689,"colors":-0.13279564623374313,"eclim":-1.6705539256641002,"bundle":-1.2174071834584541,"spec":1.421194111195375,"test":1.7402519790113709,"config":-1.0317387822531447,"snippets":0.34806727110068086,"vimrc":-5.624282233445211,"elisp":-3.321882327514921,"vim":-1.1216063582307665,"bashrc":-0.05649948637054251,"install":0.26399613736176136,"gitmodules":0.969330701830228,"makefile":-0.07069881102070213,"autoload":1.5064354642773703,"doc":-0.9865910075977599,"ftplugin":-0.0862476392091492,"indent":-0.3823531789163899,"plugin":0.018841050208438983,"syntax":1.6290644892794515,"after":0.1745150982510227}},"11":{"bias":-1.9409533187408403,"weights":{"vperc":-5.4883619994801,"lib":0.5567404711069964,"src":0.9510880830015568,"bin":-0.22771265956165973,"vimdir":0.07385489222885967,"colors":-2.3326210167006525,"eclim":1.498817501570472,"bundle":1.0589808153641453,"spec":-1.1093317812638444,"test":-2.3507208448600503,"config":2.634519423303132,"snippets":0.08862777616769055,"vimrc":5.994066902105581,"elisp":1.1059269256974493,"vim":2.5273934219191143,"bashrc":0.010533848499511406,"install":0.17988212654089086,"gitmodules":1.5844291931661323,"makefile":-0.17288159113377333,"autoload":1.4994917716141898,"doc":-3.3311843494461413,"ftplugin":0.32600762721408705,"indent":0.47789887959533367,"plugin":4.701024676556474,"syntax":1.0070327346046095,"after":0.7748462679534563}},"12":{"bias":-0.005896522396338318,"weights":{"vperc":-2.4941309260292113,"lib":0.9042018919638936,"src":3.3337567074370673,"bin":0.825119893881538,"vimdir":0.24033557551187826,"colors":-4.816975188414235,"eclim":3.311823899587387,"bundle":0.894771074525699,"spec":-0.7226955449054683,"test":0.009385047769002416,"config":3.5813379477793523,"snippets":-0.46373236688555425,"vimrc":6.263077485577223,"elisp":3.2159290733051753,"vim":2.118388201935185,"bashrc":0.44493179878596545,"install":0.9157660403527916,"gitmodules":1.1744489844150123,"makefile":0.18869093609973792,"autoload":-0.559709907785547,"doc":2.5596924607196603,"ftplugin":0.27821294193856805,"indent":-0.009510361877856302,"plugin":-3.828491801523953,"syntax":-2.063370326401749,"after":-0.6888535038577026}}},{"plugin":{"bias":0.15729477978137008,"weights":{"0":8.528271889795432,"1":0.31366206916858874,"2":-4.686132240563305,"3":-6.850247120153648,"4":0.04553128248356371,"5":0.17741205252961822,"6":-3.565584266701623,"7":-1.9692966398251563,"8":2.166273857329647,"9":-7.826251995399528,"10":5.456550846414175,"11":-6.598476745061847,"12":-5.660353769694583}},"other":{"bias":-0.09500800628173292,"weights":{"0":-8.537358036926218,"1":-0.47559716350673853,"2":4.716274897857118,"3":6.747319785545086,"4":-0.012306211604013474,"5":-0.057143605178502636,"6":3.416454092667459,"7":2.0785103121363355,"8":-2.182801976881741,"9":7.767452073817673,"10":-5.484529573923497,"11":6.634573653335308,"12":5.760315107815307}}}],"outputLookup":true,"inputLookup":true}