{"layers":[{"vperc":{},"lib":{},"src":{},"bin":{},"vimdir":{},"colors":{},"eclim":{},"bundle":{},"spec":{},"test":{},"config":{},"snippets":{},"vimrc":{},"elisp":{},"vim":{},"bashrc":{},"install":{},"gitmodules":{},"makefile":{},"autoload":{},"doc":{},"ftplugin":{},"indent":{},"plugin":{},"syntax":{},"after":{}},{"0":{"bias":-2.741783747457269,"weights":{"vperc":-3.664472803445147,"lib":0.6897356227105902,"src":2.3520968033644825,"bin":0.34462587809350087,"vimdir":-0.06863974103492199,"colors":-1.6742991679165367,"eclim":2.318438666736261,"bundle":1.2404757661265071,"spec":-1.0375659601322464,"test":-2.697952636301938,"config":3.402315708957172,"snippets":-0.019747220602412976,"vimrc":5.256668867060228,"elisp":1.832835893187146,"vim":1.0338574298072734,"bashrc":-0.038562307814611646,"install":4.0066362492388965,"gitmodules":2.2246277385786906,"makefile":0.05895002268661631,"autoload":1.3872324040112067,"doc":-2.7972002741355286,"ftplugin":0.7260614767407771,"indent":-0.237481345238839,"plugin":3.3355961578786566,"syntax":1.612151203951618,"after":3.1255546973796715}},"1":{"bias":4.062288305987952,"weights":{"vperc":-14.955516284441554,"lib":1.0857670626988791,"src":2.196586666915465,"bin":1.1068034152604174,"vimdir":-0.07951383112701352,"colors":0.6531123211073306,"eclim":3.4355412818487427,"bundle":1.1972841276921067,"spec":-1.2468435933981554,"test":-4.978249115779454,"config":1.3052111872831107,"snippets":-0.48484377614653384,"vimrc":5.52772657842613,"elisp":2.3650171312173645,"vim":0.4672913738201265,"bashrc":-0.017024345297930933,"install":-0.08553272078527593,"gitmodules":1.1617732218977843,"makefile":0.8124670024180174,"autoload":1.0925699729392877,"doc":-2.1923206544488965,"ftplugin":0.4172990703648404,"indent":-0.3362548333103503,"plugin":3.557360113428402,"syntax":0.5049968152507591,"after":3.123146946360856}},"2":{"bias":-3.985326682971186,"weights":{"vperc":4.283137518671487,"lib":-0.7243155342331814,"src":-3.08760312318325,"bin":-0.3073392799453009,"vimdir":-0.00514212484417749,"colors":-0.4373246179173536,"eclim":-1.993828130233151,"bundle":-1.0052627737041475,"spec":0.8148832006406234,"test":0.7501180070594575,"config":-0.8377838656203315,"snippets":0.3917674407480108,"vimrc":-3.3666742021707976,"elisp":-2.319504419891837,"vim":-0.236954508874253,"bashrc":0.1563685018713369,"install":0.05169055267752243,"gitmodules":-0.19757422917929132,"makefile":-1.5080830197180093,"autoload":0.7819050189497929,"doc":0.4785800626243369,"ftplugin":0.12169009905044448,"indent":-0.06472336935830522,"plugin":1.379624317775418,"syntax":0.8038735636898282,"after":-1.6103540252472315}},"3":{"bias":-2.61339111955189,"weights":{"vperc":-3.4483245934630795,"lib":0.2408709907148125,"src":1.3780890266900783,"bin":0.5058164961893532,"vimdir":0.06063011839696908,"colors":-0.3980376451986005,"eclim":1.045592863392122,"bundle":0.7591312484605357,"spec":-0.653097602735048,"test":-1.605175593363523,"config":1.0168538878267963,"snippets":0.4209739101261408,"vimrc":2.440432079132556,"elisp":1.544542224996773,"vim":0.24616872911600268,"bashrc":0.02050447847351792,"install":0.8932760078033465,"gitmodules":0.7575124263558157,"makefile":1.1810514900871534,"autoload":0.8015278247122626,"doc":0.04896766259876784,"ftplugin":0.3361518935914328,"indent":-0.0184831172724439,"plugin":-0.7009486811772329,"syntax":-1.140983150198855,"after":1.350975453915296}},"4":{"bias":-2.27185950483115,"weights":{"vperc":0.9927071507854173,"lib":-0.22191781461480925,"src":-1.3616061815737193,"bin":-0.2745399207919439,"vimdir":0.07272193481938118,"colors":-1.2153478205340793,"eclim":-0.6251473209922027,"bundle":-0.29579198181706556,"spec":0.3267484081852441,"test":-0.15720190330239944,"config":-0.3645688055355862,"snippets":-0.06592849472417896,"vimrc":-0.927772225399107,"elisp":-0.646653264019426,"vim":-0.14617383522720848,"bashrc":-0.011324441026995022,"install":-0.12736313187397058,"gitmodules":-0.02744310176908064,"makefile":-0.2840126326044978,"autoload":0.41868196881666686,"doc":-0.030864860227816218,"ftplugin":0.02182713735548018,"indent":0.03753819021634277,"plugin":0.05209824816856788,"syntax":-0.13205808246446507,"after":0.05036446609963622}},"5":{"bias":-2.1656197545787754,"weights":{"vperc":0.7257056198780603,"lib":-0.1636277538620425,"src":-0.8349468164253856,"bin":-0.17488119408862357,"vimdir":0.12972496744680143,"colors":-1.2235284872969892,"eclim":-0.25164626695309134,"bundle":-0.21527376659837247,"spec":0.284852456327116,"test":-0.08696173387814946,"config":-0.22743778886374605,"snippets":-0.07215291098233839,"vimrc":-0.7766548664447048,"elisp":-0.4356108338961111,"vim":0.06969712035292572,"bashrc":0.1601474835257498,"install":-0.06646546308733578,"gitmodules":0.09863258421861604,"makefile":-0.15528534581083733,"autoload":0.28107975775522603,"doc":-0.46282360627062835,"ftplugin":0.13924612216831467,"indent":-0.021615203499691853,"plugin":-0.10695090126927954,"syntax":-0.14348241053364275,"after":0.19602545339062527}},"6":{"bias":-3.87835442172737,"weights":{"vperc":3.5846477032879567,"lib":-0.6164019947633786,"src":-2.641854113468727,"bin":-0.3195798735469879,"vimdir":0.12188078529671531,"colors":-0.5293862585097472,"eclim":-1.707962145190697,"bundle":-0.48878052764247454,"spec":0.7869800569589674,"test":0.6939333668844959,"config":-0.8490022949801648,"snippets":0.21030209730301824,"vimrc":-2.847673342785443,"elisp":-2.1546448312657884,"vim":-0.23222691970953574,"bashrc":-0.14342774105748402,"install":0.07360320199310517,"gitmodules":-0.07673582661952398,"makefile":-0.8532517799526514,"autoload":0.9129879693780011,"doc":0.3587592073849258,"ftplugin":0.2395416262337439,"indent":0.36773623235272707,"plugin":1.5236532622540722,"syntax":0.3905949189127692,"after":-1.0128848108607131}},"7":{"bias":-3.014500170732341,"weights":{"vperc":-5.146319073073876,"lib":0.9111897247559374,"src":2.4801597155823223,"bin":0.32451396176491415,"vimdir":0.21819296048396344,"colors":-1.8498730387391642,"eclim":2.051495855601444,"bundle":1.688640693652424,"spec":-1.3300885925539743,"test":-1.907792025163693,"config":4.430409213908642,"snippets":0.05711526724257199,"vimrc":6.840118433518746,"elisp":1.48607329740029,"vim":1.4081412824862887,"bashrc":0.10053238784414414,"install":-0.5074979523636466,"gitmodules":3.0998378709828103,"makefile":-0.7127940384965465,"autoload":1.799540797887937,"doc":-5.0842050037674245,"ftplugin":0.7624412036524671,"indent":-0.34321951678173623,"plugin":4.858742838895643,"syntax":1.3936924108586852,"after":3.9781268819635667}},"8":{"bias":-1.8427337556372594,"weights":{"vperc":-4.131144170874021,"lib":0.5385491569271441,"src":4.864247764576696,"bin":0.6259552524051067,"vimdir":-0.14190442831112196,"colors":-2.8410067722658474,"eclim":1.4236106435814457,"bundle":0.6335493638418012,"spec":-0.7915139797485796,"test":-0.57539685502068,"config":2.531682155625509,"snippets":0.7622642154834662,"vimrc":1.5590715520961582,"elisp":2.765222341751122,"vim":0.00817611798173598,"bashrc":-0.12260279177194588,"install":3.568734603000842,"gitmodules":-2.958081789909016,"makefile":2.391069657716701,"autoload":-4.647283929967166,"doc":3.0736071760303454,"ftplugin":-0.5412934014804768,"indent":-0.30541046263994986,"plugin":4.660473621275768,"syntax":-0.08188535470092503,"after":-1.2151430279469417}},"9":{"bias":4.66861132571359,"weights":{"vperc":-5.211930742993028,"lib":1.0383967732680093,"src":3.6551510390361153,"bin":0.8146569606642593,"vimdir":-0.05623738479465974,"colors":-0.7836577795712658,"eclim":2.8913794519325657,"bundle":1.2876371852988586,"spec":-1.0609536662647439,"test":-2.432784150451313,"config":1.1916044751095278,"snippets":-0.47962272818982254,"vimrc":4.403691563897621,"elisp":3.2066187100590224,"vim":0.24313968138420733,"bashrc":-0.06711445875009851,"install":-0.11657623268325011,"gitmodules":0.4095750400194906,"makefile":1.77104962536091,"autoload":-0.8012670116255335,"doc":-1.2710101877219115,"ftplugin":-0.4002111054071642,"indent":-0.6001193495006621,"plugin":-1.183148335340953,"syntax":-0.7698644654979222,"after":2.329525710505916}},"10":{"bias":-1.2889790721581675,"weights":{"vperc":2.4958025519608853,"lib":-0.4123519596553665,"src":-2.0147618845637556,"bin":-0.5490803711433808,"vimdir":-0.03895039590675802,"colors":4.040186144034244,"eclim":-0.7159860020947598,"bundle":-0.7423085886178289,"spec":0.3514397985439329,"test":0.1205134480877085,"config":-2.1370862193917626,"snippets":-0.6666818823614046,"vimrc":-2.393276335932053,"elisp":-1.4485357653266149,"vim":-0.6775412816497512,"bashrc":-0.1951530752129352,"install":-4.297267380225457,"gitmodules":-3.184279461171551,"makefile":-1.862062342410256,"autoload":-2.9750491586251138,"doc":-1.9257707100854617,"ftplugin":0.1410515145127576,"indent":0.3409194510954215,"plugin":-4.049289767766545,"syntax":1.893671272321484,"after":-1.9056659502485884}},"11":{"bias":2.47706192909745,"weights":{"vperc":15.026652497537277,"lib":-1.212951908041038,"src":-1.124038133309649,"bin":-1.4892941091887089,"vimdir":0.17108698687465237,"colors":3.7214772148157995,"eclim":-5.395649485513446,"bundle":-0.46614202640113045,"spec":0.4154901257094898,"test":-2.7750075854755605,"config":-0.8611851835876714,"snippets":-1.5520345082193376,"vimrc":-2.67435339892931,"elisp":-6.993318624780688,"vim":0.33183356304117234,"bashrc":-0.42319705438101246,"install":-1.5650006527349083,"gitmodules":1.773420379805041,"makefile":-6.220699287219645,"autoload":4.508715054154767,"doc":-5.13437276981109,"ftplugin":1.3194338944819695,"indent":0.4569794984638639,"plugin":-2.447342534831159,"syntax":2.3813206555798665,"after":2.092494168690404}},"12":{"bias":-3.85223348278338,"weights":{"vperc":3.9451261408120724,"lib":-0.5320329453899562,"src":-2.516170343703637,"bin":-0.23781028950090413,"vimdir":-0.13741766828828242,"colors":-0.3669471567458254,"eclim":-1.5267186453332842,"bundle":-0.751573990930004,"spec":0.615738715670514,"test":1.1107562327063714,"config":-0.8900414720029827,"snippets":0.325262601223349,"vimrc":-3.238148266701885,"elisp":-1.9470546925137129,"vim":-0.15170606306591586,"bashrc":-0.016892145210136482,"install":-0.030637403269447656,"gitmodules":0.2631147349860727,"makefile":-1.1385378308725203,"autoload":1.0103704071762996,"doc":0.1417794888938002,"ftplugin":0.062314060077708525,"indent":0.29185612605198663,"plugin":0.9770123021542249,"syntax":1.1519948153956403,"after":-0.4967978625802665}}},{"plugin":{"bias":-0.17054294072338583,"weights":{"0":-5.899483966224404,"1":-6.571882932771782,"2":3.2934853974843437,"3":-0.43358702942883504,"4":0.27509517501163094,"5":0.08721568146391007,"6":2.7932106567766244,"7":-8.945483853900559,"8":-4.374393168702085,"9":-4.902051469929194,"10":2.814591256776541,"11":9.490603981410597,"12":2.5042320406287897}},"other":{"bias":0.29226327123690127,"weights":{"0":5.955244509817409,"1":6.542684192705701,"2":-3.25499973833205,"3":0.34983976695175467,"4":-0.33078066333412676,"5":-0.2842798042887716,"6":-2.758507746578517,"7":8.934567547628003,"8":4.321245326964688,"9":4.894705589984542,"10":-2.8427903690616314,"11":-9.53712023460389,"12":-2.6162422897700015}}}],"outputLookup":true,"inputLookup":true}