{"layers":[{"vperc":{},"lib":{},"vimdir":{},"colors":{},"spec":{},"test":{},"t":{},"snippets":{},"vimrc":{},"elisp":{},"vim":{},"install":{},"autoload":{},"doc":{},"ftplugin":{},"indent":{},"plugin":{},"syntax":{},"after":{}},{"0":{"bias":1.0263071720712502,"weights":{"vperc":-3.5757578616409162,"lib":0.6546472397012684,"vimdir":-0.0748468104938515,"colors":-0.8781218822272062,"spec":-0.48507979355437214,"test":0.15653299357456119,"t":-0.6359663880145654,"snippets":0.11394287397846677,"vimrc":3.9660370796296878,"elisp":2.4759702932612426,"vim":-0.08072144046873518,"install":0.7120442781387897,"autoload":-0.6183775786378415,"doc":0.09842715029334159,"ftplugin":-0.4451723401972335,"indent":-0.08927011671636563,"plugin":0.7810772425915908,"syntax":0.41757943179365853,"after":0.11480664397303107}},"1":{"bias":0.14428561414148522,"weights":{"vperc":-1.2962283908096974,"lib":0.0717333941133612,"vimdir":0.08272989134479962,"colors":-0.11779634939417077,"spec":-0.07289176494775067,"test":-0.10486437549650517,"t":-0.21950260851462633,"snippets":0.05359023758854585,"vimrc":1.2938492368252916,"elisp":0.9840924697159661,"vim":0.17849871191706432,"install":0.27674411577237407,"autoload":-0.014820329395246717,"doc":-0.05082613175593026,"ftplugin":0.03210324474250408,"indent":-0.06518114389065212,"plugin":0.22557120043857515,"syntax":-0.09305949855582026,"after":0.059496105220690175}},"2":{"bias":-1.4252915669448294,"weights":{"vperc":-2.6380178962752385,"lib":0.5794388487339459,"vimdir":-0.04239855022421485,"colors":-2.5266466217145234,"spec":-0.004978044831194658,"test":1.2819440215013442,"t":-0.10015518772150118,"snippets":0.1262269654168503,"vimrc":3.2229269228056374,"elisp":2.1959978607827653,"vim":-0.14520148486387877,"install":0.44092102541602685,"autoload":-0.3153766131245735,"doc":3.206829292382742,"ftplugin":0.41904015296382996,"indent":-0.3377454956324102,"plugin":-3.960942611838615,"syntax":-1.4817157613481589,"after":0.049819920409404375}},"3":{"bias":-0.5043944760290066,"weights":{"vperc":3.6665866901378634,"lib":-0.6075107779630441,"vimdir":0.02670829433146243,"colors":0.7864158787636328,"spec":0.6346103574823149,"test":0.5326261548410117,"t":0.4697490016696878,"snippets":0.11167570627987532,"vimrc":-3.9605726687062965,"elisp":-2.369597192912345,"vim":-0.1452859233231789,"install":-0.7638778438103742,"autoload":0.5773710349624045,"doc":0.43590994433608765,"ftplugin":0.5861905381882017,"indent":0.21602393375679513,"plugin":-1.3219280099979551,"syntax":-0.5945328216427157,"after":0.06350999522956756}},"4":{"bias":-1.1753774547010563,"weights":{"vperc":-2.937068445962077,"lib":0.6727714002489491,"vimdir":0.22050808602409952,"colors":-2.383994100541861,"spec":-0.03055638010981767,"test":1.2840941894931654,"t":-0.49376226173649856,"snippets":0.2268604978545887,"vimrc":3.7467230679595347,"elisp":2.374672932022616,"vim":-0.12467186815445391,"install":0.695729802355513,"autoload":-0.37182501047029604,"doc":2.881206863418438,"ftplugin":0.23270875092346918,"indent":-0.3212654126574427,"plugin":-3.382081419207359,"syntax":-1.0898452473993827,"after":-0.17588588577478578}},"5":{"bias":-1.4522970322835114,"weights":{"vperc":-3.5368376736108096,"lib":0.5670813669183767,"vimdir":-0.11073256585860727,"colors":-0.4426019982923022,"spec":-0.6257567572464089,"test":-1.7460275825350298,"t":-0.5111272493990651,"snippets":0.1659129180527169,"vimrc":3.441122839684478,"elisp":1.9036199137295646,"vim":-0.05962779441591558,"install":0.6438607056826912,"autoload":-0.08002234856732658,"doc":-3.368099597434787,"ftplugin":-0.5309191546407876,"indent":-0.14054023827194442,"plugin":3.9033857539872527,"syntax":0.5171288030761555,"after":0.08281243592760838}},"6":{"bias":-0.4385652290685805,"weights":{"vperc":0.3043327021509879,"lib":0.09074557388616322,"vimdir":-0.07359415956790906,"colors":-0.1221785533648229,"spec":-0.005395119421974204,"test":-0.28223611525884196,"t":0.035448467220817396,"snippets":-0.0024581619769048673,"vimrc":-0.21813275435950621,"elisp":-0.35315947427004635,"vim":0.12229621423444641,"install":0.12860037581698164,"autoload":0.24879400233771673,"doc":-0.04908449368974435,"ftplugin":-0.1552830212404111,"indent":-0.17428518649984023,"plugin":-0.14455084025057233,"syntax":-0.4340121839940501,"after":0.13921703950611836}},"7":{"bias":-1.1708356821920989,"weights":{"vperc":4.382845115834705,"lib":-0.506324153628502,"vimdir":0.08151224159241084,"colors":1.1571386946015432,"spec":0.6280872454311692,"test":0.22271499749610071,"t":0.7685839962003933,"snippets":0.018386870066069403,"vimrc":-4.6506321349169,"elisp":-3.093088162299314,"vim":-0.10828270626785924,"install":-0.841056170353684,"autoload":0.7726401545124819,"doc":-0.4533850380127128,"ftplugin":0.7034056425472608,"indent":0.27355614610255247,"plugin":-1.1810143678400433,"syntax":-0.4953777938982455,"after":0.07421915127697497}},"8":{"bias":-1.4361481087489245,"weights":{"vperc":4.8228658595844225,"lib":-0.59423908007128,"vimdir":0.02230838524056603,"colors":1.2918769444217637,"spec":0.6673636691981017,"test":0.0762242223926437,"t":0.8669192155731004,"snippets":-0.020905398909618796,"vimrc":-5.245205646862074,"elisp":-3.410905481736421,"vim":0.07198604461671909,"install":-0.9674331313062974,"autoload":0.883763941730516,"doc":-0.39254813755942836,"ftplugin":0.7470567007421045,"indent":0.45872402461711786,"plugin":-1.0753870721327787,"syntax":-0.587485379935445,"after":0.2581033112875888}}},{"plugin":{"bias":-0.45351115580236573,"weights":{"0":-4.1373110379145235,"1":-1.4623536486375772,"2":-5.256276862405504,"3":4.181325983509771,"4":-4.885148619869128,"5":-5.299464258312224,"6":0.3184809554165885,"7":4.7571725439285775,"8":5.482960545025821}},"other":{"bias":0.4615710697238843,"weights":{"0":4.110001595661134,"1":1.3258906768839747,"2":5.186238403373273,"3":-4.069956983063909,"4":4.970463154560448,"5":5.377011236626073,"6":-0.25513604496534753,"7":-5.004453732896765,"8":-5.33956071842537}}}],"outputLookup":true,"inputLookup":true}