{"layers":[{"vperc":{},"lib":{},"src":{},"bin":{},"vimdir":{},"colors":{},"eclim":{},"bundle":{},"spec":{},"test":{},"config":{},"snippets":{},"vimrc":{},"elisp":{},"vim":{},"install":{},"gitmodules":{},"makefile":{},"autoload":{},"doc":{},"ftplugin":{},"indent":{},"plugin":{},"syntax":{},"after":{}},{"0":{"bias":1.333693726536429,"weights":{"vperc":-6.059120232753449,"lib":0.3687867729375316,"src":0.7001716502583626,"bin":-0.13643003080410646,"vimdir":-0.09508692072167574,"colors":2.6842309388596792,"eclim":1.617131524161567,"bundle":0.6512452829024991,"spec":-0.8284601736551237,"test":-5.804511294786191,"config":0.864260332228389,"snippets":-0.39658615552524795,"vimrc":3.132929366367039,"elisp":1.1936422717634623,"vim":0.6845664459822357,"install":0.6130285593070549,"gitmodules":-0.08779584238835904,"makefile":0.12265407806262374,"autoload":0.4335077983482838,"doc":-2.7801400682871202,"ftplugin":0.38581082603262945,"indent":0.45517651906177004,"plugin":2.2938167984207953,"syntax":-0.18207984625667972,"after":0.45504300383552987}},"1":{"bias":-2.6028236344195625,"weights":{"vperc":2.1395728136860046,"lib":-0.24448180629500574,"src":-1.3362896259239267,"bin":-0.050803094422509215,"vimdir":0.03473124080280041,"colors":-1.1859074998790167,"eclim":-0.6297169129370046,"bundle":-0.4291993534067408,"spec":0.4109683401738293,"test":0.0936338639374414,"config":-0.2816033642906278,"snippets":-0.0014666099446593401,"vimrc":-1.883453903924819,"elisp":-1.1532306871640965,"vim":-0.4409750616913855,"install":-0.09448283000665975,"gitmodules":-0.04582358598093662,"makefile":-0.001752241607755417,"autoload":0.5279190145220094,"doc":-0.3986909585266844,"ftplugin":0.10429809349318442,"indent":-0.1734597642158584,"plugin":-0.18154997933297243,"syntax":0.03746572046185123,"after":0.293383619775857}},"2":{"bias":0.6851422788383923,"weights":{"vperc":-8.932093843861445,"lib":0.8063494700993932,"src":-3.4288058716406153,"bin":0.5128935628591427,"vimdir":0.030721264840265727,"colors":-6.779763227013562,"eclim":3.5685668342305874,"bundle":0.8578646894560872,"spec":-0.5795413317182704,"test":2.6382036962429165,"config":1.743996836616832,"snippets":-0.21708955723203685,"vimrc":5.945847455817768,"elisp":5.673560052632297,"vim":1.2119690291576588,"install":0.47855103285226386,"gitmodules":0.4477664618157867,"makefile":-0.18944174330681562,"autoload":-0.26206306296232457,"doc":3.2523445802469957,"ftplugin":0.49777630903235354,"indent":-0.027736278248847855,"plugin":-2.7535331165336143,"syntax":-2.5512781738340564,"after":-0.6781623141196913}},"3":{"bias":-2.317171196764364,"weights":{"vperc":0.7695015435842464,"lib":-0.186014924547751,"src":-0.8970713833655615,"bin":0.07188115383885846,"vimdir":-0.17358338993483205,"colors":-1.1248841232106201,"eclim":-0.1843287496222849,"bundle":-0.20013585765106162,"spec":0.25758399184591085,"test":-0.13509437406577654,"config":-0.3010737087240715,"snippets":0.15404680129017284,"vimrc":-0.6244745616652843,"elisp":-0.4327984530111028,"vim":-0.09092555662502136,"install":0.14759547297003303,"gitmodules":-0.10940895308772566,"makefile":-0.014000284299254429,"autoload":0.00771319485083636,"doc":-0.2332887085241417,"ftplugin":0.18493772188438337,"indent":-0.034282453687746725,"plugin":-0.20452573178620914,"syntax":-0.367055239789214,"after":-0.055085756337893414}},"4":{"bias":-3.7783639103953486,"weights":{"vperc":4.470011893050703,"lib":-0.3325133138243957,"src":-2.3855495499466977,"bin":0.16740176248590868,"vimdir":0.015437704734485748,"colors":-0.6694232278473256,"eclim":-1.304616960577795,"bundle":-0.7418709946618702,"spec":0.9686555742914242,"test":1.3555081064571546,"config":-0.8047149710462697,"snippets":0.31320723050476096,"vimrc":-4.032906008884796,"elisp":-2.6282638519952526,"vim":-0.7881975714196164,"install":-0.014558755841695881,"gitmodules":0.7442026195088556,"makefile":0.11682320218533276,"autoload":1.0619378548554879,"doc":-0.3812575944140745,"ftplugin":0.02183212009711466,"indent":-0.10340106156837656,"plugin":0.39629573973166393,"syntax":0.9209577943500474,"after":0.15908306931113242}},"5":{"bias":-0.39665187936611646,"weights":{"vperc":7.3869535048902915,"lib":-0.6545063646462388,"src":2.7917763014920194,"bin":-0.5569703538048011,"vimdir":0.1522128169437006,"colors":5.409159505376165,"eclim":-2.21689429935017,"bundle":-0.33795615965919645,"spec":0.4496396618327661,"test":-2.10348028376244,"config":-1.3033686736424879,"snippets":0.6868712857826458,"vimrc":-2.905164607952814,"elisp":-4.774441719705483,"vim":-1.015463084517184,"install":-0.9564274157615007,"gitmodules":-0.2803298801139125,"makefile":-0.030929419770836825,"autoload":1.4771747513999203,"doc":-2.2706928083796405,"ftplugin":0.38459059295798104,"indent":0.13919322092664071,"plugin":2.2128930752897014,"syntax":2.6319458009966814,"after":1.1961981555012349}},"6":{"bias":-3.9294607365192435,"weights":{"vperc":5.410943517339283,"lib":-0.5044240244780569,"src":-2.7900307653726832,"bin":0.05032534548300374,"vimdir":0.12603409247464165,"colors":-0.47246872466902706,"eclim":-1.7439837920063128,"bundle":-1.0744992806158085,"spec":1.4062166476289917,"test":1.9026151143016987,"config":-1.142253240129663,"snippets":0.3683421324986096,"vimrc":-4.976369146738901,"elisp":-3.341030310588884,"vim":-0.8809991106380076,"install":-0.15520575066396364,"gitmodules":0.7013372939063006,"makefile":-0.028831651248037826,"autoload":1.0029625506893427,"doc":-0.3814340012211763,"ftplugin":-0.2429470692336096,"indent":-0.16366181295787682,"plugin":0.24137169426005625,"syntax":1.3951727992791525,"after":0.2912522085723208}},"7":{"bias":-0.23022059799899838,"weights":{"vperc":-1.9258495052160651,"lib":0.447438922437026,"src":2.448512045130931,"bin":0.39973461384997694,"vimdir":0.10588574144677229,"colors":-5.020934620774385,"eclim":2.7055007235076447,"bundle":0.7569314424775534,"spec":-0.7470016694642705,"test":-0.07228340364975072,"config":1.4327788377219723,"snippets":-0.3075667768855297,"vimrc":5.356778772155943,"elisp":2.8443276399475654,"vim":1.4315722175937957,"install":0.1296824108091469,"gitmodules":0.5376677309759121,"makefile":0.18609742140397428,"autoload":0.3659755165830125,"doc":3.0870932522665075,"ftplugin":0.4404291240630545,"indent":-0.21164692201190122,"plugin":-4.414997768290556,"syntax":-1.9131877816456933,"after":-0.6211796186300518}},"8":{"bias":-4.007476889960337,"weights":{"vperc":5.032777181359272,"lib":-0.4217793291465261,"src":-2.7328745523190188,"bin":0.20105732795979303,"vimdir":0.1507164447645118,"colors":-0.42208220563918614,"eclim":-1.5875712155903527,"bundle":-0.9598924289396467,"spec":1.1528338315284816,"test":2.0226926082999994,"config":-0.7361387094796118,"snippets":0.21892223328582397,"vimrc":-4.694714792770452,"elisp":-3.123505027319924,"vim":-0.6774479692611329,"install":0.0570182927425438,"gitmodules":0.7181397303103997,"makefile":-0.010563170723617066,"autoload":1.1203541156436652,"doc":-0.2433370734028438,"ftplugin":-0.06008031734523228,"indent":-0.36932096212408333,"plugin":0.3856964265281602,"syntax":1.2859913765343642,"after":0.25008622465715485}},"9":{"bias":-3.9689863341470684,"weights":{"vperc":4.961889861176387,"lib":-0.2423778792661616,"src":-2.7384178599512343,"bin":-0.002898486417552068,"vimdir":-0.0036708716211423407,"colors":-0.4837081039772745,"eclim":-1.7186879170500466,"bundle":-0.930541337273498,"spec":1.0830153566228384,"test":1.3950363224189697,"config":-0.9582107407141006,"snippets":0.15886811490163397,"vimrc":-4.343553792327047,"elisp":-3.033093468029148,"vim":-0.9183754189375892,"install":-0.20442374369179933,"gitmodules":0.6601171682446566,"makefile":-0.19017367688938977,"autoload":0.9655814110143676,"doc":-0.0795221026378272,"ftplugin":-0.1649276911289995,"indent":-0.3252154638722268,"plugin":0.5937192174884323,"syntax":0.8947303098039422,"after":0.07932907049723571}},"10":{"bias":0.14222835643073126,"weights":{"vperc":-13.700275799170981,"lib":0.6594187360696412,"src":4.99898424714735,"bin":-0.10799127226332964,"vimdir":-0.15341514369334666,"colors":-4.877733219589,"eclim":4.226037907511596,"bundle":1.5610199376814187,"spec":-1.9567123017452717,"test":-1.6392772315443662,"config":4.115016828039377,"snippets":-0.15117504581984048,"vimrc":9.029729112584304,"elisp":2.2887819938817313,"vim":3.4118467349174293,"install":0.6693673170240042,"gitmodules":1.1610693873666669,"makefile":0.029776820354163652,"autoload":1.8332053335498006,"doc":-1.9183134205649441,"ftplugin":0.306888566759749,"indent":0.7497530083996437,"plugin":6.281393362285878,"syntax":2.200458138245748,"after":0.480408728416412}},"11":{"bias":-0.21484456897180335,"weights":{"vperc":-11.545420470342671,"lib":0.5518616661280545,"src":4.321662585540297,"bin":-0.2772044741229441,"vimdir":0.12449422704834609,"colors":-4.51800940978798,"eclim":3.826744852055806,"bundle":1.5385005721655969,"spec":-1.6971464079982237,"test":-1.673388305440283,"config":4.13355208572027,"snippets":-0.155060717249746,"vimrc":8.620519972842214,"elisp":2.5129481567776235,"vim":2.8044759834796307,"install":0.7368173332307357,"gitmodules":0.6963808421270588,"makefile":-0.07464906098321081,"autoload":1.7153978820784228,"doc":-2.1352029216932533,"ftplugin":0.311234731417655,"indent":0.7511601782451639,"plugin":5.7958483655604445,"syntax":1.9816350102699998,"after":0.3784228535017227}}},{"plugin":{"bias":-0.3843963652157489,"weights":{"0":-4.380880296200376,"1":0.6349537442464502,"2":-7.089575234954558,"3":0.0749731526178161,"4":2.9099186982142555,"5":5.361475969831586,"6":3.6505122157006826,"7":-4.576126852987538,"8":3.795938023543861,"9":3.2356964992532915,"10":-9.140421900021094,"11":-8.573583414550773}},"other":{"bias":0.44620680173621885,"weights":{"0":4.382797048370677,"1":-0.4721699895059373,"2":7.037677101140403,"3":-0.25287568385854237,"4":-3.050886254106577,"5":-5.423157932348899,"6":-3.723085101623177,"7":4.577516264604004,"8":-3.796293989557961,"9":-3.0428628771765727,"10":9.24855680843296,"11":8.454698412955544}}}],"outputLookup":true,"inputLookup":true}