{"layers":[{"vperc":{},"lib":{},"bin":{},"vimdir":{},"colors":{},"bundle":{},"spec":{},"test":{},"config":{},"snippets":{},"vimrc":{},"elisp":{},"vim":{},"install":{},"gitmodules":{},"makefile":{},"autoload":{},"doc":{},"ftplugin":{},"indent":{},"plugin":{},"syntax":{},"after":{}},{"0":{"bias":-1.2331121076981606,"weights":{"vperc":-1.8379967335553355,"lib":0.11186399668666733,"bin":0.10656265459115083,"vimdir":0.20485050615172126,"colors":-2.054065757694645,"bundle":0.6535158454208656,"spec":-0.4807104360850378,"test":-0.7624933936205373,"config":0.5873020352602814,"snippets":0.3316948424000815,"vimrc":1.7724021157535805,"elisp":1.262391776818879,"vim":0.7862414923534147,"install":0.8377749706177631,"gitmodules":-0.31839320432907936,"makefile":0.34891268848173795,"autoload":-0.30824433011045,"doc":-0.2695336438018792,"ftplugin":-0.12906400147867178,"indent":0.11956732209557067,"plugin":0.3910425558453703,"syntax":0.01901442659129447,"after":0.3169979831570193}},"1":{"bias":-1.7037509239737592,"weights":{"vperc":1.2883297920233538,"lib":-0.049718032230880636,"bin":-0.05622252647127811,"vimdir":-0.004007236549585785,"colors":-1.5646779736449625,"bundle":-0.0344951802596804,"spec":0.2631617832969462,"test":-0.21801579392379206,"config":-0.3891028825982866,"snippets":0.07054519168718744,"vimrc":-0.9455957397352398,"elisp":-0.4082278885102738,"vim":-0.36953435263380335,"install":-0.08895122093235634,"gitmodules":0.4295463999231702,"makefile":0.31092233987658885,"autoload":0.6215270394127448,"doc":0.4008255472188438,"ftplugin":-0.07248615111454612,"indent":-0.10884173243758088,"plugin":0.0057591127132223426,"syntax":-0.28795990732042975,"after":0.07272407811382452}},"2":{"bias":-1.6678946710798215,"weights":{"vperc":-4.763163108676876,"lib":0.607975502372508,"bin":-0.2595881418564597,"vimdir":-0.048705738029309796,"colors":-2.8120351696053025,"bundle":1.4614231198067007,"spec":-1.3422725632458379,"test":-2.4834857382278135,"config":3.6961112798992506,"snippets":0.9744270267391957,"vimrc":5.926252667771231,"elisp":1.4896269719637845,"vim":2.6446866939594793,"install":2.87856106537971,"gitmodules":0.5169282894487508,"makefile":0.864311980617828,"autoload":1.9171371971975377,"doc":-6.474889123999163,"ftplugin":-0.3040126457605645,"indent":0.6865923754759714,"plugin":5.207660175069334,"syntax":0.5896050631790104,"after":0.7099057593760353}},"3":{"bias":-4.198789412422815,"weights":{"vperc":5.625306672776968,"lib":-0.4712129990119101,"bin":-0.056778816896559316,"vimdir":-0.010081676464276287,"colors":-1.142935472936555,"bundle":-0.6732585997432178,"spec":0.9864264767076092,"test":-0.8596524635001564,"config":-0.7612052722050883,"snippets":-0.5827500069075788,"vimrc":-3.3072351074867976,"elisp":-2.975613745544304,"vim":-0.9627411707442972,"install":-0.45525520930189217,"gitmodules":0.7000856985761934,"makefile":-0.16522264170557519,"autoload":1.3403947980944453,"doc":1.5493753670040253,"ftplugin":0.2721179470386168,"indent":-0.5407748739137337,"plugin":1.371119558432113,"syntax":-2.1052479039035012,"after":0.0012097851867471062}},"4":{"bias":-3.994260254973649,"weights":{"vperc":6.481390540408678,"lib":-0.7494431713243973,"bin":-0.3054787898352306,"vimdir":0.00047612799499509686,"colors":-0.5158743805646098,"bundle":-1.1377886923287877,"spec":1.2833718917519084,"test":5.634760630375433,"config":-1.0494447486529437,"snippets":-0.543578127689593,"vimrc":-5.074534945634459,"elisp":-2.9474589579706127,"vim":-1.5394993610014365,"install":-0.11294823305318062,"gitmodules":0.5572802544753527,"makefile":-1.6810962407414183,"autoload":0.6860793497238645,"doc":1.387610461703257,"ftplugin":0.3898904687554669,"indent":-0.4432134400446796,"plugin":-0.19702778783699745,"syntax":1.3972360573310971,"after":-0.33303046742234876}},"5":{"bias":-1.60961291798828,"weights":{"vperc":-0.6853741685929446,"lib":-0.06794050434380804,"bin":-0.0717561275906239,"vimdir":0.01586785309888425,"colors":-1.3174101668537452,"bundle":0.039339618602891625,"spec":-0.06855191779092597,"test":-0.24103560816237152,"config":0.042929807608920685,"snippets":-0.01045232915463215,"vimrc":0.4805582003246991,"elisp":0.25508587056826426,"vim":0.24508979841665895,"install":0.2522706038768228,"gitmodules":-0.3923049955883347,"makefile":0.16005405872538225,"autoload":-0.39742194123116537,"doc":0.020956624781086064,"ftplugin":0.2056946026964039,"indent":-0.05289877272671727,"plugin":-0.15623120387882228,"syntax":-0.1904516229271327,"after":-0.04462724770812795}},"6":{"bias":-1.8387275193503894,"weights":{"vperc":-2.8426579842082593,"lib":0.26691578929735565,"bin":-0.03139252793652309,"vimdir":0.11102109006562634,"colors":-2.504354759145814,"bundle":0.9757094356716326,"spec":-0.7105345038173367,"test":-1.6069391456721913,"config":1.7433281549687907,"snippets":0.7557119692629036,"vimrc":3.81338104988351,"elisp":1.33368757055676,"vim":1.465335149529231,"install":1.6892205697908387,"gitmodules":-0.18450649688997112,"makefile":0.6196982611919073,"autoload":0.5252619805064237,"doc":-2.855028258445695,"ftplugin":-0.2697828897493688,"indent":0.40274145268176237,"plugin":2.9019297475556307,"syntax":1.2648702190879442,"after":0.3271107505655553}},"7":{"bias":1.3312066659324961,"weights":{"vperc":-3.508433851955443,"lib":0.4958661230758876,"bin":0.08367029163633491,"vimdir":0.14532874528621734,"colors":2.253659447806238,"bundle":0.5983447187190972,"spec":-0.3656900677197307,"test":0.6092377072091563,"config":0.4992891754016117,"snippets":0.3996066040519366,"vimrc":2.0927325643629007,"elisp":1.5253486382601544,"vim":0.5892810578887512,"install":0.668657407564634,"gitmodules":-0.7503678802792537,"makefile":0.1415161756134656,"autoload":-0.5223078189711342,"doc":0.4794298578742962,"ftplugin":0.04209602395604199,"indent":0.022809635513067382,"plugin":-1.4063681675438353,"syntax":-2.081915595039858,"after":0.1248377097257814}},"8":{"bias":0.13396724913684643,"weights":{"vperc":6.865927575329565,"lib":-0.5420930677686494,"bin":0.5877955525021784,"vimdir":0.05491455063727294,"colors":4.038147390051116,"bundle":-1.157074185698347,"spec":1.7123892540545342,"test":0.23221322280309928,"config":-4.1080285296686725,"snippets":-0.9543403223943304,"vimrc":-8.565305488149217,"elisp":-4.2181404674804295,"vim":-1.7843844360295458,"install":-4.6998429298900355,"gitmodules":2.5102654346873066,"makefile":-1.29713662125562,"autoload":1.3250533843223824,"doc":-3.121719238656255,"ftplugin":0.9761765066450295,"indent":-0.4209322288523506,"plugin":-4.6410246073092205,"syntax":-0.8033779610798362,"after":-0.07920401112991086}},"9":{"bias":1.214028473960849,"weights":{"vperc":-3.339345146322099,"lib":0.1980164327416792,"bin":0.11339804251651987,"vimdir":-0.13934124767692732,"colors":1.6182029606900226,"bundle":0.5604309036010438,"spec":-0.47202535759623965,"test":0.2719455868729584,"config":0.7247549882635936,"snippets":0.5502945130095167,"vimrc":1.700469307593717,"elisp":1.3749300610528719,"vim":0.8327324653086606,"install":0.47703966692911715,"gitmodules":-0.5060197053831869,"makefile":0.2251520472713977,"autoload":-0.575972975587166,"doc":0.35222590035021223,"ftplugin":-0.0017274850112942949,"indent":0.13932397089936888,"plugin":-1.0048862837124701,"syntax":-1.8172226396554496,"after":0.39143781260349925}},"10":{"bias":0.8759532036465452,"weights":{"vperc":-8.33053962868263,"lib":0.9050324668625517,"bin":0.7210726655797679,"vimdir":0.11552196231841043,"colors":-6.517914669298397,"bundle":0.5134269166491002,"spec":-0.8694414723331774,"test":2.4721799485066076,"config":1.4248701053747053,"snippets":0.2783281563723317,"vimrc":4.1721414027281165,"elisp":4.07920590595395,"vim":2.481273580174066,"install":-0.4167216312696139,"gitmodules":3.042086632820358,"makefile":2.013031791889716,"autoload":-0.6860625038142876,"doc":2.472174012875712,"ftplugin":-0.278906891313599,"indent":-0.27148865968440367,"plugin":-2.782627868168603,"syntax":-3.4162721021742306,"after":-0.9733395004527235}}},{"plugin":{"bias":-1.3426937085257906,"weights":{"0":-0.8214934596168988,"1":0.6050054396078979,"2":-7.742853158707823,"3":5.90576210991759,"4":6.37800152947124,"5":-0.21551522582463983,"6":-3.5828879337729016,"7":-3.180536166437199,"8":7.4021804394269335,"9":-2.2341990838993118,"10":-10.888498092765154}},"other":{"bias":1.274448425127442,"weights":{"0":0.6927921343922134,"1":-0.5708734593876083,"2":7.699456642983622,"3":-5.8709223193449205,"4":-6.3621605701140895,"5":0.2625705748998304,"6":3.7464956779797087,"7":3.2485099690105015,"8":-7.394670907230005,"9":2.2276157074993006,"10":10.884135871520925}}}],"outputLookup":true,"inputLookup":true}