{"layers":[{"vperc":{},"lib":{},"src":{},"bin":{},"vimdir":{},"colors":{},"bundle":{},"spec":{},"test":{},"config":{},"snippets":{},"vimrc":{},"elisp":{},"vim":{},"install":{},"gitmodules":{},"makefile":{},"autoload":{},"doc":{},"ftplugin":{},"indent":{},"plugin":{},"syntax":{},"after":{}},{"0":{"bias":-2.945699226935866,"weights":{"vperc":3.803338099939848,"lib":-0.3836173683740719,"src":-1.5265680856195487,"bin":0.056935247510915755,"vimdir":0.0041110525318148825,"colors":-0.8738005348310465,"bundle":-0.6303187069205703,"spec":0.7044493421839463,"test":0.6544358410868034,"config":-0.5829722649582343,"snippets":-0.3329050790549901,"vimrc":-2.8242519249816374,"elisp":-1.7514523895029823,"vim":-0.7337298558393307,"install":-0.06216492755930318,"gitmodules":0.17543931310836752,"makefile":-0.011360206548124557,"autoload":0.9445727530441361,"doc":-1.1793658345457116,"ftplugin":0.04680984289020803,"indent":-0.22859608086293984,"plugin":-0.39550074477277747,"syntax":0.47864453129966006,"after":0.10461843141918946}},"1":{"bias":-2.9220033108598993,"weights":{"vperc":3.415763898543355,"lib":-0.3353774620226756,"src":-1.8683571017026346,"bin":-0.12443917537392726,"vimdir":-0.09115208003682264,"colors":-0.9480319038332662,"bundle":-0.5545044140137664,"spec":0.7592116419356085,"test":0.9206177944945347,"config":-0.7349788005268371,"snippets":-0.4514809889121422,"vimrc":-2.7622856367019817,"elisp":-1.6458243500715584,"vim":-0.7224328025265766,"install":0.2215048445657768,"gitmodules":0.4031095042472426,"makefile":-0.11545324847102166,"autoload":1.0595952260793675,"doc":-1.0462300832190286,"ftplugin":0.2609363362061655,"indent":-0.35268992618721123,"plugin":-0.22449928796226917,"syntax":0.9050427486078945,"after":0.21201381537419223}},"2":{"bias":-2.6986004096908585,"weights":{"vperc":5.883309330045234,"lib":-0.6134386948257439,"src":0.14914514131385428,"bin":-0.3014705999677819,"vimdir":0.14698092084252248,"colors":1.5909819602904356,"bundle":-0.3899062375705144,"spec":0.6868696163061819,"test":-0.7004287104065969,"config":-1.8932725460856372,"snippets":-0.23465721152299962,"vimrc":-5.528228742288792,"elisp":-3.018651792362584,"vim":-1.1676845127702409,"install":-0.7256895215413627,"gitmodules":-0.11126147373947123,"makefile":-0.002718248497694725,"autoload":0.3893813769272431,"doc":0.03495698207586547,"ftplugin":0.5904676353850875,"indent":0.23430628641311532,"plugin":-1.8395809477496012,"syntax":-0.927416610813559,"after":0.8075802156099605}},"3":{"bias":-2.39900233966439,"weights":{"vperc":2.1063886161257166,"lib":-0.2662452905125518,"src":-1.2932856297720896,"bin":-0.03789607743693937,"vimdir":0.17887256312082575,"colors":-1.094975089562837,"bundle":-0.5610975185531554,"spec":0.5052949531716291,"test":0.4407488545258355,"config":-0.38586601611761867,"snippets":-0.2500011190772478,"vimrc":-1.6991858333748036,"elisp":-1.0231380960463754,"vim":-0.6236513691212714,"install":-0.20619920608364198,"gitmodules":0.09816911486581376,"makefile":-0.06626387182623147,"autoload":0.46080827343133085,"doc":-0.8073853313902974,"ftplugin":0.17563878355346255,"indent":-0.013660447613244739,"plugin":-0.624580295085115,"syntax":0.31519390135373165,"after":0.01709570169879453}},"4":{"bias":1.1881506845876584,"weights":{"vperc":-11.050909091264678,"lib":0.8914089373484272,"src":-3.547616211634778,"bin":0.6069839920720436,"vimdir":0.04063401985799726,"colors":-7.363799699230445,"bundle":0.5839226579394005,"spec":-0.8803326210951933,"test":2.9273236776345466,"config":2.2824482258332837,"snippets":0.44853328832098194,"vimrc":7.221893230769563,"elisp":7.315825347973922,"vim":1.4625880210112392,"install":1.18707080553067,"gitmodules":0.197507617197272,"makefile":0.08313264902681111,"autoload":-1.9065917322803805,"doc":3.5834961220653945,"ftplugin":-0.13458208281637882,"indent":-0.09431299713652468,"plugin":-2.8510301547642367,"syntax":-2.94058310341246,"after":-1.4544975526345918}},"5":{"bias":-2.9990592898039616,"weights":{"vperc":3.4777325166207507,"lib":-0.14582953873405644,"src":-1.4275738791025725,"bin":-0.06659794949472549,"vimdir":-0.029952091763939176,"colors":-0.6788436425436413,"bundle":-0.782599498700031,"spec":0.6352887798055004,"test":0.5712988576173672,"config":-0.7615187390339505,"snippets":-0.3257233957775132,"vimrc":-2.812834158648163,"elisp":-1.8972141186454785,"vim":-0.7457197609331523,"install":-0.2563380514508299,"gitmodules":0.20948308567137228,"makefile":-0.1991703468374908,"autoload":0.7025025954812577,"doc":-1.134419152311666,"ftplugin":-0.026680567899116804,"indent":-0.29699562226345605,"plugin":-0.5544009511822767,"syntax":1.0882485106625264,"after":0.2781248074179782}},"6":{"bias":-0.014282505609778383,"weights":{"vperc":-3.253079836006753,"lib":1.0506554377375692,"src":3.939446203991171,"bin":0.7156656691460229,"vimdir":-0.14789682085136707,"colors":-5.089123605594713,"bundle":0.6033122211604175,"spec":-0.9517039550157015,"test":-0.29197142015153293,"config":2.4512122603052298,"snippets":0.3831762799153912,"vimrc":7.1120447961605215,"elisp":3.796124244721767,"vim":1.5425106005046705,"install":1.6571056754128501,"gitmodules":-0.024004066376385202,"makefile":-0.10058194091543556,"autoload":-0.4199988678517405,"doc":2.459187257283694,"ftplugin":-0.2772407747873263,"indent":-0.1348953559474432,"plugin":-3.150468270969033,"syntax":-1.9013528807651903,"after":-0.8280421175938473}},"7":{"bias":-0.43209475956517845,"weights":{"vperc":-2.619810601330895,"lib":0.7857249028942799,"src":3.6128258844079024,"bin":0.6689180909828191,"vimdir":0.1381391585681074,"colors":-4.592876064194521,"bundle":0.28229319426218563,"spec":-0.8725102664259784,"test":-0.29233609133656724,"config":2.206036323312785,"snippets":0.27904556293905947,"vimrc":5.822274400603908,"elisp":3.156349600256212,"vim":1.177256353949858,"install":1.0873843294391858,"gitmodules":0.09721217676600713,"makefile":-0.0643793536350131,"autoload":-0.35530731239756363,"doc":2.4393666110785293,"ftplugin":-0.36455971374330337,"indent":-0.26338558454071154,"plugin":-2.6963914784544465,"syntax":-1.5689860452761812,"after":-0.637459354361378}},"8":{"bias":-2.2388021207480104,"weights":{"vperc":1.3711258236452424,"lib":0.013586859195287803,"src":-0.9365898301007773,"bin":-0.17834775518291482,"vimdir":0.06467784697034495,"colors":-1.1687162599359304,"bundle":-0.16074733887932138,"spec":0.27675621598093025,"test":-0.0328087198202184,"config":-0.3667831336993602,"snippets":-0.05408358134013449,"vimrc":-1.363887911042962,"elisp":-0.6676354648771711,"vim":-0.4912643543751057,"install":-0.24041235412955508,"gitmodules":-0.04237919361390101,"makefile":0.16210963586345317,"autoload":0.284579798191281,"doc":-0.6993791637553199,"ftplugin":-0.01710326645836825,"indent":-0.11371914064588351,"plugin":-0.6617443427883266,"syntax":0.0011566630792763084,"after":-0.06356133927611195}},"9":{"bias":-1.2139025771768883,"weights":{"vperc":-9.831714575851215,"lib":0.6620660039001108,"src":1.5592399989815136,"bin":0.12937475108922872,"vimdir":-0.018130729189155252,"colors":-3.6217778689619116,"bundle":1.6708002302684437,"spec":-1.9254643831065152,"test":-2.6048237129408403,"config":4.611636542423539,"snippets":0.8688253492563398,"vimrc":9.730226773401053,"elisp":2.3482610547654374,"vim":3.441613048090258,"install":1.0191961393937008,"gitmodules":1.5425715064720478,"makefile":0.12342098727822304,"autoload":1.4684378101545987,"doc":-4.330706814367176,"ftplugin":0.028292534880703185,"indent":1.0021130177298778,"plugin":6.242790007835583,"syntax":1.5233827232168742,"after":1.029683635744387}},"10":{"bias":-2.138941756786732,"weights":{"vperc":0.28232293919466167,"lib":-0.26559422789922005,"src":-0.48050729018321536,"bin":-0.02673314294201425,"vimdir":-0.02254903073776666,"colors":-1.129268480994374,"bundle":-0.14864288638858905,"spec":0.18345478866558665,"test":-0.00013051039265829644,"config":-0.30510560812848286,"snippets":-0.15721512577189967,"vimrc":-0.6960692433823498,"elisp":-0.49935694047046625,"vim":-0.16926760077491962,"install":-0.17264276532443815,"gitmodules":-0.33417117799244306,"makefile":0.08421909613534806,"autoload":-0.13672909079826578,"doc":-0.6129824668097594,"ftplugin":0.2563896289473525,"indent":-0.17879007798764904,"plugin":-0.857184376708182,"syntax":0.0413495419407621,"after":0.20389903565935774}},"11":{"bias":-6.139993582582046,"weights":{"vperc":18.475659573097875,"lib":-0.8661413112613917,"src":-1.2151738535119214,"bin":-0.5911169887520262,"vimdir":0.13632050342656576,"colors":0.831654633323362,"bundle":-1.3169708896157022,"spec":1.774001813237464,"test":5.648471128437482,"config":-1.1614997579838848,"snippets":-0.5414896503872695,"vimrc":-6.9880126251294366,"elisp":-2.7518475921266603,"vim":-1.660158465152555,"install":-0.39814963498088063,"gitmodules":0.1989852843920813,"makefile":-0.17414854876697064,"autoload":-0.42297623646674576,"doc":1.7409670037779053,"ftplugin":0.08090985916857797,"indent":-0.7641743264822825,"plugin":-3.7926718108132427,"syntax":0.005450428104583101,"after":-0.44489978822131426}}},{"plugin":{"bias":0.4820999606082546,"weights":{"0":1.1758614899142568,"1":1.8093750264826212,"2":0.6544307141346071,"3":0.5271883528439864,"4":-9.01085152833128,"5":1.334122320963617,"6":-5.4361514781218405,"7":-4.124353306611311,"8":0.37130838992421694,"9":-11.52396942805275,"10":0.2562219743717034,"11":8.67641441916903}},"other":{"bias":-0.5117968480407623,"weights":{"0":-1.2167560577978742,"1":-1.7514259502345269,"2":-0.56258273568646,"3":-0.7288798686941941,"4":9.041501649703985,"5":-1.227138366649912,"6":5.480410326870118,"7":4.0693736651348145,"8":-0.29717306776527413,"9":11.55441761857807,"10":-0.07188517783309331,"11":-8.700409966701223}}}],"outputLookup":true,"inputLookup":true}