{"layers":[{"vperc":{},"lib":{},"vimdir":{},"colors":{},"spec":{},"test":{},"t":{},"snippets":{},"vimrc":{},"elisp":{},"vim":{},"install":{},"autoload":{},"doc":{},"ftplugin":{},"indent":{},"plugin":{},"syntax":{},"after":{}},{"0":{"bias":0.4738207797085518,"weights":{"vperc":-1.801954687722012,"lib":0.29847665464639245,"vimdir":0.09680699731139703,"colors":-0.32806944606421656,"spec":-0.46578755146959205,"test":-0.35199496816318376,"t":-0.3081708540384814,"snippets":0.12078913781139344,"vimrc":1.4074343520312547,"elisp":1.3422803291676142,"vim":0.1520998239379461,"install":0.13605288082241426,"autoload":-0.11485855656155193,"doc":-0.07004463656649595,"ftplugin":-0.2122439752575804,"indent":-0.2583722885303485,"plugin":0.5508819856777882,"syntax":0.02656867653123568,"after":0.14981083637640333}},"1":{"bias":-0.4143657047227384,"weights":{"vperc":1.7429475125654217,"lib":-0.2938188763247645,"vimdir":-0.16543766345593208,"colors":0.4595941436222867,"spec":0.2377050920585882,"test":0.10895901536639696,"t":0.45443677806322236,"snippets":0.16785561956196302,"vimrc":-1.4170306639920698,"elisp":-1.14809926464819,"vim":-0.11123414093514492,"install":-0.25470009905339236,"autoload":0.5978024516203142,"doc":-0.16625903232397146,"ftplugin":0.2994952586111307,"indent":0.11193822752564203,"plugin":-0.7402038651121422,"syntax":-0.3253555011575658,"after":0.2498753051166895}},"2":{"bias":-0.30319782484053076,"weights":{"vperc":0.796118165919101,"lib":-0.24682931400731906,"vimdir":0.03846255730018643,"colors":0.24210995546310465,"spec":0.06492219356450228,"test":-0.0528573230056763,"t":0.04081046171251393,"snippets":0.17160058031245293,"vimrc":-0.8517131313057169,"elisp":-0.3924393143490743,"vim":-0.18372830112313027,"install":0.04071160667171348,"autoload":0.25296234289481184,"doc":-0.06419001605378129,"ftplugin":0.23506800731181446,"indent":0.037489072742048116,"plugin":-0.5097469662824816,"syntax":-0.32749895820643754,"after":0.11439352990160667}},"3":{"bias":-1.1588304975518333,"weights":{"vperc":3.7913782094431303,"lib":-0.32363796061880823,"vimdir":0.06076722655515439,"colors":1.1953505559287907,"spec":0.8601827280535943,"test":0.29474583099005036,"t":0.8937365501095067,"snippets":0.21812761787840237,"vimrc":-3.4532680360219463,"elisp":-2.3506300145066397,"vim":-0.1541440095113477,"install":-0.36753716475224524,"autoload":0.7432793257670357,"doc":-0.38459680815507497,"ftplugin":0.5652461525743792,"indent":0.15209120310109656,"plugin":-1.0862301922982605,"syntax":-0.30130802558659503,"after":0.2998805864801591}},"4":{"bias":-0.1423397401364534,"weights":{"vperc":-5.745828144680824,"lib":0.9220642436351122,"vimdir":0.17201072556800312,"colors":-1.6582069540439774,"spec":-1.6680143889486074,"test":-2.0642111298208863,"t":-1.7378677451550564,"snippets":0.06559219414330467,"vimrc":5.735019794623924,"elisp":2.500311264947623,"vim":-0.09558575698371068,"install":0.9878643594761051,"autoload":-0.1910255541678576,"doc":-3.339278295777476,"ftplugin":-0.7701895776314195,"indent":-0.3931294993803449,"plugin":3.8945270206928324,"syntax":0.3192252406070389,"after":-0.10924925402459566}},"5":{"bias":-0.19896804788146155,"weights":{"vperc":-3.594374894725749,"lib":0.519445130767616,"vimdir":0.2333670245000955,"colors":-2.3196165666837123,"spec":-0.23879374286504151,"test":1.1022876607575327,"t":-0.6060951108805327,"snippets":-0.05251859357321062,"vimrc":3.9436188810847774,"elisp":2.877973387300615,"vim":-0.18507040832612498,"install":0.6337857923804557,"autoload":-0.3764270536803096,"doc":1.867401527180815,"ftplugin":0.17845654802963476,"indent":-0.24653458238237524,"plugin":-2.491052420836064,"syntax":-0.2943320554602894,"after":-0.07469668965351678}},"6":{"bias":-0.344019860195659,"weights":{"vperc":6.282020610075846,"lib":-0.895723170459455,"vimdir":-0.19341820724349976,"colors":3.4328892031257072,"spec":0.09235152472631747,"test":-1.7561781870117847,"t":0.6062809560627295,"snippets":-0.09049314968908305,"vimrc":-7.107495557763144,"elisp":-4.763186722934879,"vim":0.011471230917033637,"install":-1.3327872991077585,"autoload":0.6107883034367981,"doc":-2.421494502410893,"ftplugin":0.1000359976118119,"indent":0.3676909705138981,"plugin":2.9811003774663094,"syntax":-0.18471007236441214,"after":0.5193763666150297}},"7":{"bias":-0.11501861164328073,"weights":{"vperc":-2.305964578531993,"lib":0.43970731318528855,"vimdir":-0.02394841062940204,"colors":-0.48101669234065125,"spec":-0.5977345034086649,"test":-1.0827580014558207,"t":-0.6901363205845077,"snippets":-0.11216047093701072,"vimrc":2.1315555906178436,"elisp":1.314656489467884,"vim":-0.07801934697180968,"install":0.5298950066213609,"autoload":-0.21236634013009184,"doc":-1.3309870589638715,"ftplugin":-0.29315775313998843,"indent":-0.1631914983668445,"plugin":1.5714845323717186,"syntax":0.4408957333810979,"after":0.24634103085665346}},"8":{"bias":1.5607537937169762,"weights":{"vperc":-4.100980125907802,"lib":0.45738411674089086,"vimdir":-0.12709979320921894,"colors":-1.3401952718087102,"spec":-1.030853811943023,"test":-0.6220783727689249,"t":-1.0162140649317295,"snippets":-0.030895941476832316,"vimrc":3.2454866012561756,"elisp":2.7892699995334587,"vim":0.14128280550435535,"install":0.391951231459709,"autoload":-0.4595224397719495,"doc":0.07334485986925918,"ftplugin":-0.33802983917649454,"indent":-0.234217998719481,"plugin":0.9305723976861819,"syntax":0.22242835585751516,"after":-0.07686854210946985}}},{"plugin":{"bias":-0.8078129897265912,"weights":{"0":-2.2251946826608813,"1":1.8045350227897976,"2":0.5475552103293896,"3":3.98629773970124,"4":-7.71666787511365,"5":-4.931912860077598,"6":8.04953259234482,"7":-3.32663127913275,"8":-4.873847289077194}},"other":{"bias":0.8407554840135547,"weights":{"0":2.194380699116901,"1":-1.563340000502408,"2":-0.7981367051715955,"3":-3.9939804719057133,"4":7.869641480184729,"5":4.987119846407324,"6":-8.021250892713782,"7":3.2045562351306556,"8":4.763827020640962}}}],"outputLookup":true,"inputLookup":true}