{"layers":[{"vperc":{},"lib":{},"src":{},"bin":{},"vimdir":{},"colors":{},"eclim":{},"bundle":{},"spec":{},"test":{},"config":{},"snippets":{},"vimrc":{},"elisp":{},"vim":{},"bashrc":{},"install":{},"gitmodules":{},"makefile":{},"autoload":{},"doc":{},"ftplugin":{},"indent":{},"plugin":{},"syntax":{},"after":{}},{"0":{"bias":-4.35488665771036,"weights":{"vperc":5.989676189094824,"lib":-0.6197724203327274,"src":-2.351931536153338,"bin":0.14689655471610877,"vimdir":-0.3335128680184051,"colors":-0.2620133342841039,"eclim":-1.5022201838444929,"bundle":-1.1731081358681001,"spec":1.4966077836570666,"test":3.0009179251873,"config":-1.0118019811163927,"snippets":0.44482970454830123,"vimrc":-6.078931435191315,"elisp":-3.5270391787761315,"vim":-1.210468902225304,"bashrc":-0.041649983967215906,"install":0.3901617229399417,"gitmodules":0.9870079019198127,"makefile":-0.10163620663806797,"autoload":1.4357970222614678,"doc":-1.0413782831106368,"ftplugin":-0.20317176679972915,"indent":-0.2565316473299426,"plugin":-0.05542579716447589,"syntax":2.095062601180663,"after":0.12306418204636604}},"1":{"bias":-1.364539943011542,"weights":{"vperc":-6.650740198673747,"lib":0.5108407437297692,"src":1.7073889770344026,"bin":-0.29394910175940336,"vimdir":0.36576487192147533,"colors":-2.989254348558895,"eclim":2.6107652547647793,"bundle":1.7651463850441858,"spec":-1.647765311281441,"test":-3.0096261178383195,"config":4.156597810794652,"snippets":-0.18974592897544565,"vimrc":7.597969878121561,"elisp":1.4425074760811831,"vim":3.22946389202046,"bashrc":-0.04332094741994139,"install":0.5736096632576855,"gitmodules":1.5928691878195709,"makefile":-0.09207961587235332,"autoload":1.304969678873491,"doc":-3.6197161605981076,"ftplugin":0.3474295970606399,"indent":0.8222673750327593,"plugin":5.069850564609875,"syntax":0.8928030893023008,"after":1.0638108535364323}},"2":{"bias":-0.25387347520352826,"weights":{"vperc":-3.0946742849720517,"lib":0.46523385513548143,"src":2.0613971837095573,"bin":0.5800736360314167,"vimdir":0.19351081845198181,"colors":-4.9515435977359195,"eclim":2.2664047811429615,"bundle":0.6037036874580655,"spec":-0.3309934294309746,"test":0.19670431549939008,"config":1.0090300297291332,"snippets":-0.5092448743418315,"vimrc":1.5770216784259259,"elisp":2.682943819586669,"vim":0.7302342281912495,"bashrc":0.23638192984626374,"install":1.015475733076614,"gitmodules":0.2785137227999696,"makefile":0.19111065883189443,"autoload":-1.9747135659034536,"doc":3.0514379525938686,"ftplugin":0.10716049002968575,"indent":0.07869583362584373,"plugin":-3.3298255500671274,"syntax":-2.795646854660389,"after":-1.001571487011869}},"3":{"bias":-1.9458112762760154,"weights":{"vperc":-1.1767503379210094,"lib":-0.050162372365326884,"src":-0.16009713017673002,"bin":-0.015471979000364941,"vimdir":-0.018922084434057188,"colors":-1.2665143439699007,"eclim":0.26050031346106217,"bundle":0.09678357461374522,"spec":-0.2747364907282622,"test":-0.6434364577764083,"config":0.37971593456830977,"snippets":-0.12275454503091841,"vimrc":0.32642901768495086,"elisp":0.06806560403057313,"vim":-0.018423741201048418,"bashrc":-0.04787281579422151,"install":-0.03509928859340765,"gitmodules":-0.24837289557416636,"makefile":-0.1347630789503455,"autoload":-0.07857807242213578,"doc":-0.45542492135753404,"ftplugin":0.07539749700619319,"indent":-0.011333182480972816,"plugin":-0.1589762195929559,"syntax":-0.48158399088467985,"after":0.13857207248341138}},"4":{"bias":-0.15132412707650053,"weights":{"vperc":-12.479285337256918,"lib":1.0096265327183298,"src":3.6935743620866615,"bin":0.065419492060714,"vimdir":0.26585907208747855,"colors":-4.438573405931118,"eclim":3.8419094947110826,"bundle":1.837218666203828,"spec":-1.3364244355678336,"test":-0.36771292409223777,"config":3.4647521828782266,"snippets":-0.3211172352278987,"vimrc":7.354807472925425,"elisp":2.522249564123572,"vim":1.9747425239439587,"bashrc":0.6278045325531203,"install":0.840861190585339,"gitmodules":0.24711020644125595,"makefile":0.07114332681521773,"autoload":1.1391568047555096,"doc":-0.736664144209565,"ftplugin":0.02201828917838728,"indent":0.8391557579751069,"plugin":4.948057080677152,"syntax":2.3404268281178164,"after":0.4556653754225821}},"5":{"bias":0.055613836560666464,"weights":{"vperc":-2.5619346606969575,"lib":0.9300923841622488,"src":3.328526895193076,"bin":0.6796070064937648,"vimdir":0.10119605843964848,"colors":-5.116050240403037,"eclim":3.4462995432987182,"bundle":1.2135367973223934,"spec":-0.9950900832603683,"test":-0.4765049529144303,"config":2.43749706150912,"snippets":-0.39133025281622935,"vimrc":5.996781098904789,"elisp":3.4588499932578443,"vim":1.4921228125940933,"bashrc":0.39477918782205046,"install":0.8069338888191578,"gitmodules":0.3579191827658072,"makefile":-0.12340710097923875,"autoload":-0.30593640951625717,"doc":2.3341337469557955,"ftplugin":0.5293715044954767,"indent":0.10330770050090246,"plugin":-3.4548500621520626,"syntax":-1.8104093270477555,"after":-0.5368939873250446}},"6":{"bias":-3.8774507911986715,"weights":{"vperc":5.604159567409923,"lib":-0.4737700123469039,"src":-0.3494746012869474,"bin":-0.1713956656718866,"vimdir":0.05167422226298515,"colors":0.8144060939994974,"eclim":-2.1406505373058535,"bundle":-0.49224632169032123,"spec":0.6398272672548453,"test":-0.41538124464249837,"config":-2.226610607887349,"snippets":0.6728731629888186,"vimrc":-5.649000941892448,"elisp":-3.8689247062897714,"vim":-1.1763822870264402,"bashrc":-0.3939232451630599,"install":-0.5416649243352867,"gitmodules":-0.3205718128838424,"makefile":0.09096860233694315,"autoload":0.23476408668230575,"doc":-1.030357311651841,"ftplugin":0.08745026310589687,"indent":0.25967450207377074,"plugin":-0.9544679038707932,"syntax":-0.6917914049841194,"after":0.7852064664390367}},"7":{"bias":-4.119106598355091,"weights":{"vperc":9.83725804396113,"lib":-0.36022625648533524,"src":0.572957518138338,"bin":0.016670795007141453,"vimdir":0.0016069197664227996,"colors":-1.3530628221408598,"eclim":-2.4148996575518407,"bundle":-0.6848036548153865,"spec":0.9293362439917806,"test":-0.732984398972759,"config":-1.1200047587139752,"snippets":0.3887484276219767,"vimrc":-4.9019651264121435,"elisp":-2.944807921601847,"vim":-0.9993728811548663,"bashrc":-0.1912429345170065,"install":-0.5623263169842708,"gitmodules":0.1006573236170212,"makefile":-0.17609804887324573,"autoload":0.31849647150277105,"doc":1.0380071299681193,"ftplugin":0.21323513090595178,"indent":-0.09525374492425241,"plugin":-0.41148560916440297,"syntax":-0.04777978260145958,"after":0.23815600198849518}},"8":{"bias":-0.8245990333501488,"weights":{"vperc":9.073661383298909,"lib":-0.9600931747947022,"src":3.2302010956380762,"bin":-0.6459990419108419,"vimdir":-0.17242885935934643,"colors":5.941011852950786,"eclim":-3.2621662857941582,"bundle":-0.7834561286196985,"spec":0.3562206888978326,"test":-2.6772420238407775,"config":-1.2594493678151266,"snippets":0.4924102602289151,"vimrc":-3.790230619719693,"elisp":-5.397237119023736,"vim":-0.26638487948478956,"bashrc":-0.6530973516844426,"install":-0.729588676701917,"gitmodules":-0.1621667969865364,"makefile":-0.09675016142427922,"autoload":1.6927961079957154,"doc":-3.251684857448348,"ftplugin":0.25507070166737755,"indent":0.2867498145717176,"plugin":2.2163969082626145,"syntax":2.723379271995554,"after":1.4168793284584644}},"9":{"bias":-1.1406438227174303,"weights":{"vperc":-7.8472642833151625,"lib":0.506028314055192,"src":2.9525756315533194,"bin":-0.29489170104611784,"vimdir":-0.023978532502672793,"colors":-3.485859031701565,"eclim":1.7905185271969057,"bundle":1.1136322831648886,"spec":-1.064074009505344,"test":-1.8913089193946564,"config":1.9617613771496074,"snippets":-0.10877953339217211,"vimrc":4.386495550489425,"elisp":1.5707441524433998,"vim":1.618216646791837,"bashrc":0.2715355892922545,"install":0.7477288487487135,"gitmodules":0.40260905241989675,"makefile":0.07210443522781135,"autoload":0.17374290907372733,"doc":-1.7813641066476618,"ftplugin":0.05323835835652328,"indent":0.7210672671501875,"plugin":4.479525438735377,"syntax":1.199706144385796,"after":0.8274179040924361}},"10":{"bias":-0.16223903043593665,"weights":{"vperc":-5.005430459179569,"lib":0.937139478949912,"src":-2.7685526769124618,"bin":0.5487960843479062,"vimdir":0.29430834672618583,"colors":-4.7669379369282545,"eclim":2.993709473286179,"bundle":0.70885927760189,"spec":-0.7617079523515293,"test":1.4442339359645122,"config":1.4159470489276227,"snippets":-0.413407113882761,"vimrc":6.256726644223953,"elisp":4.620837346678117,"vim":0.8982830066211107,"bashrc":0.19270658795866483,"install":0.5172387391027357,"gitmodules":0.34395729236650296,"makefile":0.11264627007767558,"autoload":0.3268632327905462,"doc":1.3891694165665933,"ftplugin":0.18977530780742338,"indent":0.011671669156753167,"plugin":-1.5513191421533068,"syntax":-0.9060528165170123,"after":-0.45570874260233035}},"11":{"bias":3.3080129695164655,"weights":{"vperc":-11.030388920622483,"lib":0.5563884679571464,"src":0.5355460783522022,"bin":0.23518900687041513,"vimdir":0.10498704949026963,"colors":1.2369265303496106,"eclim":2.32734060844871,"bundle":1.3355495244460855,"spec":-0.9173647718194169,"test":-5.629998934541292,"config":0.7864854483382029,"snippets":-0.18890688990600435,"vimrc":4.5227011135845245,"elisp":2.0268293601317704,"vim":1.039509585870082,"bashrc":0.23800241640814288,"install":0.6207203190877734,"gitmodules":0.1843843960048399,"makefile":-0.12261647814884782,"autoload":0.0740608994560435,"doc":-1.6139005059662768,"ftplugin":0.20233784381094655,"indent":0.4355671493516794,"plugin":1.79189865394979,"syntax":-0.36436129221905555,"after":0.5479861497445996}},"12":{"bias":-2.6167791615173734,"weights":{"vperc":2.6482065459903983,"lib":-0.006707627232921877,"src":-1.5644132066176122,"bin":0.21467824856494638,"vimdir":-0.11705812095389043,"colors":-1.3569166676053848,"eclim":-0.8378891798010664,"bundle":-0.5215997254825392,"spec":0.4316135819958984,"test":0.1700299630647093,"config":-0.33178548412117076,"snippets":0.02465878329475985,"vimrc":-2.18444648031676,"elisp":-1.4746404634314065,"vim":-0.45723986520207766,"bashrc":-0.17253308981491208,"install":0.1283437851071147,"gitmodules":0.35075662266786317,"makefile":0.15986316520720723,"autoload":0.7190782597159876,"doc":-0.6813819220327578,"ftplugin":0.05897805278759781,"indent":-0.28604437662667526,"plugin":0.35102652431139714,"syntax":0.5982835979034159,"after":0.1114183280415103}}},{"plugin":{"bias":-0.35713690653423114,"weights":{"0":5.564413135210704,"1":-8.544521745990332,"2":-2.52815833524647,"3":-0.18744729440783947,"4":-6.817633762586593,"5":-5.24119701951787,"6":0.29346287583894265,"7":2.2784233496977158,"8":6.379531477099015,"9":-5.359667098413231,"10":-4.288340684063809,"11":-5.204265340098374,"12":1.1006304822871402}},"other":{"bias":0.3440965722263352,"weights":{"0":-5.501644288366562,"1":8.608294237549146,"2":2.5947509840169136,"3":0.20688943828000536,"4":6.722119512331062,"5":5.217602454191957,"6":-0.39204873024811693,"7":-2.2993884259279604,"8":-6.378497486374779,"9":5.331702823834744,"10":4.267652493765186,"11":5.219787400423727,"12":-1.0940051018468733}}}],"outputLookup":true,"inputLookup":true}