{"layers":[{"vperc":{},"lib":{},"src":{},"bin":{},"vimdir":{},"colors":{},"eclim":{},"bundle":{},"spec":{},"test":{},"config":{},"snippets":{},"vimrc":{},"elisp":{},"vim":{},"bashrc":{},"install":{},"gitmodules":{},"makefile":{},"autoload":{},"doc":{},"ftplugin":{},"indent":{},"plugin":{},"syntax":{},"after":{}},{"0":{"bias":-2.4464537091889182,"weights":{"vperc":0.05454162305318158,"lib":0.07991066846633582,"src":-0.4308117565038784,"bin":-0.1970897763573738,"vimdir":0.09541179998599025,"colors":-0.8227841091370209,"eclim":-0.011672809737068211,"bundle":0.060447438318212886,"spec":0.046160259928912734,"test":-0.5640033845766879,"config":-0.17804444759093294,"snippets":0.14228278815384363,"vimrc":-0.021675231382385945,"elisp":0.08830538669878885,"vim":0.0529208451459066,"bashrc":-0.17967670537524882,"install":-0.16989849580698468,"gitmodules":-0.15430867837363257,"makefile":0.10820477695434527,"autoload":0.12969625787383005,"doc":0.059791138137475504,"ftplugin":0.1045465916208224,"indent":0.058353391428814703,"plugin":-0.5157675683531489,"syntax":-0.3224228057541959,"after":-0.016092676366541568}},"1":{"bias":6.6011567521894285,"weights":{"vperc":-14.19546903463621,"lib":1.1855223705052473,"src":-0.7239859248568561,"bin":0.9198473564724283,"vimdir":-0.08672318955046227,"colors":-1.9903523896078494,"eclim":4.596760961286114,"bundle":1.1992744175950742,"spec":-1.399972331079068,"test":-5.1439755950630515,"config":0.8394947554022879,"snippets":-1.3979077922642487,"vimrc":6.640497337041359,"elisp":4.887810536295689,"vim":0.530345815236001,"bashrc":-0.03653261316200733,"install":0.43622485669225125,"gitmodules":1.073535145435659,"makefile":4.067392714986151,"autoload":0.6956920105667732,"doc":-2.0358205427616882,"ftplugin":0.6996410934535774,"indent":-0.1787582026978647,"plugin":0.650993275607055,"syntax":0.5901386573612405,"after":2.238479218886437}},"2":{"bias":-3.9384626541374392,"weights":{"vperc":10.407721444369557,"lib":-1.2173942864397274,"src":-6.451575906044466,"bin":-0.39729246615090086,"vimdir":0.0017371711097016347,"colors":7.767513012784565,"eclim":-3.3192308982256393,"bundle":-0.38915071621767,"spec":1.8194286631214336,"test":1.391994142792412,"config":-3.75315516424277,"snippets":0.09538218046748599,"vimrc":-5.514741909271632,"elisp":-5.847275287340075,"vim":0.33506868732149636,"bashrc":-0.10573002161863584,"install":-4.920292407667528,"gitmodules":3.180522733685253,"makefile":-4.187107090853487,"autoload":5.432310737836405,"doc":0.9904263514941186,"ftplugin":1.8373826033236562,"indent":0.6175806854892386,"plugin":-3.8025567068055124,"syntax":1.8933811231692952,"after":1.7329645899185897}},"3":{"bias":-2.7113276422915256,"weights":{"vperc":3.3919396458253663,"lib":-0.37133230560357855,"src":-1.560980004806628,"bin":-0.5101053419466869,"vimdir":0.15118886332282458,"colors":-0.8268274228063243,"eclim":-1.1116058682645331,"bundle":-0.6975606503691869,"spec":0.4053615451712105,"test":-0.003233504418792819,"config":-0.4197531420310994,"snippets":0.13962089248091974,"vimrc":-2.1213261586689267,"elisp":-1.3436443037061176,"vim":-0.3646123380412776,"bashrc":0.08667680721986848,"install":-0.6029937277547891,"gitmodules":-1.3057895864290834,"makefile":-1.6180167959898695,"autoload":-0.7041528232159528,"doc":-0.726006167422798,"ftplugin":0.020772561730836078,"indent":-0.27123404975193477,"plugin":-0.22872953263289642,"syntax":1.0502392388399848,"after":-0.6081204487812341}},"4":{"bias":-2.617041663934957,"weights":{"vperc":0.9772980841719274,"lib":-0.24432862924512383,"src":-0.7437159469249289,"bin":-0.1859406771645204,"vimdir":0.12022708942174135,"colors":-0.7756489284236809,"eclim":-0.25475527829171474,"bundle":-0.15017610547732446,"spec":0.2959386667535977,"test":-0.1515159743304603,"config":-0.028897133005112062,"snippets":-0.1897545614639512,"vimrc":-0.8866979137310419,"elisp":-0.4064829827655577,"vim":-0.129096345728549,"bashrc":-0.17388593811688963,"install":-0.25682574776049943,"gitmodules":-0.14019830016236182,"makefile":-0.33646556428624136,"autoload":0.17352962819082132,"doc":-0.023562896704829406,"ftplugin":0.2622568435748468,"indent":0.06699596927779912,"plugin":0.2057891374467698,"syntax":-0.3019205233085881,"after":-0.3073614107846956}},"5":{"bias":-2.713899233792555,"weights":{"vperc":-1.717542337960583,"lib":0.26574081703404234,"src":0.6334405440368107,"bin":0.2853427840760668,"vimdir":0.04731618197325719,"colors":-0.5939034495678335,"eclim":0.5893185118906363,"bundle":0.6403801160057561,"spec":-0.18706524359736104,"test":-0.9538281009692244,"config":0.3820369342621867,"snippets":0.4161089611942974,"vimrc":1.3645420958529861,"elisp":0.6860490021609507,"vim":0.491619359200238,"bashrc":0.15305239033937523,"install":0.45113666629149646,"gitmodules":0.9735398208169503,"makefile":0.41648358510068084,"autoload":0.842181229997517,"doc":0.05940817749690564,"ftplugin":0.28979618286804665,"indent":0.035954218372107875,"plugin":-0.5617677161640474,"syntax":0.006277133574959142,"after":0.7486994363050353}},"6":{"bias":-2.6476796667912765,"weights":{"vperc":-1.7713234129750408,"lib":0.13945327629738832,"src":0.5844183902260934,"bin":0.23314310340655117,"vimdir":-0.014891668797142581,"colors":-0.6984722236081118,"eclim":0.9657988578930874,"bundle":0.39775216956775955,"spec":-0.41610866043515354,"test":-0.8024654977321815,"config":0.35253074657512734,"snippets":0.384462182690805,"vimrc":1.4220119082297666,"elisp":0.7127944952819899,"vim":0.2055452931287603,"bashrc":0.1486522496744629,"install":0.3854841442091786,"gitmodules":0.7150198387299191,"makefile":0.5239691845335974,"autoload":0.647318841684206,"doc":0.154822045614471,"ftplugin":0.2281957969393272,"indent":-0.05931095511846149,"plugin":-0.4657326192625256,"syntax":0.0389944984975039,"after":0.5909296170705807}},"7":{"bias":-2.489941883926303,"weights":{"vperc":-0.6286423879718842,"lib":0.20072746186208706,"src":-0.131215231114301,"bin":-0.11589568941375318,"vimdir":-0.025513219723914547,"colors":-0.7301395635760346,"eclim":0.23664985493963311,"bundle":0.18168474874440702,"spec":-0.2496598043289212,"test":-0.6599522521907646,"config":0.27185251009269396,"snippets":0.03033084438489281,"vimrc":0.4489616029641518,"elisp":0.398821811149429,"vim":-0.06629188521817395,"bashrc":0.1051101214387208,"install":0.12973136394217635,"gitmodules":-0.053112027397674046,"makefile":0.12440118092177875,"autoload":-0.05500388834161258,"doc":0.1751755653946129,"ftplugin":0.06707853189758345,"indent":-0.028509817136493993,"plugin":-0.28175989533185447,"syntax":-0.26722983991098265,"after":0.4747962451114001}},"8":{"bias":-3.5979100235900527,"weights":{"vperc":-1.5974049671716204,"lib":2.0378508475696364,"src":5.3510631583053865,"bin":1.4390370853114,"vimdir":0.05708005261614892,"colors":6.817480307427007,"eclim":4.289080061826748,"bundle":1.4209731558085252,"spec":-0.8335129384783536,"test":-0.22182938245454767,"config":0.9976130919173372,"snippets":1.0738415332432985,"vimrc":5.8326121272757065,"elisp":3.4049226940975057,"vim":0.32170985445019806,"bashrc":-0.15197609801628878,"install":0.015347124379900476,"gitmodules":1.5224878826909845,"makefile":1.6881053894170943,"autoload":1.3053267193542113,"doc":2.9696903042907996,"ftplugin":-0.05699458884499196,"indent":-0.061716317016505845,"plugin":-1.7361837309120074,"syntax":-2.335222164924593,"after":2.1267730399048084}},"9":{"bias":-3.8733672016650478,"weights":{"vperc":-7.573672344074665,"lib":1.612705653174892,"src":1.6002369281991957,"bin":-0.08164103506537364,"vimdir":0.08885059728428105,"colors":-1.0013924220155015,"eclim":3.73168467622727,"bundle":2.3796271768796364,"spec":-1.583100717532339,"test":-1.9782846280801198,"config":3.802392139270363,"snippets":0.8773315730048056,"vimrc":9.128572659610532,"elisp":1.7300338828776143,"vim":1.9792073017562608,"bashrc":0.2691854572989972,"install":1.808773956320355,"gitmodules":3.5202541443550266,"makefile":-0.9063385777953259,"autoload":2.89824499338457,"doc":-6.920656557204515,"ftplugin":0.6350859271904551,"indent":0.2520553286147111,"plugin":5.900505355343986,"syntax":2.3579547734842445,"after":4.04237236920976}},"10":{"bias":2.9843009433280088,"weights":{"vperc":14.714188712539464,"lib":-1.7764273915093318,"src":-2.037259547208772,"bin":-1.3138356692700304,"vimdir":-0.2399453003312622,"colors":4.161748982893807,"eclim":-5.067816887263611,"bundle":-0.4164574834928624,"spec":0.2420780866874111,"test":-3.6863159185653145,"config":-0.5642611307502505,"snippets":-2.497880589347369,"vimrc":-3.1445440878650923,"elisp":-7.675246138994257,"vim":-0.0027369662319297384,"bashrc":-0.3495431483717497,"install":-0.7233820773250529,"gitmodules":1.0881727827026204,"makefile":-5.3205515697194485,"autoload":4.535394169933185,"doc":-5.0074064686404,"ftplugin":0.9779868644756661,"indent":0.43434792152163665,"plugin":-2.5140612309354515,"syntax":2.6290190254666235,"after":1.42371814559832}},"11":{"bias":-2.513549069408949,"weights":{"vperc":0.45484700894712227,"lib":-0.03987205651988085,"src":-0.608656534876705,"bin":0.05585412655706424,"vimdir":-0.08017806086198076,"colors":-0.8035844997990849,"eclim":-0.3767174942942456,"bundle":-0.06183939926178299,"spec":0.03719333024528506,"test":-0.46746446848469936,"config":-0.30308559774650606,"snippets":-0.053022756397520285,"vimrc":-0.4779562145056307,"elisp":-0.16509435899054192,"vim":0.015459892623682246,"bashrc":0.050744920361493265,"install":-0.029118452678999655,"gitmodules":-0.31391471999207066,"makefile":-0.2686744665572696,"autoload":-0.07827202089506294,"doc":0.05227349289021274,"ftplugin":0.15735283214274234,"indent":-0.13407486862605072,"plugin":-0.26354958693275143,"syntax":-0.2203367220584538,"after":-0.05679062032301036}},"12":{"bias":-3.2312585062605503,"weights":{"vperc":-2.6009984343143118,"lib":0.34324505689534146,"src":1.0648643012344967,"bin":0.24905387252359998,"vimdir":0.21797929310758213,"colors":0.20766313562337965,"eclim":2.170098141465479,"bundle":0.897487313412725,"spec":-0.36824673215559833,"test":-3.7595037962183824,"config":0.8527990205370488,"snippets":0.14348407357242968,"vimrc":2.9527815266665134,"elisp":2.231354456861623,"vim":0.49125935495617207,"bashrc":-0.020353093326379433,"install":0.6044719974426707,"gitmodules":0.8620557590499537,"makefile":1.979796128076611,"autoload":0.2548679530045955,"doc":0.7547021532888227,"ftplugin":0.34845220404404925,"indent":-0.017656890321666525,"plugin":0.7761019382919102,"syntax":0.7556264941646819,"after":0.8933973169972335}}},{"plugin":{"bias":-2.473183157440131,"weights":{"0":-0.09180451207577604,"1":-6.5819168343061865,"2":6.892598169305009,"3":1.1822203538390452,"4":0.13754438079667122,"5":-0.4678656502883272,"6":-0.3156527852069096,"7":-0.0915540513784487,"8":-4.3750174933882136,"9":-12.32127085228289,"10":7.038432621926423,"11":0.06618271492163245,"12":-0.4577230237483543}},"other":{"bias":2.4881285667093858,"weights":{"0":0.009121145290777174,"1":6.569787749512574,"2":-6.879749413167099,"3":-1.1797858667611154,"4":-0.30951328821489443,"5":0.4599016736442383,"6":0.4783549703262867,"7":0.2036711557273038,"8":4.361006881540855,"9":12.310068419779718,"10":-7.0415899711657675,"11":-0.07144732604335954,"12":0.46545706161475975}}}],"outputLookup":true,"inputLookup":true}