{"layers":[{"vperc":{},"lib":{},"src":{},"bin":{},"vimdir":{},"colors":{},"eclim":{},"bundle":{},"spec":{},"test":{},"config":{},"snippets":{},"vimrc":{},"elisp":{},"vim":{},"install":{},"gitmodules":{},"makefile":{},"autoload":{},"doc":{},"ftplugin":{},"indent":{},"plugin":{},"syntax":{},"after":{}},{"0":{"bias":-3.6640049719478816,"weights":{"vperc":8.757846868733555,"lib":-0.33951155104442365,"src":1.192883623886626,"bin":0.26788211142806584,"vimdir":0.027329163067576046,"colors":-1.5415184257058285,"eclim":-1.5816135185444928,"bundle":-1.0226152950620697,"spec":0.9799069230481093,"test":-0.46642423119708765,"config":-0.9336494739417194,"snippets":-0.08529318941668419,"vimrc":-4.200116167626743,"elisp":-2.4542692413229004,"vim":-1.0278001536207257,"install":-0.449876756139344,"gitmodules":0.3867265323478507,"makefile":-0.05862765554338695,"autoload":0.21282459187613775,"doc":0.7103329838087155,"ftplugin":0.08773661777228557,"indent":-0.4183383188021937,"plugin":-0.2140035266571707,"syntax":1.5179801253446716,"after":-0.10848774894206646}},"1":{"bias":-2.8516499333310494,"weights":{"vperc":2.9775351054313277,"lib":-0.027269028098109712,"src":-1.473334169025256,"bin":0.08868662623287069,"vimdir":-0.11285163940548328,"colors":-1.0626434854179738,"eclim":-0.8043144098286102,"bundle":-0.5788832256424575,"spec":0.8087901506038003,"test":0.5496784614398104,"config":-0.5629757345855965,"snippets":0.1319712353116704,"vimrc":-2.359039675545451,"elisp":-1.4581982616058506,"vim":-0.4547432809378329,"install":-0.0753661641665882,"gitmodules":0.3201838969671588,"makefile":-0.01618224605917931,"autoload":0.9107206421606034,"doc":-0.8261643619103384,"ftplugin":-0.13546316882153464,"indent":-0.19902891531116182,"plugin":0.044500337086362765,"syntax":0.568878564425891,"after":0.21025862889959201}},"2":{"bias":-2.151603160798265,"weights":{"vperc":-0.24445422574090578,"lib":0.04040036137176694,"src":-0.35106865374935914,"bin":-0.12987528922511885,"vimdir":0.20329265059542165,"colors":-1.1355919888343227,"eclim":0.13121727776940856,"bundle":-0.1328117445345758,"spec":0.012493456942358015,"test":-0.23783398897520633,"config":0.12487769895944943,"snippets":-0.1919963882278087,"vimrc":-0.35007470126450857,"elisp":-0.0868399300596369,"vim":-0.2279186870465832,"install":-0.20455265730425626,"gitmodules":-0.19618539806909238,"makefile":-0.10258018262684346,"autoload":-0.06459705666826654,"doc":-0.4375267739648683,"ftplugin":-0.07730915395618342,"indent":0.11015616416035295,"plugin":-0.29175866782270954,"syntax":-0.2843217385066929,"after":0.15107049759936345}},"3":{"bias":-0.6212870016090672,"weights":{"vperc":7.182435959317529,"lib":-0.4093821992214723,"src":1.224540964744426,"bin":0.04554639359100948,"vimdir":-0.1999076912100785,"colors":4.8323860603135325,"eclim":-2.720242488013888,"bundle":-0.7116244977257214,"spec":1.2267823251287244,"test":-1.9342774196093768,"config":-2.7370727116733256,"snippets":0.5444760972586121,"vimrc":-7.780027008420107,"elisp":-5.58065397601833,"vim":-1.4174713787473174,"install":-0.8079875111678851,"gitmodules":0.36902504184749,"makefile":-0.12538710730150343,"autoload":0.539252864602941,"doc":-0.2574940962089676,"ftplugin":0.3852809955080852,"indent":0.253682036172248,"plugin":-2.0304645825196346,"syntax":-1.5393212165317445,"after":0.7887524410049609}},"4":{"bias":0.07822305767720135,"weights":{"vperc":-2.605503110417597,"lib":0.6577944433409015,"src":2.9489419469640223,"bin":0.5061283035560781,"vimdir":0.1918633637592821,"colors":-5.426198118015005,"eclim":2.710560250253506,"bundle":0.636691140355305,"spec":-0.7994448308232154,"test":-0.8684284107783555,"config":1.9373345964453244,"snippets":-0.2652921445028558,"vimrc":5.453911854614737,"elisp":2.9869827833859635,"vim":1.146523048155166,"install":0.7966217266590149,"gitmodules":0.26065792762474105,"makefile":-0.13503095889464023,"autoload":-1.1081040822444013,"doc":2.7830510051077506,"ftplugin":0.4408187129648229,"indent":-0.20803454993921452,"plugin":-3.504541073209826,"syntax":-2.1119132853376557,"after":-0.7705641834543682}},"5":{"bias":0.14620282454394817,"weights":{"vperc":-14.87805484766581,"lib":0.608820994945909,"src":5.521584557862659,"bin":-0.7103466236917592,"vimdir":0.3618414833682463,"colors":-4.947878903682176,"eclim":4.031659918335175,"bundle":2.063112379985244,"spec":-2.2177194043913415,"test":-3.0600990446377643,"config":4.6615868156662055,"snippets":0.12530518669689597,"vimrc":10.978299963479223,"elisp":2.8018325532123636,"vim":3.782033058765147,"install":0.4287140531109756,"gitmodules":1.1698742040104204,"makefile":-0.06919511081650853,"autoload":1.589345488604548,"doc":-2.167531474042515,"ftplugin":-0.20667858966690428,"indent":0.9917619605241467,"plugin":7.1166821083667156,"syntax":2.1511709675815034,"after":0.7332420091751207}},"6":{"bias":-0.33854236621512035,"weights":{"vperc":-4.344787147606019,"lib":0.9318286392397128,"src":-3.4604348394178257,"bin":0.43479570117142585,"vimdir":0.031061154364975325,"colors":-4.7123855705442255,"eclim":1.9725507529566226,"bundle":0.7059711836409056,"spec":-0.5601455479294959,"test":1.275102903840624,"config":1.5010627174921702,"snippets":-0.32825606327677725,"vimrc":5.554427912741134,"elisp":4.234850730842665,"vim":1.047139160305745,"install":0.789338211880643,"gitmodules":0.2971137011216377,"makefile":-0.10481547005474567,"autoload":-0.5545215480026602,"doc":1.6255476119239853,"ftplugin":0.3331926239145673,"indent":-0.14754974929888176,"plugin":-2.07345215907471,"syntax":-1.418253203390129,"after":-0.5329448735084009}},"7":{"bias":4.400551776912462,"weights":{"vperc":-12.178811656007738,"lib":0.544893354734935,"src":0.8242819032941984,"bin":-0.10306671825791955,"vimdir":0.16256708726187544,"colors":0.5904936283123364,"eclim":2.6611261317971913,"bundle":1.474266238242424,"spec":-1.6965119534899376,"test":-5.950911571831419,"config":1.1333413907421592,"snippets":-0.5032817904941098,"vimrc":6.034186439929855,"elisp":2.4475249746108845,"vim":1.4559273782990212,"install":0.5978058080090067,"gitmodules":0.14165322249689946,"makefile":0.10439059194177391,"autoload":0.19826937646274176,"doc":-3.0433456296471224,"ftplugin":0.552880691160878,"indent":0.9029771500602571,"plugin":2.881682663277701,"syntax":-1.3464957316521293,"after":1.1094056750596806}},"8":{"bias":0.37774931464545264,"weights":{"vperc":-3.020304104870765,"lib":0.9034582848445933,"src":3.1632729131436856,"bin":0.6189137740600862,"vimdir":0.4841480003141814,"colors":-5.806167215871534,"eclim":2.8949278398018023,"bundle":0.7036664358399115,"spec":-0.8185655518070841,"test":-0.9895614078205031,"config":1.606739439025205,"snippets":-0.4185197371913181,"vimrc":6.5162866396743055,"elisp":3.426954887259187,"vim":1.4141943637692223,"install":1.022540774398741,"gitmodules":0.2660971791427528,"makefile":-0.01277117375284434,"autoload":-1.078446858424692,"doc":2.6635058204268156,"ftplugin":0.43588525598474015,"indent":-0.004103710928847844,"plugin":-3.5341328499257267,"syntax":-2.10582472866382,"after":-0.9866696154982193}},"9":{"bias":-2.744078662699149,"weights":{"vperc":2.6542526095420285,"lib":-0.2677645253899075,"src":-1.266796502514913,"bin":0.04440143542347095,"vimdir":-0.10770611612939905,"colors":-0.9944212316165092,"eclim":-0.6515415438107334,"bundle":-0.5671982516965687,"spec":0.37650912286009924,"test":0.4890983396148104,"config":-0.5088255706770078,"snippets":0.06137627682097488,"vimrc":-2.0491870584942506,"elisp":-1.4339835750358259,"vim":-0.5191581520234111,"install":-0.009752000288089676,"gitmodules":0.14601665024966265,"makefile":0.16804719818755987,"autoload":0.67190996694082,"doc":-0.8365116572583482,"ftplugin":-0.08433061796599443,"indent":-0.11306564200727787,"plugin":-0.2802364021098657,"syntax":0.6139038994561561,"after":0.1349982201145785}},"10":{"bias":-2.847582013047595,"weights":{"vperc":2.74993426475805,"lib":-0.318350989492798,"src":-1.5206200980559175,"bin":0.0384634650339054,"vimdir":-0.13304958729212443,"colors":-0.983542265755639,"eclim":-0.6694026305765405,"bundle":-0.6935890463594407,"spec":0.739780055693748,"test":0.6966323613834251,"config":-0.6341277440079757,"snippets":0.09434186067272503,"vimrc":-2.356742739551266,"elisp":-1.423494237131376,"vim":-0.7856291973419448,"install":0.049794873986982374,"gitmodules":0.47373713195911255,"makefile":0.062294320203363895,"autoload":0.7785998486506844,"doc":-0.6862750859202945,"ftplugin":0.16267013704161187,"indent":-0.15853695722347816,"plugin":-0.007881837312285254,"syntax":0.8238161138820774,"after":0.15978280840123216}},"11":{"bias":-0.3432520865276372,"weights":{"vperc":6.834725275429011,"lib":-0.5328842540742708,"src":3.0094935543326655,"bin":-0.30479374197365744,"vimdir":-0.1598171356900047,"colors":4.837283196632395,"eclim":-1.302181576401698,"bundle":-0.17802863029467414,"spec":0.3289972672782532,"test":-3.3331750431679295,"config":-0.9045365796761361,"snippets":0.5473323430890827,"vimrc":-2.232127204929579,"elisp":-3.6119095111329376,"vim":-0.6701623810881353,"install":-0.8496596932075944,"gitmodules":0.4112928557508979,"makefile":0.19453031122684478,"autoload":2.3574295804010656,"doc":-2.3004625722335663,"ftplugin":0.5929125845185963,"indent":0.2763606981029182,"plugin":2.3252785814908843,"syntax":2.3639518143840252,"after":1.4346792256002843}}},{"plugin":{"bias":-0.8304436785486479,"weights":{"0":2.2272724195327562,"1":1.1721653726184718,"2":0.09051222195125783,"3":5.432745188429466,"4":-5.064356325695732,"5":-11.401858323554839,"6":-4.472631902267308,"7":-8.379185977138139,"8":-5.882440999548947,"9":0.75725525775663,"10":1.0600471979333623,"11":4.535025122575994}},"other":{"bias":0.8929461595172885,"weights":{"0":-2.2516492260780048,"1":-1.0578950516594068,"2":0.12295811399414878,"3":-5.445689891373854,"4":5.02469559209563,"5":11.40503902556462,"6":4.4603570339510386,"7":8.327902209866524,"8":5.892837973508131,"9":-0.9017395124385366,"10":-1.1452292119666723,"11":-4.5383070531409295}}}],"outputLookup":true,"inputLookup":true}