{"layers":[{"vperc":{},"lib":{},"src":{},"bin":{},"vimdir":{},"colors":{},"eclim":{},"bundle":{},"spec":{},"test":{},"config":{},"snippets":{},"vimrc":{},"elisp":{},"vim":{},"bashrc":{},"install":{},"gitmodules":{},"makefile":{},"autoload":{},"doc":{},"ftplugin":{},"indent":{},"plugin":{},"syntax":{},"after":{}},{"0":{"bias":-0.09328816399929192,"weights":{"vperc":6.334260991045528,"lib":-0.5582592125658578,"src":-5.1375666431382125,"bin":-0.022106093410086933,"vimdir":-0.06721162716410711,"colors":4.547261696245152,"eclim":-1.8823710602238215,"bundle":-1.4202230539047687,"spec":1.6132442693534632,"test":1.226669540414734,"config":-4.538023547227575,"snippets":0.2364244974186183,"vimrc":-3.4374491490732715,"elisp":-4.039688379316637,"vim":-0.5312554917362471,"bashrc":0.1404201498283356,"install":-3.0195382255944128,"gitmodules":2.839245075042376,"makefile":-2.377189166852905,"autoload":5.34198147847286,"doc":-2.6921395986007264,"ftplugin":1.0501448686952581,"indent":-0.10867061691454051,"plugin":-5.08994290225188,"syntax":0.9586524801337931,"after":1.3221360605855228}},"1":{"bias":-1.779720662751597,"weights":{"vperc":-1.5739430602269793,"lib":0.3302361882383785,"src":-0.5249339293761187,"bin":0.028216035524191187,"vimdir":-0.016442554853118,"colors":-1.9887263660319865,"eclim":0.850750557185975,"bundle":0.7793242817832998,"spec":-0.5627315815435184,"test":-0.8693306322148859,"config":1.1442560625844866,"snippets":-0.03653591180456001,"vimrc":2.5089620957424876,"elisp":1.5840633758076337,"vim":0.6371277830264052,"bashrc":0.1764126290345857,"install":0.8517773677161263,"gitmodules":0.9165295654951618,"makefile":1.4241363486959768,"autoload":1.2045889122250888,"doc":-0.7620048046548948,"ftplugin":0.31896682997929066,"indent":0.07593695292934027,"plugin":-0.5052210231431206,"syntax":0.2914118557434374,"after":1.0775202322538904}},"2":{"bias":0.06987930737653382,"weights":{"vperc":2.556525196677057,"lib":-0.4521124351223885,"src":-3.0582913291362455,"bin":-0.3980526864521687,"vimdir":0.04538881373174382,"colors":4.2525193583476835,"eclim":-1.305737630390425,"bundle":-1.0700189497014,"spec":1.0982912190788792,"test":-0.1946432803279296,"config":-3.4926562422130925,"snippets":0.24810143590157985,"vimrc":-3.517573400354841,"elisp":-1.8273266511616253,"vim":-1.9181602953348451,"bashrc":-0.20819711644083194,"install":-2.853111954836676,"gitmodules":-3.8119944481665913,"makefile":-2.2954263067171574,"autoload":-4.720859015615466,"doc":-3.14616209749286,"ftplugin":0.5991106481169739,"indent":0.2819035591270432,"plugin":-5.443682488837306,"syntax":1.9527737316705993,"after":-2.0854560070087436}},"3":{"bias":5.175684495835319,"weights":{"vperc":-16.97499952447213,"lib":1.1305602233564507,"src":2.205770327795522,"bin":0.8648231835414288,"vimdir":0.17821790952349362,"colors":0.30044370747602106,"eclim":5.8799802462555055,"bundle":1.7599203587480032,"spec":-1.7051019608526965,"test":-4.822317994500525,"config":1.5351630653831436,"snippets":-0.4461042655739683,"vimrc":8.462688154858867,"elisp":2.78339200093255,"vim":0.7208662233410159,"bashrc":0.17213579792674644,"install":-0.1291295494047842,"gitmodules":1.3805951828553142,"makefile":1.1147490770854371,"autoload":2.6031258936063715,"doc":-2.452020913259853,"ftplugin":0.938964089673072,"indent":-0.1822437428643816,"plugin":3.0594629131879443,"syntax":0.899450264648821,"after":3.2829387175313673}},"4":{"bias":-2.1298244435907736,"weights":{"vperc":0.4692238359827308,"lib":-0.2640619689669685,"src":-0.6691076508365129,"bin":-0.10554859488265271,"vimdir":-0.11840267884129257,"colors":-1.150075873508642,"eclim":-0.3798489895786577,"bundle":-0.33737520925295456,"spec":0.1944282129071351,"test":-0.20813895011099998,"config":0.005253744317543321,"snippets":0.24896400004622368,"vimrc":-0.6367675295946233,"elisp":-0.6160673647418008,"vim":-0.2075507431323493,"bashrc":0.11577446638732686,"install":-0.19276497064392173,"gitmodules":0.009200957301179013,"makefile":-0.223224661439911,"autoload":-0.407414489650546,"doc":-0.4738649873549574,"ftplugin":0.07425711938261713,"indent":0.0331514511284847,"plugin":-0.317757146551531,"syntax":-0.13623849722668652,"after":-0.16263366996009201}},"5":{"bias":5.0601607892311025,"weights":{"vperc":-5.074219024038682,"lib":1.2475333079495339,"src":3.600196448496749,"bin":0.6540420459188471,"vimdir":0.25501689438710584,"colors":-0.19471606071516429,"eclim":3.849311413283032,"bundle":1.2814074856037183,"spec":-1.0834179642816835,"test":-0.5612757266335313,"config":0.8005892522877511,"snippets":0.12153385088970874,"vimrc":4.075569069208716,"elisp":3.0574830859759103,"vim":0.2593282647246135,"bashrc":-0.05148307324885605,"install":1.405724130575435,"gitmodules":0.11113301793464933,"makefile":1.3377968482267637,"autoload":-1.1832224866505334,"doc":-1.2147336834496738,"ftplugin":-0.03545030387453361,"indent":0.12640517477907784,"plugin":-2.8223776982180526,"syntax":0.7509016035047023,"after":1.585849635929102}},"6":{"bias":-2.069580171607554,"weights":{"vperc":-0.375696069591856,"lib":-0.0971372481059231,"src":-0.47835407918653183,"bin":-0.056179251252488134,"vimdir":-0.18187863654273462,"colors":-1.1480932477975236,"eclim":0.09046055814407647,"bundle":0.10410845521472527,"spec":0.035236633782611805,"test":-0.23635702612784484,"config":0.1737586713148641,"snippets":0.15146622314049127,"vimrc":-0.006927203576736894,"elisp":0.001489089792711842,"vim":-0.1724973251375119,"bashrc":0.08881384425902182,"install":-0.018566103209209046,"gitmodules":-0.009280137514857045,"makefile":-0.19983872640962083,"autoload":0.14475588172154596,"doc":-0.2976623776509067,"ftplugin":0.26397824415625026,"indent":-0.0826698082997875,"plugin":-0.56865906334342,"syntax":-0.20174539422251114,"after":0.4170630956898639}},"7":{"bias":-1.997164125893655,"weights":{"vperc":-2.9414796222801693,"lib":0.5114874395401363,"src":0.817972112821269,"bin":0.17915686864051464,"vimdir":0.3154421400347737,"colors":-2.7040811255561565,"eclim":1.616441366163954,"bundle":0.6677863412328077,"spec":-0.8530650895863373,"test":-1.9753683298684797,"config":2.5937865172819214,"snippets":0.03158924739521343,"vimrc":3.9682337144835005,"elisp":0.5878813085536926,"vim":1.4993787841630466,"bashrc":0.09223124668003793,"install":-0.6528293381366184,"gitmodules":2.262355460637836,"makefile":-0.3655204856130005,"autoload":1.9898174488235068,"doc":-2.5604135021907695,"ftplugin":0.6926534007490276,"indent":-0.05681923712167416,"plugin":2.008927316198809,"syntax":1.481327060046675,"after":2.198901994435895}},"8":{"bias":-0.5253129972047507,"weights":{"vperc":11.260695821105687,"lib":-1.2694216150459727,"src":1.0310880271553662,"bin":-1.0446563834119156,"vimdir":-0.08237458258731191,"colors":5.762655071569351,"eclim":-2.6435368104429386,"bundle":-0.6359056204255384,"spec":0.7880394450944002,"test":-3.0913103628267433,"config":-1.441942785737869,"snippets":0.16770510199176986,"vimrc":-2.238576515656934,"elisp":-5.390845825357296,"vim":0.0865099152857416,"bashrc":-0.014566652920399078,"install":-5.051556811513811,"gitmodules":2.001587590529219,"makefile":-4.366321209007379,"autoload":1.1078500766475403,"doc":-2.233026608839413,"ftplugin":0.5477535118928832,"indent":0.2632343943000979,"plugin":2.182137194595229,"syntax":3.1691959832101957,"after":1.9321857450024689}},"9":{"bias":-1.7289033599526713,"weights":{"vperc":-2.3928387255367847,"lib":0.6641464407873426,"src":0.11040933925408451,"bin":0.4426629836024541,"vimdir":0.24128569699217853,"colors":-1.6460522564390057,"eclim":1.0379617625079756,"bundle":0.6239868815845125,"spec":-0.2974221749545392,"test":-0.0032515999941830627,"config":0.8761603627705336,"snippets":0.2196497620641231,"vimrc":1.963277709809108,"elisp":1.243225071430356,"vim":0.38851779508423573,"bashrc":0.04070945225637115,"install":0.7496850892219441,"gitmodules":0.5713738682947197,"makefile":0.913994254352425,"autoload":0.5727308942600956,"doc":-0.22819044137241684,"ftplugin":0.02851984505998485,"indent":-0.07937120272375148,"plugin":-1.026125542593748,"syntax":-0.40466877575732485,"after":0.8920750763424218}},"10":{"bias":2.0885531170656555,"weights":{"vperc":-6.971741213164443,"lib":0.5175166693855143,"src":0.3214433720106219,"bin":0.26288006504821404,"vimdir":0.20361106172385593,"colors":2.103972117577918,"eclim":2.9350441377980454,"bundle":1.2464257570177069,"spec":-1.2507397176753485,"test":-4.297454056374423,"config":1.2792467932551697,"snippets":-0.3823089253276793,"vimrc":4.829628489643938,"elisp":1.943949103129402,"vim":0.716040124575489,"bashrc":0.20420372979418225,"install":0.3492162412990309,"gitmodules":0.5423575356258618,"makefile":0.9499891904328214,"autoload":1.1196697496737993,"doc":-2.7590476586607457,"ftplugin":0.4925302605354931,"indent":-0.013941246697266077,"plugin":1.5191000264290881,"syntax":0.1217470792551434,"after":1.7577181710563055}},"11":{"bias":-2.838966989346981,"weights":{"vperc":2.421869420524181,"lib":-0.39518828151695046,"src":-1.3346589982139518,"bin":-0.23051747261425393,"vimdir":-0.08024523709848855,"colors":-0.763369404851785,"eclim":-1.0656125063832305,"bundle":-0.6387696232056402,"spec":0.48925775587424175,"test":-0.07573656906837285,"config":-0.7488724133205454,"snippets":0.026293359106535432,"vimrc":-1.770522431311852,"elisp":-1.202177833190718,"vim":-0.45395890885041096,"bashrc":-0.0921397097711187,"install":-0.5530857410665935,"gitmodules":0.6531413074136245,"makefile":-0.7079616712808232,"autoload":0.6096903844067617,"doc":-0.21416125187052384,"ftplugin":0.06129986889026342,"indent":-0.10312652736005198,"plugin":0.35961832866565185,"syntax":0.18506300401008446,"after":0.5162467809612691}},"12":{"bias":-2.2556321357261293,"weights":{"vperc":0.9271311731760157,"lib":-0.2297728439760042,"src":-1.0593307892063677,"bin":0.013448980014542568,"vimdir":-0.16935712853632856,"colors":-1.1336823017735393,"eclim":-0.4632399505370687,"bundle":-0.2517896591558255,"spec":0.44677178700959663,"test":-0.2765046231150834,"config":-0.37298725336938765,"snippets":-0.0283644314705757,"vimrc":-0.9545827663943991,"elisp":-0.8195147249784618,"vim":-0.15531727919870647,"bashrc":0.17354054231691327,"install":-0.08689114509922116,"gitmodules":-0.025421098904743124,"makefile":-0.28787620950064924,"autoload":0.16606366009928142,"doc":-0.21048981651222898,"ftplugin":0.07737177078439685,"indent":-0.08550186063248531,"plugin":0.16402722890790342,"syntax":-0.06185685372072875,"after":-0.04265292901608145}}},{"plugin":{"bias":-0.989629403826093,"weights":{"0":7.284129026339788,"1":-1.2587213743584293,"2":6.6492492315256895,"3":-8.955921771304798,"4":0.029396058923813716,"5":-6.717021051849694,"6":-0.09484800156997335,"7":-4.959799908435346,"8":7.965046126851791,"9":-0.39599217003077186,"10":-4.538841458447691,"11":0.45865044378277764,"12":0.3107833695556425}},"other":{"bias":0.9848183264432986,"weights":{"0":-7.2896498742760185,"1":1.2492882526103641,"2":-6.64511836521997,"3":8.941336551421866,"4":-0.19003630398828547,"5":6.725413689028056,"6":0.004852312720620616,"7":4.971179817139065,"8":-7.965150893645367,"9":0.4427080198786559,"10":4.554781383633064,"11":-0.5109195230145881,"12":-0.12568761181549762}}}],"outputLookup":true,"inputLookup":true}