{"layers":[{"vperc":{},"lib":{},"bin":{},"vimdir":{},"colors":{},"bundle":{},"spec":{},"test":{},"config":{},"snippets":{},"vimrc":{},"elisp":{},"vim":{},"install":{},"gitmodules":{},"makefile":{},"autoload":{},"doc":{},"ftplugin":{},"indent":{},"plugin":{},"syntax":{},"after":{}},{"0":{"bias":1.4249891035885105,"weights":{"vperc":4.8624316743092635,"lib":-0.4813342776622541,"bin":0.06748369585752316,"vimdir":0.05841977223367551,"colors":2.6781068100280305,"bundle":-1.4950442141548355,"spec":1.623963348933104,"test":1.6747652758881357,"config":-3.465838090097564,"snippets":-1.0456066645174233,"vimrc":-6.59968737540753,"elisp":-1.6196659293600706,"vim":-2.1876873738248763,"install":-2.909076223202012,"gitmodules":-0.2913992531088038,"makefile":-0.9275002564675228,"autoload":0.14012335480102026,"doc":3.734253882658109,"ftplugin":0.44706290065339155,"indent":-0.7286827981082113,"plugin":-4.54494985185181,"syntax":-0.7791270371831129,"after":-0.5845272650081993}},"1":{"bias":0.05603580640608149,"weights":{"vperc":-3.9684348841829933,"lib":0.5773301925740064,"bin":-0.06960555387718821,"vimdir":-0.1732396327312018,"colors":-2.2697167503285995,"bundle":0.6696799612971502,"spec":-0.9396606967442462,"test":-0.3230967348783409,"config":1.1009432763800244,"snippets":0.648986465850309,"vimrc":3.38790442073713,"elisp":1.9450529879711471,"vim":1.157985289397482,"install":0.7741332488074146,"gitmodules":-0.6129961989894344,"makefile":0.7091755443773856,"autoload":-0.7019390231256076,"doc":-0.031540660521621085,"ftplugin":-0.12364356241081811,"indent":0.29271556476493066,"plugin":0.3370580157022195,"syntax":-0.4876485728847351,"after":0.11532772358899644}},"2":{"bias":-2.246513664634251,"weights":{"vperc":2.333794723295021,"lib":-0.18139774739537937,"bin":0.02021145074593117,"vimdir":-0.10038788783763625,"colors":-1.3697847012288227,"bundle":-0.5318511818775797,"spec":0.5814314511302284,"test":-0.39853316078186846,"config":-0.5862503745918558,"snippets":-0.41292800209802094,"vimrc":-1.8485286342609348,"elisp":-0.8382824589382242,"vim":-0.706669305669559,"install":-0.38122323819620996,"gitmodules":0.2812096146636756,"makefile":0.23555490835388154,"autoload":0.8746985189289899,"doc":0.34512667543874803,"ftplugin":0.34286065570329105,"indent":-0.4023158388586545,"plugin":-0.20904087624116321,"syntax":-0.24075488697303302,"after":0.0176656482487576}},"3":{"bias":0.6072447193266646,"weights":{"vperc":3.6267638734110736,"lib":-0.7206259957441199,"bin":0.0642770667173266,"vimdir":-0.16233914127870763,"colors":2.7797608734083084,"bundle":-1.0600629266217463,"spec":1.1406242681456238,"test":0.5298895975556742,"config":-2.694810741374694,"snippets":-0.7696225761294645,"vimrc":-4.548959165665188,"elisp":-1.163048609598172,"vim":-1.570602858902003,"install":-2.2306764911138877,"gitmodules":0.1208824496375738,"makefile":-0.32901045211692703,"autoload":0.1922077697122718,"doc":0.3187650802574222,"ftplugin":0.28038590413217157,"indent":-0.5110540555742646,"plugin":-2.638288938093302,"syntax":-0.8631359467617863,"after":-0.21968104096646288}},"4":{"bias":-3.30198606694142,"weights":{"vperc":5.822950720681282,"lib":-0.3938345329598155,"bin":0.44127979656389626,"vimdir":-0.19212212864701883,"colors":-1.121095763854938,"bundle":-0.7964714823079148,"spec":1.414051520564322,"test":-0.3187277191573802,"config":-1.0291472895114406,"snippets":-0.6995831723367,"vimrc":-4.970236184749788,"elisp":-2.5536472900891027,"vim":-1.1455537699362488,"install":-0.36507394758749245,"gitmodules":0.8992123088281382,"makefile":-0.6699837510020695,"autoload":1.1725666215649553,"doc":0.41153783574055725,"ftplugin":0.43957103124799923,"indent":-0.31923795806304567,"plugin":-0.27290809801796506,"syntax":0.4076431207236454,"after":0.023454812721734875}},"5":{"bias":-0.8948798726272819,"weights":{"vperc":-5.141697560293864,"lib":0.8422049715507719,"bin":0.6031720239127338,"vimdir":-0.04496258844637979,"colors":-3.7551928797381264,"bundle":0.4140313414886125,"spec":-0.5092576291688939,"test":1.659271057290063,"config":2.988595473676622,"snippets":0.2140127000136629,"vimrc":2.088892964007365,"elisp":2.6544819951919787,"vim":0.6593404528010166,"install":4.769222010385858,"gitmodules":-1.1254041167986384,"makefile":0.9270222789530927,"autoload":-2.2402279386850292,"doc":2.9408146730745046,"ftplugin":-0.37976937590064164,"indent":-0.23192443184682365,"plugin":-2.492525671052805,"syntax":-2.7011589644267144,"after":-0.5634011743706859}},"6":{"bias":-1.5953134677054748,"weights":{"vperc":-4.442753420851066,"lib":0.5691973159948147,"bin":-0.06714826317882557,"vimdir":-0.03641911108106383,"colors":-2.9577263881215448,"bundle":1.502331851210316,"spec":-1.6025275502184801,"test":-1.7668147347132785,"config":3.3806733709971795,"snippets":1.0057103225764281,"vimrc":6.041614654712532,"elisp":1.4674673912194394,"vim":2.2419166500594594,"install":1.650912086992559,"gitmodules":0.6851891081688305,"makefile":0.7169182575959792,"autoload":0.6564282505347643,"doc":-4.032498619005003,"ftplugin":-0.2811128790501076,"indent":0.7860595841241056,"plugin":4.700322818288038,"syntax":0.6956650482328531,"after":0.7806120817116212}},"7":{"bias":-2.959973882950004,"weights":{"vperc":4.452370880239489,"lib":-0.25170238925530763,"bin":0.25521122287069775,"vimdir":-0.16668376840871446,"colors":-1.5624841387293755,"bundle":-0.6721650140013288,"spec":1.0495291156960358,"test":-0.2395466426507159,"config":-0.8951628953930432,"snippets":-0.31554806563593807,"vimrc":-3.6948659572565115,"elisp":-1.890690123787427,"vim":-0.9933598055593298,"install":-0.3949408619558221,"gitmodules":0.8336445194570246,"makefile":-0.5143963509577704,"autoload":1.3657510103778283,"doc":0.4541155900020141,"ftplugin":0.507410414681681,"indent":-0.34169300018886584,"plugin":-0.14873176649792633,"syntax":-0.6392994273244561,"after":-0.20017560804441042}},"8":{"bias":-0.02052649531255101,"weights":{"vperc":-7.632005885379348,"lib":1.561570922398448,"bin":1.0417005586350778,"vimdir":0.04493138365397882,"colors":-5.589015868570537,"bundle":0.3473267537331339,"spec":-0.6981838113454248,"test":2.146042853499772,"config":1.7720118030064662,"snippets":0.07403301105313452,"vimrc":4.359386062417684,"elisp":3.5839134974870643,"vim":2.0319347537671533,"install":1.2430822562873098,"gitmodules":3.0603098646084326,"makefile":2.4165618446884105,"autoload":0.5018552245988092,"doc":3.0608355238373233,"ftplugin":-0.38272643649369475,"indent":-0.5111760230936546,"plugin":-4.975251378990539,"syntax":-3.2534590157617607,"after":-0.8180589129356474}},"9":{"bias":4.9638835446842915,"weights":{"vperc":-8.362192295896016,"lib":1.1710133251698305,"bin":0.45272599158982574,"vimdir":0.16995622372729266,"colors":-0.6521553037759901,"bundle":1.6297149999557345,"spec":-2.119386803348372,"test":-4.791418693027849,"config":1.4288081051454176,"snippets":0.9565885532275239,"vimrc":7.174130074134971,"elisp":3.7125217369717607,"vim":1.7925117545292044,"install":0.289602948956143,"gitmodules":-0.2518704217491103,"makefile":2.3732332725737075,"autoload":-1.2329028016759256,"doc":-1.4737084619571181,"ftplugin":-0.24133960896835224,"indent":0.5562540936078018,"plugin":1.0747992968769553,"syntax":-2.273015935693543,"after":0.5660324675905841}},"10":{"bias":-2.111722872910483,"weights":{"vperc":2.144593370218772,"lib":0.0017384382821152339,"bin":-0.12838716996551786,"vimdir":-0.16717395022879109,"colors":-1.3679548635839105,"bundle":-0.2828305551781574,"spec":0.2938719192592844,"test":-0.28320531799198145,"config":-0.692622537570008,"snippets":-0.37306953552014804,"vimrc":-1.7334534297045399,"elisp":-0.7622620937224737,"vim":-0.6126855307679243,"install":-0.4517561948703184,"gitmodules":0.5139121054531708,"makefile":-0.012542343262011126,"autoload":0.6843647388384232,"doc":0.24547982976445074,"ftplugin":0.028114133681885523,"indent":-0.3781322067661861,"plugin":-0.2757327496668316,"syntax":-0.27670582006770444,"after":0.1835005025033239}}},{"plugin":{"bias":-0.7463682612271945,"weights":{"0":6.441890320285779,"1":-0.2761957761325224,"2":1.2950195230561505,"3":3.254686551361741,"4":4.5925179346170175,"5":-6.625830481261457,"6":-6.943059789691873,"7":3.4714783182573066,"8":-10.937195430312139,"9":-8.146222937037162,"10":0.8458378803867365}},"other":{"bias":0.7659701187903823,"weights":{"0":-6.297884740495472,"1":0.20855389956019182,"2":-1.0459893372083067,"3":-3.401587120177807,"4":-4.711232827576712,"5":6.640009142837387,"6":6.987492496854046,"7":-3.4221535198898367,"8":10.93153679172295,"9":8.134166667886172,"10":-1.0735599965547278}}}],"outputLookup":true,"inputLookup":true}