{"layers":[{"vperc":{},"lib":{},"src":{},"bin":{},"vimdir":{},"colors":{},"eclim":{},"bundle":{},"spec":{},"test":{},"config":{},"snippets":{},"vimrc":{},"elisp":{},"vim":{},"bashrc":{},"install":{},"gitmodules":{},"makefile":{},"autoload":{},"doc":{},"ftplugin":{},"indent":{},"plugin":{},"syntax":{},"after":{}},{"0":{"bias":-4.162983484250971,"weights":{"vperc":3.705114304488812,"lib":-0.6289325917494668,"src":-2.5635359230378487,"bin":-0.457921590114132,"vimdir":-0.1616284726421959,"colors":-1.021647506224419,"eclim":-2.460692225393655,"bundle":-0.8672873860301638,"spec":0.6760066822199269,"test":0.41551565452078953,"config":-0.516212947305605,"snippets":-0.19169251673467333,"vimrc":-2.8952361017128445,"elisp":-2.165289765226669,"vim":-0.41439100017531527,"bashrc":0.16012075079660937,"install":-0.4626469580069982,"gitmodules":0.2895603274413678,"makefile":-0.7826523190275375,"autoload":1.1763298341534671,"doc":0.21381738397793099,"ftplugin":0.04018594826609262,"indent":-0.13501190291223247,"plugin":2.4305768237342527,"syntax":-1.2505804702268113,"after":-1.0276349267409812}},"1":{"bias":-1.77665508926212,"weights":{"vperc":-1.649995663338243,"lib":0.1973918308838769,"src":-0.17419136555393736,"bin":0.12243247135150126,"vimdir":-0.04278676472471505,"colors":-1.6082370955998597,"eclim":0.7366253856153037,"bundle":0.31787191316206004,"spec":-0.34298977353436144,"test":-0.40540422408812127,"config":0.572588733977012,"snippets":0.07520823895110429,"vimrc":1.4808241026988223,"elisp":0.5441079380323302,"vim":0.6013088652529568,"bashrc":0.19715156080528298,"install":0.3976148829437335,"gitmodules":0.4242690980081021,"makefile":0.5142555592833898,"autoload":0.44783522223101213,"doc":-0.6312541706296919,"ftplugin":0.0031281923627925973,"indent":0.11240858174740337,"plugin":-0.2470034992148793,"syntax":0.03149218078125331,"after":0.641046247303139}},"2":{"bias":-0.7441639922939297,"weights":{"vperc":8.035607904205625,"lib":-1.4696825170095174,"src":-5.512000919677618,"bin":-0.16808489955700406,"vimdir":-0.08590567503127336,"colors":5.361237162310197,"eclim":-2.30709529537457,"bundle":-2.2165403321530306,"spec":1.4865816854846505,"test":0.6094475848903979,"config":-3.978455011839498,"snippets":0.22758310501044315,"vimrc":-4.109386501992123,"elisp":-4.753237590418957,"vim":-0.9066415928902226,"bashrc":-0.293181407794469,"install":-3.418209346011506,"gitmodules":3.448748433640048,"makefile":-2.7943048557078987,"autoload":5.585924079028191,"doc":-2.633600434254159,"ftplugin":0.7506159398749572,"indent":-0.4207492260214876,"plugin":-5.363293968621228,"syntax":1.030762998046179,"after":1.2899321105063157}},"3":{"bias":-2.3135445182566796,"weights":{"vperc":18.52711723070694,"lib":-1.606216049709562,"src":0.877490583775891,"bin":-1.3021419278407624,"vimdir":-0.29629460756002507,"colors":7.369251467179608,"eclim":-5.2945146835896155,"bundle":-1.5604325396081176,"spec":0.5387281342402422,"test":-1.844847896978285,"config":-1.0043860928523594,"snippets":0.2381589279687471,"vimrc":-3.0410037759013524,"elisp":-6.647070876119015,"vim":-0.30387902213403073,"bashrc":-0.7287945937271807,"install":-4.947144518792182,"gitmodules":1.6284227300925216,"makefile":-5.00692954936329,"autoload":0.795003881226331,"doc":-4.295883307720331,"ftplugin":0.14042137470695054,"indent":0.21708975553296841,"plugin":0.4326085849148801,"syntax":3.189402993739076,"after":1.6421205801380587}},"4":{"bias":1.7313341549804975,"weights":{"vperc":-5.712452391214401,"lib":0.6837649317716356,"src":-0.5547500615965518,"bin":0.42850698344548593,"vimdir":0.010285273532039431,"colors":1.6969285868615949,"eclim":2.6307102885240137,"bundle":1.199658997845847,"spec":-0.5864908588021439,"test":-3.4997105349329063,"config":0.7270756150889898,"snippets":0.029243679086964562,"vimrc":3.849634952286652,"elisp":2.0650373697552262,"vim":0.6378872345297876,"bashrc":0.1172742524699935,"install":0.5055089612708376,"gitmodules":0.4238370412018474,"makefile":0.763857746916317,"autoload":0.6803203166083187,"doc":-1.773612715012232,"ftplugin":0.33555061447405915,"indent":-0.029634794682329404,"plugin":1.116538189777403,"syntax":-0.10871976809919848,"after":1.3904560845267973}},"5":{"bias":-1.9970764087630641,"weights":{"vperc":-0.9221040098321922,"lib":0.15594679473776593,"src":-0.3773935771273958,"bin":-0.02639365226271763,"vimdir":0.1726054089385265,"colors":-1.1991732176897862,"eclim":0.20124830028343882,"bundle":0.20841163768387433,"spec":-0.19505923371932424,"test":-0.2709477958019074,"config":0.3033816333807816,"snippets":0.202958692721428,"vimrc":0.18361582202690216,"elisp":0.1045371490588907,"vim":0.1250469483210245,"bashrc":0.15022614213498053,"install":0.21266478123622753,"gitmodules":0.27458807298528737,"makefile":0.1428416137866452,"autoload":-0.032306749976569835,"doc":-0.2722944633363864,"ftplugin":-0.03351801537341781,"indent":-0.041152535587341894,"plugin":-0.23877536009200115,"syntax":-0.027923624361985932,"after":0.396520535530562}},"6":{"bias":-1.336128227289974,"weights":{"vperc":-5.502879789828706,"lib":0.7907887318113991,"src":0.9247056153750368,"bin":0.5458830089993443,"vimdir":0.2736309244341861,"colors":-3.4872441999910206,"eclim":2.3629092387842587,"bundle":1.786097612083597,"spec":-2.1484901320408216,"test":-2.7265884694996902,"config":4.2153570200690735,"snippets":-0.13431893598967853,"vimrc":5.355238057856243,"elisp":1.3664994879535413,"vim":2.6946896820601687,"bashrc":0.12298444994425359,"install":-2.4169650192559544,"gitmodules":2.869842449076301,"makefile":-1.0280817342824873,"autoload":4.209306371169286,"doc":-6.24391422275824,"ftplugin":0.40359936240791533,"indent":0.31573439269655756,"plugin":5.205391604541977,"syntax":0.01892866645613278,"after":3.427689975803612}},"7":{"bias":-1.9402730114627287,"weights":{"vperc":-0.06177478797868983,"lib":-0.14541953803957705,"src":-0.5555718455628688,"bin":-0.16278709907474667,"vimdir":-0.028490312432259846,"colors":-1.2740845078945728,"eclim":-0.06720842044519551,"bundle":0.051432839665516976,"spec":0.20219032241853588,"test":-0.4724009305543013,"config":0.08805338787047212,"snippets":0.016764943025010276,"vimrc":-0.31295640723831225,"elisp":-0.4075284840391596,"vim":-0.030900359787103957,"bashrc":0.11670927221128959,"install":0.19182583977729198,"gitmodules":0.07996662606646543,"makefile":-0.3484188503372591,"autoload":-0.4625477039451474,"doc":-0.5069047848522398,"ftplugin":0.14952941963233604,"indent":-0.13319720224809165,"plugin":-0.4793202589107723,"syntax":-0.11989006915255869,"after":-0.06427049026308992}},"8":{"bias":-1.9108382159882054,"weights":{"vperc":-0.5974399543532425,"lib":-0.0971915144791018,"src":-0.2887422432063888,"bin":0.16113207960892512,"vimdir":-0.15438583700479197,"colors":-1.2461406454510102,"eclim":0.25046643411143443,"bundle":0.22885903196132196,"spec":-0.04994929061073009,"test":-0.4664266431582283,"config":0.06630082298831541,"snippets":0.06426212830760814,"vimrc":0.3174845505255754,"elisp":0.033042187835598154,"vim":0.04163955938691224,"bashrc":-0.1677243974592538,"install":0.28414376213773523,"gitmodules":0.2292764613314724,"makefile":0.18409391524211507,"autoload":0.2746995023129226,"doc":-0.6400599051253211,"ftplugin":0.11259011804997877,"indent":0.12875940651885306,"plugin":-0.49213969339751407,"syntax":-0.12202796364067288,"after":0.3645408569355188}},"9":{"bias":2.5996983155003193,"weights":{"vperc":-6.39285808834352,"lib":1.1760155393314642,"src":-1.581307218037481,"bin":0.634631549748488,"vimdir":0.21345547117267927,"colors":1.3689758380185344,"eclim":2.965631643105007,"bundle":0.6863875626922941,"spec":-0.5403997719276602,"test":-3.156866540704537,"config":0.9779118490655953,"snippets":-0.5542246596220638,"vimrc":4.419635320143112,"elisp":3.4514252879893337,"vim":0.33741161753306065,"bashrc":0.09981998445540533,"install":0.47147311976160033,"gitmodules":0.5243798371493678,"makefile":2.563973351950477,"autoload":0.3835885405249007,"doc":-1.6451130734418848,"ftplugin":0.10255573151292434,"indent":-0.19231404134993582,"plugin":0.8203897978566191,"syntax":-0.1696725941453069,"after":1.3973437383852343}},"10":{"bias":-2.5159897411552654,"weights":{"vperc":2.0305939542875837,"lib":-0.5337076044870436,"src":-1.4021177820225064,"bin":0.04014521640762904,"vimdir":0.004604910673818587,"colors":-1.3730371778912924,"eclim":-1.1186446684399778,"bundle":-0.6095820785737296,"spec":0.46672134815637284,"test":-0.20048069780557787,"config":-0.5262996108145005,"snippets":0.10278638600111063,"vimrc":-1.5526715500820532,"elisp":-0.9469450391234475,"vim":-0.5326387023571997,"bashrc":0.12012921227071004,"install":-0.08269864206038138,"gitmodules":-0.0017417115333225662,"makefile":-0.6940800715755916,"autoload":0.22567446555373827,"doc":-0.4964660032578562,"ftplugin":-0.23415187638424564,"indent":-0.12013588177271207,"plugin":0.6029737484228208,"syntax":-0.3178669273230447,"after":-0.4475241994016068}},"11":{"bias":0.6637663299040059,"weights":{"vperc":-4.681343143011201,"lib":0.6886489469273748,"src":0.6123166811339333,"bin":0.24407431121214834,"vimdir":0.01206999380919039,"colors":0.2778450126981375,"eclim":1.645697074924089,"bundle":0.9699466482692857,"spec":-0.5800309265429262,"test":-3.4124341115123085,"config":1.01854747311945,"snippets":-0.17694588038866482,"vimrc":3.2615880821812993,"elisp":0.8218290349023105,"vim":0.717740864758766,"bashrc":-0.05797725231910388,"install":0.35447451884589365,"gitmodules":0.582390699927536,"makefile":0.2092401360522049,"autoload":0.708066728478836,"doc":-1.2351021566697231,"ftplugin":0.3468645320589264,"indent":0.015437888959692026,"plugin":0.9176897161649958,"syntax":-0.037130542762183534,"after":1.3501524227430397}},"12":{"bias":4.394381065388552,"weights":{"vperc":-7.011004210557887,"lib":1.549895340199965,"src":4.493788361342959,"bin":0.7461159979756904,"vimdir":-0.029986835424577803,"colors":0.006874384800003108,"eclim":3.677965129289048,"bundle":1.804093481164779,"spec":-1.401757959078218,"test":-2.7605546781827397,"config":1.228604396484349,"snippets":-0.6544022510051365,"vimrc":5.9526346552518,"elisp":3.9452067073378423,"vim":0.46008297811574855,"bashrc":0.04474118535878915,"install":2.4956935298791914,"gitmodules":1.6418057505012273,"makefile":2.2745285590250996,"autoload":-0.6455111972537446,"doc":-0.565921278427599,"ftplugin":-0.02230575747803603,"indent":0.022013993474740815,"plugin":-0.6794997506985467,"syntax":-0.053320239418036354,"after":2.238403611418858}}},{"plugin":{"bias":-1.1712289178357793,"weights":{"0":3.768529226127479,"1":-0.5703851727578145,"2":8.342636233177817,"3":8.925662217497928,"4":-3.0089097144701302,"5":-0.046903684739633356,"6":-10.203144193036302,"7":-0.07872517091502475,"8":-0.2590482153509351,"9":-4.366553668305968,"10":0.7573191466874002,"11":-0.9661291071524725,"12":-7.498036453535408}},"other":{"bias":1.2140343220717185,"weights":{"0":-3.865776719827472,"1":0.49979468296891644,"2":-8.36738114137171,"3":-8.929914938845506,"4":3.156554524400651,"5":0.28817315339775296,"6":10.204359942577854,"7":-0.09986640290645242,"8":0.046201256872701525,"9":4.3858819320703555,"10":-0.6775888338774978,"11":0.7552876422351348,"12":7.480748814969342}}}],"outputLookup":true,"inputLookup":true}