{"layers":[{"vperc":{},"lib":{},"vimdir":{},"colors":{},"spec":{},"test":{},"t":{},"snippets":{},"vimrc":{},"elisp":{},"vim":{},"install":{},"autoload":{},"doc":{},"ftplugin":{},"indent":{},"plugin":{},"syntax":{},"after":{}},{"0":{"bias":-0.9921923342967334,"weights":{"vperc":3.935020464809739,"lib":-0.5866446064732996,"vimdir":0.18044023578137477,"colors":1.0571283351146192,"spec":0.5590286572273225,"test":-0.016176232526903995,"t":0.8124285589863632,"snippets":-0.11524710479479365,"vimrc":-4.316747696689206,"elisp":-2.98095638354824,"vim":0.12241084057953065,"install":-0.7000225454610768,"autoload":0.6600923367086193,"doc":-0.31760413708180196,"ftplugin":0.758162996968472,"indent":0.25973409674755854,"plugin":-0.8085300097301144,"syntax":-0.585328784801909,"after":0.3390278000702564}},"1":{"bias":0.789128582934616,"weights":{"vperc":-3.053757763849181,"lib":0.5765705437924584,"vimdir":0.0038312102371587603,"colors":-0.7650046680214724,"spec":-0.5324811355110248,"test":-0.10884127289715616,"t":-0.6236128569518848,"snippets":0.18303528021714072,"vimrc":3.04139627239328,"elisp":1.8841658833456394,"vim":0.12394134912909474,"install":0.695804311756103,"autoload":-0.5224834843881422,"doc":0.0001697111986570108,"ftplugin":-0.21284539102138844,"indent":-0.09629633187275201,"plugin":0.6520922659726306,"syntax":0.24139588536491643,"after":0.02990125901421454}},"2":{"bias":0.6861152040583678,"weights":{"vperc":-2.884079799992016,"lib":0.44260100137230135,"vimdir":0.10119708735729521,"colors":-0.743367681461364,"spec":-0.4885839996818198,"test":-0.06287432895212,"t":-0.4778810465764149,"snippets":0.03902021430187079,"vimrc":2.942756450002962,"elisp":1.8179234124894161,"vim":0.11550809442998604,"install":0.40958778640199833,"autoload":-0.3427507194326521,"doc":0.041905336406655336,"ftplugin":-0.2806882072246607,"indent":-0.3043183634166427,"plugin":0.6161594916215923,"syntax":0.29356812059000564,"after":0.12644782130177337}},"3":{"bias":-0.48836649301566987,"weights":{"vperc":-1.474858100242426,"lib":0.13521557570447473,"vimdir":-0.1100449878560546,"colors":-0.12328551839234067,"spec":-0.4344869709855161,"test":-0.9508059125599189,"t":-0.23783851235017414,"snippets":-0.018127948941825036,"vimrc":1.1557341279870734,"elisp":0.5470776327296143,"vim":0.008494170065810257,"install":0.15811046086618305,"autoload":0.000855842663213323,"doc":-1.4029028282190728,"ftplugin":-0.16053110403988127,"indent":-0.06239871438772156,"plugin":1.2281281119184555,"syntax":0.02591263306481989,"after":-0.12735963811945364}},"4":{"bias":-1.5971747313473608,"weights":{"vperc":-3.23178667120263,"lib":0.5601503827856705,"vimdir":0.10121278300907417,"colors":-0.384737288898934,"spec":-0.671509873114889,"test":-2.1114611400773895,"t":-0.6202109759585779,"snippets":0.2329209487749441,"vimrc":3.1332676586478647,"elisp":1.332965718679081,"vim":-0.14138555242895628,"install":0.5217275653007883,"autoload":0.11062270583574899,"doc":-3.6427794973116336,"ftplugin":-0.2659335064594714,"indent":-0.3746896282198832,"plugin":4.0404455197585785,"syntax":0.3713066321543229,"after":-0.10185826232404611}},"5":{"bias":-0.07143986986758356,"weights":{"vperc":-0.9404141304991297,"lib":-0.03641395878895022,"vimdir":0.07864480785081833,"colors":-0.28907565578806926,"spec":-0.36314395605106536,"test":-0.04637379449859345,"t":-0.22623963432902053,"snippets":0.11693533559525118,"vimrc":0.673235318784641,"elisp":0.5945122318914119,"vim":-0.08479589121682522,"install":0.23428369077204333,"autoload":-0.015161105554261489,"doc":-0.26571088488658473,"ftplugin":-0.29930078863090653,"indent":-0.11524693239205892,"plugin":0.2590435249635965,"syntax":-0.12224411881900643,"after":-0.13233397793399543}},"6":{"bias":-1.509384240945717,"weights":{"vperc":-3.9039731579773034,"lib":0.823388951618431,"vimdir":0.17467833523051038,"colors":-3.4435507514056662,"spec":0.20793362780438523,"test":1.8402378818347331,"t":-0.530563690371671,"snippets":0.20048341840795594,"vimrc":5.283897849393187,"elisp":3.139612796185209,"vim":-0.0405351365944172,"install":1.0894385927169394,"autoload":-0.40552987544749625,"doc":3.9736310531249095,"ftplugin":0.48048201253319217,"indent":-0.38255323625345017,"plugin":-4.6264167148333835,"syntax":-1.2978129277684447,"after":-0.20807362170952648}},"7":{"bias":-0.9569672426792747,"weights":{"vperc":4.140084415712825,"lib":-0.41744889536588226,"vimdir":0.045089565473004974,"colors":1.0547571290645323,"spec":0.5683526460558681,"test":0.08752152954667769,"t":0.7876728046890982,"snippets":0.19393742390049373,"vimrc":-4.481510208079682,"elisp":-2.9978211101360883,"vim":0.17571204026845802,"install":-0.8079933313548833,"autoload":0.8234560334348582,"doc":-0.5434195940846517,"ftplugin":0.7585892659308091,"indent":0.1864750440550418,"plugin":-0.9980788193831617,"syntax":-0.5464035852733835,"after":0.2461225498360368}},"8":{"bias":-1.086344049105188,"weights":{"vperc":3.9101730869998854,"lib":-0.6249012636950051,"vimdir":-0.11511358656223003,"colors":1.1193340163176275,"spec":0.7121391746487392,"test":0.006588420615862998,"t":0.6894128358054378,"snippets":-0.09169472049972363,"vimrc":-4.300920408835059,"elisp":-2.8562895600874003,"vim":0.03711641827023364,"install":-0.7447593529325,"autoload":0.7372894689165352,"doc":-0.2689905359336843,"ftplugin":0.6273605388626751,"indent":0.2133280172164987,"plugin":-0.8013558337072716,"syntax":-0.49092013341457713,"after":0.25138322019388293}}},{"plugin":{"bias":0.2628601297479866,"weights":{"0":4.7031433240799405,"1":-3.2778680759782834,"2":-2.9002169533043145,"3":-1.5634835944916703,"4":-5.225219738836247,"5":-0.9459555030227023,"6":-8.05346260637981,"7":4.879521168570748,"8":4.54945568277353}},"other":{"bias":-0.28405323137935085,"weights":{"0":-4.637598480589851,"1":3.1376342163999666,"2":3.136263588243509,"3":1.7334446185951469,"4":5.158489936372363,"5":0.7279395037232529,"6":8.072651355950642,"7":-4.81360376297172,"8":-4.633483617165844}}}],"outputLookup":true,"inputLookup":true}