{"layers":[{"vperc":{},"lib":{},"vimdir":{},"colors":{},"spec":{},"test":{},"t":{},"snippets":{},"vimrc":{},"elisp":{},"vim":{},"install":{},"makefile":{},"autoload":{},"doc":{},"ftplugin":{},"indent":{},"plugin":{},"syntax":{},"after":{}},{"0":{"bias":0.4114488693155971,"weights":{"vperc":4.476746202023001,"lib":-0.6580895708745207,"vimdir":-0.10794939034811095,"colors":0.8853946236528607,"spec":1.0099947577003168,"test":2.4682527726867027,"t":1.6758922982115405,"snippets":0.1773930847734856,"vimrc":-4.00242486360834,"elisp":-2.1132298045960627,"vim":0.030665328404714656,"install":-1.1192075264010586,"makefile":-0.8921151068401306,"autoload":-1.1542139625086254,"doc":3.768298748528729,"ftplugin":0.6076417542599799,"indent":0.3475549123508885,"plugin":-3.32695715827283,"syntax":-0.957879756959023,"after":0.38077445938605875}},"1":{"bias":-0.3775792082389618,"weights":{"vperc":1.558556095187867,"lib":-0.24549214899818037,"vimdir":-0.1825595131521596,"colors":0.4659739179540806,"spec":0.16863784699273215,"test":-0.3035920943551172,"t":0.23050364831093514,"snippets":-0.08240446431737365,"vimrc":-1.0141520270452113,"elisp":-0.9695330758543431,"vim":0.11392963868762908,"install":-0.26228503579547724,"makefile":-0.07926073052773769,"autoload":0.9692775637769824,"doc":-0.116469777750311,"ftplugin":0.04372085789181741,"indent":0.21525476349370717,"plugin":-0.09450997211416164,"syntax":-0.1856317373076753,"after":0.19803214746281103}},"2":{"bias":-0.10457921009486933,"weights":{"vperc":-1.21049131474548,"lib":-0.07468973579292348,"vimdir":0.04523158151599401,"colors":-0.40529520025833,"spec":-0.39538161232020363,"test":-0.06773097597580775,"t":0.1181321751884589,"snippets":-0.06707834637430654,"vimrc":1.0875177973569954,"elisp":0.4403843286787167,"vim":-0.1515708915709187,"install":0.23831949921486204,"makefile":0.1928058957254265,"autoload":-0.1569816193395751,"doc":0.333662716821572,"ftplugin":-0.08634413678518353,"indent":-0.26386602370060985,"plugin":-0.5116398438828792,"syntax":-0.0949103711646826,"after":0.07993474060131546}},"3":{"bias":-1.4552255850246487,"weights":{"vperc":3.6254823756930743,"lib":-0.27907791145431526,"vimdir":-0.06306115238791976,"colors":0.6352809658041938,"spec":0.5898415200115,"test":-0.18596563190906845,"t":0.4882825584858598,"snippets":0.002141676799696531,"vimrc":-3.0262700577249944,"elisp":-2.084044857242205,"vim":-0.1252349304683551,"install":-0.4654110291960904,"makefile":-0.36421565160042074,"autoload":0.9205264560530466,"doc":-0.05075291239604241,"ftplugin":0.3990457160008665,"indent":0.08337957028500842,"plugin":-0.06869100616788429,"syntax":-0.4539087384571764,"after":0.07198202315944807}},"4":{"bias":1.1476423223264138,"weights":{"vperc":-3.6140614037373844,"lib":0.3568161107798969,"vimdir":0.22046065631966613,"colors":-1.160329232207597,"spec":-0.7546884289211603,"test":-1.5149293251161193,"t":-0.7067110905492172,"snippets":0.06368496724050342,"vimrc":3.478267234256515,"elisp":2.1439114274217466,"vim":-0.042650732453315535,"install":0.7534963563430438,"makefile":1.2018685834030003,"autoload":-0.1954639155475743,"doc":-0.7611958234400135,"ftplugin":-0.5257627481854892,"indent":-0.17407575624557722,"plugin":0.943239959812966,"syntax":0.5168898888713184,"after":0.04396109338568479}},"5":{"bias":0.6376453692091365,"weights":{"vperc":-3.2852299147857895,"lib":0.3917462077913906,"vimdir":0.03250526814663978,"colors":-3.6786501893545682,"spec":-0.3534985802227329,"test":1.4801677659129373,"t":0.2711958684089579,"snippets":0.1450678298247993,"vimrc":2.737432258337317,"elisp":1.8678798937622259,"vim":0.14872190200559016,"install":0.6576547937124696,"makefile":0.9121004532245304,"autoload":0.9220602647705404,"doc":1.2756421399685791,"ftplugin":-0.03463156438384971,"indent":-0.25822015704721446,"plugin":-4.27558939546524,"syntax":-1.4549400202695753,"after":-0.11136815138135621}},"6":{"bias":1.7396119436294963,"weights":{"vperc":-4.0048366066735746,"lib":0.4052086562690535,"vimdir":0.04385593182146075,"colors":-0.9339751517044655,"spec":-0.8437719932607674,"test":-0.07608496570115539,"t":-0.44534465856699956,"snippets":0.19766734912576164,"vimrc":3.296613503989457,"elisp":2.1542064711733695,"vim":-0.13930377285139292,"install":0.621455682061796,"makefile":0.7033971444037684,"autoload":-0.8734532764585402,"doc":-0.0760097003830654,"ftplugin":-0.47160096980756383,"indent":-0.29555521914133676,"plugin":0.06486858006825878,"syntax":0.3718389605029065,"after":-0.16901143894928433}},"7":{"bias":0.04169529746307305,"weights":{"vperc":-1.7277206202936466,"lib":0.22515729491745398,"vimdir":0.011963347783771078,"colors":-1.863249710101686,"spec":-0.2960464216155475,"test":0.5765556555717681,"t":0.023360353983007818,"snippets":-0.12431373631007683,"vimrc":1.372349167771891,"elisp":1.0089991572344033,"vim":-0.029615200175057487,"install":0.4179291367888484,"makefile":0.276720823547579,"autoload":-0.16180095271694006,"doc":0.8239212373200211,"ftplugin":-0.008568896743594534,"indent":-0.15964038683995432,"plugin":-1.8866765206637564,"syntax":-0.5781945304139741,"after":-0.15958409351425915}},"8":{"bias":-1.357239404928753,"weights":{"vperc":4.668115289495084,"lib":-0.41441251147396096,"vimdir":-0.07119915853625282,"colors":2.6637914585895097,"spec":1.3226480787660961,"test":0.08581285735155932,"t":0.7124716511632873,"snippets":0.11288434944742962,"vimrc":-4.703023511712567,"elisp":-2.5680378602444724,"vim":0.04266606372506403,"install":-1.6639531908749048,"makefile":-0.31160779088437324,"autoload":0.09058558090913509,"doc":-1.365022210479244,"ftplugin":0.6493094034311514,"indent":0.1024542000609696,"plugin":-3.624545597045681,"syntax":0.2575400821736674,"after":0.499744762061285}},"9":{"bias":1.343660971854295,"weights":{"vperc":-3.369297236548007,"lib":0.41122817632663106,"vimdir":-0.16028978918503503,"colors":-0.7767674240821192,"spec":-0.5860891757704393,"test":0.12669342795822103,"t":-0.2526536580714395,"snippets":0.18894331183110702,"vimrc":2.870325809267034,"elisp":1.73975712063688,"vim":-0.021741700619399278,"install":0.5736460982376029,"makefile":0.4191698480358328,"autoload":-0.6988422797005882,"doc":0.04194927330803409,"ftplugin":-0.322312414215372,"indent":-0.17712045261259826,"plugin":-0.1033930325282195,"syntax":0.18812509093691276,"after":-0.11587165682097966}}},{"plugin":{"bias":-0.25073967346450854,"weights":{"0":5.984774971349701,"1":1.5780099076351672,"2":-1.1776153075759457,"3":3.713343623000089,"4":-4.234661852116215,"5":-5.8246449915713905,"6":-4.194745649015746,"7":-2.4962958222082614,"8":5.786531885509316,"9":-3.4137088390134784}},"other":{"bias":0.31292489841265336,"weights":{"0":-6.01605611282615,"1":-1.5995817341545153,"2":1.243603880974424,"3":-3.69273227351837,"4":4.208775034682375,"5":6.002309778806965,"6":4.082336133967157,"7":2.2109679543928142,"8":-5.796564421311371,"9":3.4990825437313315}}}],"outputLookup":true,"inputLookup":true}