{"layers":[{"vperc":{},"lib":{},"src":{},"bin":{},"vimdir":{},"colors":{},"eclim":{},"bundle":{},"spec":{},"test":{},"config":{},"snippets":{},"vimrc":{},"elisp":{},"vim":{},"bashrc":{},"install":{},"gitmodules":{},"makefile":{},"autoload":{},"doc":{},"ftplugin":{},"indent":{},"plugin":{},"syntax":{},"after":{}},{"0":{"bias":-2.304559234687476,"weights":{"vperc":0.6652832504378141,"lib":-0.14637349774550346,"src":-0.8731021617755115,"bin":0.0925851665853506,"vimdir":0.18835514637725376,"colors":-1.1894698354869988,"eclim":-0.13796126831632793,"bundle":-0.27759039965869275,"spec":0.11724743918693575,"test":0.03752971300272362,"config":-0.20471439607587277,"snippets":-0.03767620045873948,"vimrc":-0.7393766242504345,"elisp":-0.6049321965954881,"vim":-0.15498888952852344,"bashrc":0.15179055648408032,"install":-0.037774819648725144,"gitmodules":-0.14319065760133795,"makefile":-0.2587833992064542,"autoload":0.15905938254092275,"doc":-0.1784637761837426,"ftplugin":0.19031682963365595,"indent":0.06444024154758045,"plugin":-0.15521070169618012,"syntax":-0.4503499907211912,"after":-0.04607310395209698}},"1":{"bias":-5.6370091411882255,"weights":{"vperc":7.075462840844292,"lib":-1.0222010406327215,"src":-3.5773318154749587,"bin":0.06324091833196967,"vimdir":-0.12959158190449938,"colors":0.70639858463432,"eclim":-3.437518917853324,"bundle":-1.7388449776506252,"spec":0.8166118670047547,"test":1.5194528801559746,"config":-0.7041929513566021,"snippets":0.6480074090388745,"vimrc":-5.505780012418095,"elisp":-3.7915313637422963,"vim":-0.35039491874634904,"bashrc":0.06820931145253444,"install":-0.1499393279435416,"gitmodules":-0.7857307346066958,"makefile":-1.6725338676070947,"autoload":2.099702023051687,"doc":0.8598263397648837,"ftplugin":0.3787662273587733,"indent":-0.052868086869332497,"plugin":1.4489970684726061,"syntax":-0.03149075580674946,"after":-2.0508786738510114}},"2":{"bias":-1.4911718625120582,"weights":{"vperc":-2.9078835417217483,"lib":0.3212151900418897,"src":-1.2014980024831132,"bin":0.8093784138281275,"vimdir":0.08477593724038063,"colors":4.90317127283173,"eclim":1.3240456858848728,"bundle":0.9412769507551635,"spec":-0.24364219798482736,"test":-4.272163746342985,"config":0.6682107334244626,"snippets":0.6103394375955413,"vimrc":3.370866794736723,"elisp":3.1472684136634252,"vim":0.2986967584649045,"bashrc":-0.13903327109439506,"install":0.36920611055095887,"gitmodules":0.8954145985488362,"makefile":2.6371410610944275,"autoload":1.7233353503212345,"doc":-0.08614480462059022,"ftplugin":0.46615006165971723,"indent":-0.08268402663114385,"plugin":-1.6911861052992991,"syntax":-1.537116891041096,"after":1.340228138484946}},"3":{"bias":-3.00065465925328,"weights":{"vperc":-8.750286934278268,"lib":1.0232165338518715,"src":1.5167785082868008,"bin":0.08620741045306671,"vimdir":0.1435981459914489,"colors":-1.861506799313258,"eclim":5.104671486778513,"bundle":2.6126754316741243,"spec":-1.0119020167448158,"test":-3.1230822788244583,"config":4.360624664313425,"snippets":0.16775105804128398,"vimrc":9.38211990885008,"elisp":2.8272929928484034,"vim":1.9146649686140498,"bashrc":0.4356378664114729,"install":1.3952976663141452,"gitmodules":3.153758754549657,"makefile":-0.06028961253821881,"autoload":2.7258203347570964,"doc":-5.921558670814623,"ftplugin":0.6590035092078826,"indent":0.1250187873715276,"plugin":6.491228110620302,"syntax":1.8038851983782687,"after":4.622702684511281}},"4":{"bias":1.2055331439737769,"weights":{"vperc":19.73773622710657,"lib":-1.305158798512174,"src":-1.4971846183913158,"bin":-1.0250601949866824,"vimdir":0.11394252884624562,"colors":4.16734669749589,"eclim":-6.415192016390913,"bundle":-1.1867158775785562,"spec":0.10506776916509364,"test":-2.305958265028644,"config":-0.6459081068496226,"snippets":-1.2316559181156972,"vimrc":-4.147845305224144,"elisp":-7.87240209211568,"vim":-0.1847862201210713,"bashrc":-0.26963926383496306,"install":-2.0263691291709303,"gitmodules":0.570610874544477,"makefile":-5.726945919759652,"autoload":3.2449254980186275,"doc":-6.0300791752748255,"ftplugin":0.6116986346503586,"indent":0.38428359737339174,"plugin":-2.6283851989025404,"syntax":2.394316851275938,"after":1.2167207697492433}},"5":{"bias":-2.391801731172389,"weights":{"vperc":1.4947657430417867,"lib":-0.04551602546422584,"src":-1.15775776374187,"bin":-0.09061255776193472,"vimdir":-0.05098609561379058,"colors":-1.4285120792896822,"eclim":-0.7347920875681874,"bundle":-0.2853280799430314,"spec":0.07172635535111081,"test":0.011458181046937832,"config":-0.2520741175368236,"snippets":0.04625928599704312,"vimrc":-1.0377284336408077,"elisp":-0.9726941577639492,"vim":-0.07144704954153593,"bashrc":-0.17017668400369806,"install":-0.28328340443122396,"gitmodules":-0.5129282403027541,"makefile":-0.6332833556673826,"autoload":0.06836804147799305,"doc":-0.27815233164467246,"ftplugin":0.13359329844866435,"indent":-0.2306872112778382,"plugin":-0.11483273250621477,"syntax":-0.3197430917858833,"after":-0.29789931681097204}},"6":{"bias":-2.2535109647659826,"weights":{"vperc":0.33112177327263453,"lib":0.0169398722073603,"src":-0.5689065190452941,"bin":-0.18736526594996833,"vimdir":0.004910164348777911,"colors":-1.0737433259396292,"eclim":-0.11015954558371191,"bundle":0.029289888327468913,"spec":0.12037793339170703,"test":-0.2150001566945959,"config":-0.16431380890300787,"snippets":-0.1539234647487244,"vimrc":-0.5091316375354045,"elisp":-0.371234099349081,"vim":0.017363546538669443,"bashrc":0.14262194528931016,"install":0.04837914000850759,"gitmodules":-0.06169720684699619,"makefile":-0.0974910088735434,"autoload":-0.1361848228496847,"doc":-0.3826451791996794,"ftplugin":0.020440636352569087,"indent":-0.08412082311182861,"plugin":-0.5454734686072517,"syntax":-0.41982030217636207,"after":-0.17005569729773307}},"7":{"bias":-2.816812564689107,"weights":{"vperc":2.9029503688849156,"lib":-0.45305429277033116,"src":-1.4831117965922807,"bin":0.013678582067081188,"vimdir":0.15252820240784673,"colors":-1.6396787552515995,"eclim":-1.0087612752006245,"bundle":-0.6518243892570306,"spec":0.3682285574371901,"test":0.0377405498484178,"config":-0.2287474917932116,"snippets":-0.14528681661339002,"vimrc":-1.8762373745495637,"elisp":-1.4035083159433979,"vim":-0.15737578213644282,"bashrc":0.008884717185459723,"install":-0.1213139642273938,"gitmodules":-0.2629679688591923,"makefile":-0.8534746651783208,"autoload":0.22051931034567324,"doc":-0.4027347175849433,"ftplugin":-0.07318915581635659,"indent":-0.020755191850891086,"plugin":0.06870907561333307,"syntax":-0.18833846726832573,"after":-0.39418727964235606}},"8":{"bias":-2.1519146291022846,"weights":{"vperc":-0.15040875621414673,"lib":-0.07251125902294284,"src":-0.534040309531266,"bin":-0.15754143829715142,"vimdir":0.15299610180414122,"colors":-0.9983493865317095,"eclim":0.11725618619846656,"bundle":0.10322006841953102,"spec":0.019495241659739964,"test":-0.5606228315792984,"config":-0.053712094148028924,"snippets":-0.09678644480605811,"vimrc":-0.29467076836187556,"elisp":-0.20600679393300603,"vim":-0.029666206752942455,"bashrc":0.13803841394763772,"install":-0.10536532929316118,"gitmodules":-0.27758686266684124,"makefile":-0.031994116117779164,"autoload":-0.04053173652607481,"doc":-0.36092814623521374,"ftplugin":0.07212734915322301,"indent":-0.13653514479171924,"plugin":-0.4831472224822565,"syntax":-0.3982189032503114,"after":0.1057049723483705}},"9":{"bias":-1.4675731059969475,"weights":{"vperc":-2.073888074648274,"lib":0.1579775792017588,"src":-0.8079864616151042,"bin":0.4747806259412334,"vimdir":-0.10584924963508972,"colors":4.222568738949602,"eclim":1.0655882482601486,"bundle":0.7019842289957957,"spec":0.09883144590718819,"test":-3.7893182393243516,"config":0.6507440136961391,"snippets":0.5183719317843084,"vimrc":2.341517498599538,"elisp":1.9213285962158453,"vim":0.33949463350335857,"bashrc":0.04206197637268298,"install":0.5456646312024531,"gitmodules":0.9012251933438271,"makefile":1.8020435678182525,"autoload":1.1628442775834942,"doc":-0.2860239028505809,"ftplugin":0.6011032777088609,"indent":-0.024417324802407468,"plugin":-1.476055337940082,"syntax":-1.425354516799466,"after":0.9034397422517114}},"10":{"bias":-2.6980629678409187,"weights":{"vperc":2.38992912400715,"lib":-0.278549501904251,"src":-1.2719278994747902,"bin":-0.07989906279435299,"vimdir":-0.13514357959408996,"colors":-1.4327555550960631,"eclim":-0.700621111497197,"bundle":-0.42648568920102375,"spec":0.29789316022419365,"test":0.18569325835598777,"config":-0.3464680343749537,"snippets":0.13491769732033274,"vimrc":-1.561778798773448,"elisp":-1.020982865457626,"vim":-0.21845515921733727,"bashrc":-0.004047893368869755,"install":-0.005708107481970383,"gitmodules":-0.22672954770582046,"makefile":-0.6916336112217853,"autoload":0.2593441924635028,"doc":-0.42601291894624516,"ftplugin":0.07361636951392113,"indent":-0.25180888303309745,"plugin":0.09983087249662818,"syntax":-0.18060393835917188,"after":-0.46471657645854064}},"11":{"bias":2.7681852264436824,"weights":{"vperc":-9.559846572361957,"lib":1.2729737813137905,"src":6.719870325018247,"bin":0.5010225457756975,"vimdir":0.1972839106837641,"colors":-7.110721125888391,"eclim":3.7163994802340263,"bundle":1.6916932782491758,"spec":-1.4355798623680447,"test":-0.7940262212538346,"config":3.2386963428470352,"snippets":-0.43721317067395876,"vimrc":8.109230698757784,"elisp":6.115082112030275,"vim":0.4675688060843248,"bashrc":-0.08355440818903917,"install":5.304431704624291,"gitmodules":-2.5926057374238436,"makefile":3.73199617282637,"autoload":-3.7476705689507446,"doc":-0.23081417709248733,"ftplugin":-0.7082494548245377,"indent":-0.40242931023587347,"plugin":3.0995208188511856,"syntax":-0.3193013125451963,"after":-1.0064677658986485}},"12":{"bias":-2.4683138198748473,"weights":{"vperc":0.910321799477648,"lib":-0.3189985121839828,"src":-0.7645459211977009,"bin":-0.24873481141639991,"vimdir":-0.05382094977978011,"colors":-1.2072262416282324,"eclim":-0.45069513321444143,"bundle":-0.23800228919600816,"spec":0.2902160446962525,"test":-0.21316350221294525,"config":-0.1948942794456689,"snippets":0.04053067826243332,"vimrc":-0.5832252943845929,"elisp":-0.5732876133236617,"vim":-0.2837468565895681,"bashrc":0.11202934119013466,"install":-0.0902731993956192,"gitmodules":-0.12617149269341948,"makefile":-0.25156292183706475,"autoload":0.0012207001275761394,"doc":-0.2552184665884426,"ftplugin":-0.08887175180771643,"indent":-0.08802654140780157,"plugin":-0.10558704902531425,"syntax":-0.44831183353287096,"after":-0.1860786132996249}}},{"plugin":{"bias":-1.67690195542647,"weights":{"0":0.07902530376950431,"1":6.417899594260963,"2":-4.139242432517264,"3":-13.069474101434448,"4":8.755317697127591,"5":0.4017656487385114,"6":0.08841210559010391,"7":0.7444864387880059,"8":-0.17224150074884814,"9":-2.4681809751051738,"10":0.46731197395382434,"11":-7.015333480959385,"12":0.12437652126018373}},"other":{"bias":1.685012587073463,"weights":{"0":-0.10104575455250361,"1":-6.430813284869234,"2":4.167014107067727,"3":13.063234023689716,"4":-8.750640623955926,"5":-0.20640580485967638,"6":0.08892984150208941,"7":-0.6476598660604183,"8":0.049609891127916174,"9":2.4254160142892425,"10":-0.6542640463916443,"11":7.000114600763806,"12":-0.20286788671889952}}}],"outputLookup":true,"inputLookup":true}