{"layers":[{"vperc":{},"lib":{},"vimdir":{},"colors":{},"spec":{},"test":{},"t":{},"snippets":{},"vimrc":{},"elisp":{},"vim":{},"install":{},"autoload":{},"doc":{},"ftplugin":{},"indent":{},"plugin":{},"syntax":{},"after":{}},{"0":{"bias":-0.808159236232187,"weights":{"vperc":-3.6767557907095605,"lib":0.6769143543692936,"vimdir":0.18345940001166278,"colors":-0.6200528379777186,"spec":-0.5781484875510575,"test":-1.4081864792672831,"t":-0.5859208032111368,"snippets":0.1738399575960863,"vimrc":3.9942806889816644,"elisp":1.9533857871434526,"vim":-0.010620973562016675,"install":0.8190366850778361,"autoload":-0.16581892472037255,"doc":-2.6100560619575432,"ftplugin":-0.4084744249288079,"indent":-0.4263430806533732,"plugin":2.9512731663337743,"syntax":0.43345433514536225,"after":-0.1709992912361297}},"1":{"bias":-0.2140433758681591,"weights":{"vperc":-0.739530210319776,"lib":-0.015163521703289842,"vimdir":-0.07303496964317963,"colors":-0.06485633725571928,"spec":-0.13642843371219615,"test":-0.31414337259857267,"t":0.13655544593931368,"snippets":-0.021985929650595964,"vimrc":0.37956646254103066,"elisp":0.29285185893528953,"vim":0.08688719602777965,"install":0.3026976046315075,"autoload":-0.10013445574532154,"doc":-0.1342810047745465,"ftplugin":0.08082416632119031,"indent":0.09680488211827123,"plugin":0.012461263365233476,"syntax":0.06277813650680283,"after":0.09266311871338484}},"2":{"bias":-1.1340016704468137,"weights":{"vperc":5.015326842088944,"lib":-0.6773521900623395,"vimdir":-0.1663189548431765,"colors":1.4677520649221576,"spec":0.875608779357053,"test":0.18084524260893997,"t":1.0067431530900897,"snippets":-0.14681202083491282,"vimrc":-5.425934687588722,"elisp":-3.567088683015182,"vim":-0.11932939715498969,"install":-0.9094958338313035,"autoload":1.0330515331492127,"doc":-1.1547671149481953,"ftplugin":0.8056046857569796,"indent":0.5172585140382593,"plugin":-1.6683372076128375,"syntax":-0.3619417097149175,"after":0.33772720513067594}},"3":{"bias":-1.4650422084078627,"weights":{"vperc":-3.5604129388331516,"lib":0.755934661966311,"vimdir":0.18682654721013173,"colors":-3.5939105142743597,"spec":0.18973086510285364,"test":1.864294635641984,"t":-0.260966654611233,"snippets":0.16107470051880002,"vimrc":3.4524553867487207,"elisp":2.778387176639965,"vim":-0.08011660771561913,"install":0.7438615508081137,"autoload":-0.6239792038855503,"doc":3.729768631144838,"ftplugin":0.08895874362719483,"indent":-0.24478600524663513,"plugin":-4.751960811072354,"syntax":-1.2337743639065004,"after":-0.12918380589735817}},"4":{"bias":-1.2237247866253462,"weights":{"vperc":3.9145951197368776,"lib":-0.34028774493280645,"vimdir":-0.10430735959643286,"colors":0.9364297459949575,"spec":0.450654339403282,"test":-0.10949130171094815,"t":0.618824575713638,"snippets":-0.12484375081452115,"vimrc":-4.003582329015478,"elisp":-2.7991368468363027,"vim":0.07838697676445784,"install":-0.5368718367842984,"autoload":0.582123590811771,"doc":-0.2723108388416467,"ftplugin":0.6417344201285737,"indent":0.31708995917215044,"plugin":-0.3905019639337457,"syntax":-0.5467114415080259,"after":0.26116807866916425}},"5":{"bias":1.1585719392540212,"weights":{"vperc":-3.67923162884372,"lib":0.5262961101126278,"vimdir":0.13888093208258223,"colors":-1.0505887961425282,"spec":-0.536690086429135,"test":0.12909021555030115,"t":-0.49665639244859,"snippets":-0.037628682037524994,"vimrc":3.8498722097790337,"elisp":2.754443542539093,"vim":0.12319963876215236,"install":0.6239747463131982,"autoload":-0.5193349005295745,"doc":0.21271883677367337,"ftplugin":-0.4032831005739198,"indent":-0.3700183774851678,"plugin":0.2871061539247225,"syntax":0.6415794195223046,"after":-0.015339886578977092}},"6":{"bias":-0.9688451514171407,"weights":{"vperc":3.3498039154169708,"lib":-0.37216535417101526,"vimdir":-0.16783815187413798,"colors":0.8453128414308246,"spec":0.5210707207458015,"test":-0.12460238172458284,"t":0.5261708064597237,"snippets":0.04868794701889444,"vimrc":-3.5112251437571644,"elisp":-2.3663804653703817,"vim":-0.007354554876733957,"install":-0.5367884778357204,"autoload":0.620237624736278,"doc":-0.24636027901990623,"ftplugin":0.42849468852492717,"indent":0.21753548601931025,"plugin":-0.4243848327370552,"syntax":-0.39910165612370946,"after":0.2268458124338767}},"7":{"bias":-0.10034440329476546,"weights":{"vperc":-0.7932079708419667,"lib":0.1754854298988495,"vimdir":-0.07544690941395961,"colors":-0.2106071790983742,"spec":-0.17144597547506674,"test":-0.1916311251427237,"t":-0.20059772684752036,"snippets":0.19961306950032587,"vimrc":0.6335529073789663,"elisp":0.401842234987332,"vim":-0.1473997571075642,"install":0.17624743446268115,"autoload":0.03173589672506099,"doc":-0.09049634318102322,"ftplugin":-0.1890039274404062,"indent":-0.2824225390686985,"plugin":-0.13442795096224772,"syntax":-0.14251099141319332,"after":0.13144574122974753}},"8":{"bias":-1.3679775365825324,"weights":{"vperc":-2.6308192772800325,"lib":0.7022660935965325,"vimdir":0.08785042930614731,"colors":-0.18649014743763226,"spec":-0.49100078485716203,"test":-1.8401841719381467,"t":-0.6273493597646548,"snippets":0.09636422226831572,"vimrc":2.919355798508381,"elisp":1.5746241397007106,"vim":-0.18808914337121396,"install":0.6706238950202552,"autoload":0.08517383533301247,"doc":-3.144900367382358,"ftplugin":-0.18719446911505816,"indent":-0.2202603464557873,"plugin":3.2576260565700554,"syntax":0.4206270165451389,"after":0.060367065937919774}}},{"plugin":{"bias":0.25884287066763245,"weights":{"0":-4.525447743452283,"1":-0.4448391716122894,"2":5.729900284448609,"3":-7.4329748432050575,"4":4.3714659231878175,"5":-3.994834834536153,"6":3.79844251519014,"7":-0.7019153091135584,"8":-4.178654660201004}},"other":{"bias":-0.16166508555734982,"weights":{"0":4.496230816920234,"1":0.41615050412283894,"2":-5.847988078064899,"3":7.440736957631153,"4":-4.380672078089791,"5":3.983481679124647,"6":-3.725504058577616,"7":0.5235719864738743,"8":4.212747128737876}}}],"outputLookup":true,"inputLookup":true}