{"layers":[{"vperc":{},"lib":{},"bin":{},"vimdir":{},"colors":{},"bundle":{},"spec":{},"test":{},"config":{},"t":{},"snippets":{},"vimrc":{},"elisp":{},"vim":{},"install":{},"makefile":{},"autoload":{},"doc":{},"ftplugin":{},"indent":{},"plugin":{},"syntax":{},"after":{}},{"0":{"bias":4.97912071828728,"weights":{"vperc":-8.868054786760887,"lib":0.8828812168272689,"bin":-0.16047137313150822,"vimdir":0.05851007631451322,"colors":0.163105578531708,"bundle":2.054923239090134,"spec":-1.0968904667870794,"test":0.12849663002716508,"config":0.481195609124927,"t":-0.5951425625452224,"snippets":0.5485979661733518,"vimrc":5.403206573445901,"elisp":4.619616353409172,"vim":1.1936323428429028,"install":0.3004797178129711,"makefile":0.7235696856798793,"autoload":-0.7379503380121947,"doc":-0.6272131601407804,"ftplugin":-0.6380372568004213,"indent":-0.07859853186852564,"plugin":-1.2512204941744773,"syntax":-0.44820949509959185,"after":0.25012729514823256}},"1":{"bias":-2.0709006291488725,"weights":{"vperc":1.330497934812387,"lib":-0.16528640142623885,"bin":-0.08439106701148251,"vimdir":0.030635735316842244,"colors":-1.1029771274462292,"bundle":-0.13121774715410509,"spec":-0.004247532033466781,"test":0.6621489411566406,"config":-0.0024304559600315996,"t":0.14045462115184143,"snippets":0.204071023430955,"vimrc":-0.9164706271280378,"elisp":-0.768132984669887,"vim":-0.14735637203245913,"install":-0.040366396484705164,"makefile":-0.045899152099428235,"autoload":0.7902929884762248,"doc":0.1744401705639826,"ftplugin":0.3210593694491485,"indent":0.0269739290689818,"plugin":0.1451663000272477,"syntax":-0.257783483050463,"after":0.18596183437996278}},"2":{"bias":1.171124540000718,"weights":{"vperc":6.845815477823934,"lib":-0.3939123671908481,"bin":0.3803642269970929,"vimdir":-0.03345586128445133,"colors":3.6420803552599694,"bundle":-2.1042706085902583,"spec":1.3242853960535055,"test":-1.0826089795081166,"config":-0.6970467687479042,"t":1.0223049563932851,"snippets":-0.5577697986234426,"vimrc":-6.544036810572104,"elisp":-4.454894211872358,"vim":-0.9572147439529259,"install":-5.425237347940319,"makefile":-0.6542580177635908,"autoload":-0.29796746544469044,"doc":-3.7515293835107033,"ftplugin":0.748749767828179,"indent":0.09801639156757111,"plugin":-5.352577550008773,"syntax":-1.0450746816113718,"after":-0.08743162740206903}},"3":{"bias":-2.3090606995208147,"weights":{"vperc":-6.342232442777865,"lib":0.5786409525170988,"bin":0.04671985711543601,"vimdir":-0.11138340232176827,"colors":-2.8595033863639814,"bundle":2.5312521263290266,"spec":-1.5358764907385754,"test":-2.2834168557939307,"config":0.5287899037011239,"t":-1.9314048036847895,"snippets":1.1118527119429316,"vimrc":6.878098091230117,"elisp":3.019935354929261,"vim":1.4030669090046914,"install":2.6645968727946197,"makefile":1.1345441690643026,"autoload":2.919370161312204,"doc":-5.577539032962356,"ftplugin":-0.5519815961567777,"indent":0.4086616514878803,"plugin":5.825328832320369,"syntax":1.1805270997787518,"after":1.0355957449011155}},"4":{"bias":-1.3586473557381193,"weights":{"vperc":-1.6574705935605083,"lib":0.41469795546792004,"bin":0.31174537802595226,"vimdir":0.21314558080246804,"colors":-2.640631443582619,"bundle":0.5455309697673217,"spec":-0.3138612776235701,"test":-0.5905052702513193,"config":0.2261190388925022,"t":-0.1965268971943294,"snippets":0.35970735602945164,"vimrc":1.2773686257918524,"elisp":1.2723893597650056,"vim":0.3417469897780148,"install":0.2941571428813099,"makefile":0.41278871458740346,"autoload":-0.015357413670689253,"doc":0.792688124828383,"ftplugin":-0.15709690451523267,"indent":0.050587989186126954,"plugin":-0.35435950317456677,"syntax":0.18696880924347642,"after":0.30329754432057354}},"5":{"bias":-1.675934900630871,"weights":{"vperc":-0.6473444294321135,"lib":-0.04120468506422377,"bin":-0.19302716637047126,"vimdir":-0.01441074658331074,"colors":-1.2202370846638269,"bundle":0.06822317527604924,"spec":-0.098662455527336,"test":-0.6527432581186033,"config":-0.06903993314818047,"t":0.18522810396573747,"snippets":0.11086656725784334,"vimrc":0.26841621638155316,"elisp":0.29011113451385023,"vim":0.19406176421903965,"install":0.24053547983514692,"makefile":-0.010714762609624706,"autoload":0.18580683717475463,"doc":0.12127027026004823,"ftplugin":-0.005293174586296686,"indent":0.11826880955291406,"plugin":-0.28531715181582207,"syntax":-0.08658669208295691,"after":0.07966908770830287}},"6":{"bias":-4.434874819873755,"weights":{"vperc":6.425590500699783,"lib":-0.6590338172740103,"bin":0.1420765461089954,"vimdir":-0.01222195595826068,"colors":-1.0404290895032084,"bundle":-1.6282088190777753,"spec":0.7759609685542329,"test":-0.09220250024640418,"config":-0.2312639201987787,"t":0.5780944322341522,"snippets":-0.5180397272345644,"vimrc":-3.823864730417144,"elisp":-3.3595652160745035,"vim":-0.9823805885356724,"install":-0.06399168719796804,"makefile":-0.47226784789475623,"autoload":1.0498159803445772,"doc":0.9345735431000299,"ftplugin":0.6377518934968002,"indent":0.12666508981254848,"plugin":0.9416617504141152,"syntax":-0.7089291519803222,"after":-0.045624251393439896}},"7":{"bias":-1.7140595313651066,"weights":{"vperc":-3.8367596494409932,"lib":0.8127217638280669,"bin":0.8859371523798968,"vimdir":0.0014765576133551532,"colors":-4.4268884137056,"bundle":0.9199640404579944,"spec":-0.4377276308946779,"test":1.407273176711194,"config":0.19801581377267283,"t":0.25733140734338356,"snippets":0.3792912846191302,"vimrc":1.7548455054032324,"elisp":2.483449697335754,"vim":0.37885116133112273,"install":0.2878501367926246,"makefile":0.3972740989219605,"autoload":-0.14441568171565042,"doc":2.7907395210454564,"ftplugin":-0.1647078381556809,"indent":0.029700777425546318,"plugin":-2.477102818229185,"syntax":-1.1225772257831412,"after":0.17730838708909613}},"8":{"bias":-3.2874666384899665,"weights":{"vperc":3.6215577296846813,"lib":-0.5681294851899601,"bin":-0.3249908699748882,"vimdir":-0.048686492273479286,"colors":-0.9376686035290119,"bundle":-0.8113214301882061,"spec":0.41385130487336413,"test":3.0453152188122026,"config":-0.21692735686695638,"t":0.3831921125984719,"snippets":0.16301174385541395,"vimrc":-2.2399263712378095,"elisp":-1.7640187713972268,"vim":-0.25189361271205857,"install":-0.26410474234457343,"makefile":-0.6559668480296951,"autoload":0.9055593788500856,"doc":0.28361865248180085,"ftplugin":0.5867926381975894,"indent":0.4274874754575106,"plugin":0.3045055271311872,"syntax":-0.558009569019789,"after":0.16109543902093026}},"9":{"bias":-1.5382999873552552,"weights":{"vperc":-3.8049035403456486,"lib":1.1300076511595407,"bin":0.9337956119474704,"vimdir":0.12393175316433734,"colors":-4.863498225432109,"bundle":0.6592689249047777,"spec":-0.2618101110407384,"test":2.1699010051257637,"config":0.1595517595618042,"t":0.36978802898184365,"snippets":0.13738842607057525,"vimrc":1.8735424354271615,"elisp":2.516863329406615,"vim":0.2335864565574686,"install":0.13785204193552925,"makefile":1.1354445493893444,"autoload":2.539992435896755,"doc":3.101531579688874,"ftplugin":-0.1604664304639457,"indent":-0.02180278602329988,"plugin":-4.138596195757865,"syntax":-1.6464555512178645,"after":-0.12133759360404575}},"10":{"bias":-1.7531084621938327,"weights":{"vperc":3.219372883895535,"lib":-0.35322847964599846,"bin":-0.21392266686771513,"vimdir":-0.09568435581622763,"colors":-2.1710616182128994,"bundle":-1.038071486108438,"spec":0.4856395484646803,"test":5.763413003773326,"config":-0.10815989452399824,"t":1.0649214897039834,"snippets":-0.13622536933105586,"vimrc":-2.69601952150715,"elisp":-1.0898673490137516,"vim":-0.5242863281384433,"install":-0.34210985579700204,"makefile":-0.13069866003354183,"autoload":-0.20421357124276368,"doc":1.4852884874042351,"ftplugin":0.5215331986130327,"indent":0.15799315982201087,"plugin":-0.5824492086611897,"syntax":-0.9060137886217969,"after":-0.02068946861480563}}},{"plugin":{"bias":0.35211180278474824,"weights":{"0":-7.933366574645455,"1":0.5580759377022367,"2":8.157969974813074,"3":-8.18646382732684,"4":-1.1074800645631953,"5":-0.010494036610474655,"6":5.888592758151588,"7":-4.604672346974117,"8":2.6729113047502837,"9":-6.585431902701169,"10":3.8061348364171}},"other":{"bias":-0.3518583610297898,"weights":{"0":7.8814770271589385,"1":-0.6014870057490718,"2":-8.11287574031786,"3":8.22058102554186,"4":1.093679332379155,"5":0.13214436864974277,"6":-5.969208278851238,"7":4.825870085419071,"8":-2.5636228660866136,"9":6.4255467500307955,"10":-3.82073128092027}}}],"outputLookup":true,"inputLookup":true}