{"layers":[{"vperc":{},"lib":{},"src":{},"bin":{},"vimdir":{},"colors":{},"bundle":{},"spec":{},"test":{},"config":{},"snippets":{},"vimrc":{},"elisp":{},"vim":{},"install":{},"gitmodules":{},"makefile":{},"autoload":{},"doc":{},"ftplugin":{},"indent":{},"plugin":{},"syntax":{},"after":{}},{"0":{"bias":-2.6012765543991416,"weights":{"vperc":1.6672129231985626,"lib":-0.1305388851944203,"src":-1.6317649993634509,"bin":0.17953608729646964,"vimdir":-0.049976072813554435,"colors":-1.1377554546289823,"bundle":-0.4768053741187449,"spec":0.6129050766399748,"test":-0.3497241597271472,"config":-0.45807904466848987,"snippets":-0.3226734179081005,"vimrc":-1.6012096630607906,"elisp":-0.9309716911194056,"vim":-0.1384072260710337,"install":-0.2532907757539273,"gitmodules":-0.050432249644592864,"makefile":-0.5340861071379233,"autoload":0.49020866928135176,"doc":-0.48109889798811256,"ftplugin":0.36553710841212567,"indent":-0.278649710374987,"plugin":-0.23717803897481204,"syntax":0.11291224920744718,"after":0.08862979013065089}},"1":{"bias":-1.4835090576980836,"weights":{"vperc":-17.551967517918122,"lib":2.386894011558068,"src":1.628352887610031,"bin":1.5435615616255292,"vimdir":0.22006396284506857,"colors":-4.56651242842931,"bundle":0.5110559381518344,"spec":-0.6211259323209233,"test":2.0414876213769024,"config":1.7342676833207062,"snippets":0.49933854436226094,"vimrc":3.0714436806318224,"elisp":8.23506218118775,"vim":2.110985100672958,"install":0.34806816738727175,"gitmodules":4.200798234499266,"makefile":6.26782736194803,"autoload":1.2090426396439666,"doc":5.232080630477615,"ftplugin":-0.6420605569205504,"indent":-0.3466973982991035,"plugin":-3.205603952958545,"syntax":-2.8216246027237153,"after":-0.5491171387037103}},"2":{"bias":-2.6129408959593663,"weights":{"vperc":1.9146528378166823,"lib":-0.11570574364194497,"src":-1.7694625081416548,"bin":0.05700806785170908,"vimdir":-0.1545356322599209,"colors":-1.1195797741240248,"bundle":-0.34914275041430737,"spec":0.3131601036181288,"test":-0.22371845480428498,"config":-0.2387388076280256,"snippets":-0.40481430349204944,"vimrc":-1.5899400636240235,"elisp":-1.0255910523596992,"vim":-0.12730583042673407,"install":-0.23681206305020006,"gitmodules":-0.16128214320237635,"makefile":-0.7287151658606834,"autoload":0.4418536116948765,"doc":-0.5026611149916358,"ftplugin":0.3238966072379519,"indent":-0.3296707114322606,"plugin":-0.37104968952812306,"syntax":0.21594673521724236,"after":0.042628620722073816}},"3":{"bias":1.3215178539329449,"weights":{"vperc":2.9785615234708827,"lib":-0.14524071434884192,"src":-1.7162486990191137,"bin":0.3388631371793421,"vimdir":0.00801953711826121,"colors":1.724075303597523,"bundle":-0.9079953748683559,"spec":1.4795110641957667,"test":2.456103585533274,"config":-2.7779710910580135,"snippets":-0.729876238920316,"vimrc":-4.06944623101412,"elisp":-1.2289266809206536,"vim":-1.2234826657507603,"install":-0.5449673699034493,"gitmodules":-1.5964975880120302,"makefile":0.9137693315183818,"autoload":-2.786305010404805,"doc":3.7682004240791067,"ftplugin":0.20680762751020615,"indent":-0.3297361728173172,"plugin":-5.280430617808211,"syntax":-0.39240920359068326,"after":-0.16009872863982152}},"4":{"bias":-2.3845909422692366,"weights":{"vperc":0.9802714559045315,"lib":-0.27390894752697226,"src":-0.9554148418791001,"bin":0.053998848029850284,"vimdir":0.19032924183154865,"colors":-1.104030112551464,"bundle":-0.22217414137338987,"spec":0.13675102630523736,"test":-0.7057404741392124,"config":-0.15315501528187825,"snippets":0.0013739644389957333,"vimrc":-0.9614407134437207,"elisp":-0.6193724498496505,"vim":-0.05973266946597979,"install":-0.12970866596194197,"gitmodules":-0.4635823671050479,"makefile":-0.8273387220161807,"autoload":-0.2960731942082347,"doc":-0.7726539076753705,"ftplugin":0.12710263717556972,"indent":-0.23089366117345927,"plugin":-0.9815512844810889,"syntax":0.34106172392482936,"after":0.14334468188126584}},"5":{"bias":-1.989652412046144,"weights":{"vperc":-0.8846015097647827,"lib":-0.06559416950903735,"src":-0.008726157411935583,"bin":0.17196570267062208,"vimdir":-0.17636747198091843,"colors":-1.5206174842613907,"bundle":-0.03115656251526771,"spec":0.014031245977045187,"test":-0.16390699515486856,"config":0.3688517860047201,"snippets":0.2755140523290273,"vimrc":0.22988346355284775,"elisp":0.07930332353553457,"vim":0.013814029468244855,"install":-0.005251458138990288,"gitmodules":-0.30665122915639237,"makefile":0.2637554623627474,"autoload":-0.03929970618649727,"doc":-0.053789344113407384,"ftplugin":0.03726206409391016,"indent":-0.10728558499634332,"plugin":-0.19489902863727004,"syntax":-0.33276072832232767,"after":0.15778498800924984}},"6":{"bias":-1.9621627978484868,"weights":{"vperc":-4.04477090705843,"lib":0.5672307366347026,"src":0.7360691503075336,"bin":0.38861989206824904,"vimdir":-0.1411336424434611,"colors":-2.407979762615423,"bundle":0.4528653868813436,"spec":-0.6240772614932591,"test":0.3069428154245469,"config":1.043314573600142,"snippets":0.6676123313714409,"vimrc":1.6129447808742332,"elisp":1.8168028743513638,"vim":0.8376858738434385,"install":0.06735086925605055,"gitmodules":-0.27634568734109244,"makefile":1.7270583868901632,"autoload":-0.7461211120558321,"doc":0.6904586004354272,"ftplugin":0.09851485312663882,"indent":0.11532867725190957,"plugin":0.6471959096742046,"syntax":-0.7872349842540296,"after":0.15070892680788703}},"7":{"bias":-1.524000749276434,"weights":{"vperc":-5.638481620572885,"lib":0.8842474067733969,"src":2.304419498283259,"bin":0.2199969179111204,"vimdir":-0.03744916388136886,"colors":-3.0430967046165107,"bundle":1.269100317597078,"spec":-1.4580376978326666,"test":0.35676204825041385,"config":2.291868572276085,"snippets":1.0843144341053423,"vimrc":5.606546311371543,"elisp":3.757085292624968,"vim":1.3257971782985094,"install":0.4945707699730369,"gitmodules":-1.4075146759956845,"makefile":2.9239433467657476,"autoload":-0.5171467147480925,"doc":-0.5871512712766559,"ftplugin":0.10234689749815733,"indent":0.4660645374201474,"plugin":3.4436057489951235,"syntax":1.412905877761878,"after":0.6643435168642042}},"8":{"bias":-6.2222160191204425,"weights":{"vperc":7.87364336325273,"lib":-1.5934637594442118,"src":-5.2641162129931605,"bin":-0.4369341251386426,"vimdir":-0.07033459827256026,"colors":2.052733092532408,"bundle":-0.7475287871324345,"spec":2.30081985820072,"test":4.351885216400471,"config":-1.2243266112336118,"snippets":-0.2828574641740311,"vimrc":-7.021599045841077,"elisp":-4.346236400397125,"vim":-0.7766497974814185,"install":-0.3272969829616523,"gitmodules":0.4163255945013094,"makefile":-3.82801824480189,"autoload":2.0187733978715543,"doc":1.9568583349437048,"ftplugin":1.206456570332346,"indent":0.3245066628063198,"plugin":0.08171280823912383,"syntax":0.7425100069422,"after":0.25100386023379223}},"9":{"bias":-3.596716140259783,"weights":{"vperc":5.550314042452995,"lib":-1.0094530185824175,"src":-4.791069305518152,"bin":-0.31852664444001066,"vimdir":-0.1442650351110606,"colors":-0.46617182797853896,"bundle":-1.5670085429122373,"spec":1.606720681779207,"test":1.4592808670257917,"config":-1.115907768719894,"snippets":-1.290513513764106,"vimrc":-5.95935590319765,"elisp":-3.6256911802973346,"vim":-1.3273891313051505,"install":-0.44581699143879705,"gitmodules":1.1676926969620693,"makefile":-1.432714373896754,"autoload":0.38145818038904833,"doc":0.20005442768275597,"ftplugin":-0.21201264062860298,"indent":-1.1275450359130845,"plugin":0.7171042884952976,"syntax":3.379119145222223,"after":-0.6274987973219609}},"10":{"bias":-2.2677967204483553,"weights":{"vperc":-8.323090686458722,"lib":1.307660395578023,"src":4.32179565012539,"bin":0.006055754937476559,"vimdir":0.1807210862061053,"colors":-2.8474594353998266,"bundle":1.958717761880797,"spec":-1.9561137539647848,"test":-0.9506693425318977,"config":5.253492812195823,"snippets":1.7786035412224166,"vimrc":8.741877900684301,"elisp":4.828434383256919,"vim":1.7188468009982183,"install":1.353536456552215,"gitmodules":0.7115135611249663,"makefile":1.2519442385923683,"autoload":0.271351322324964,"doc":-2.0107175895600276,"ftplugin":-0.664888934198806,"indent":1.321164510596333,"plugin":6.0595740454600575,"syntax":2.0037792404433397,"after":0.5563035134641416}},"11":{"bias":-1.6118955597959181,"weights":{"vperc":-4.15038628721362,"lib":0.3951469468742544,"src":1.5061372149312446,"bin":-0.05147426708670653,"vimdir":0.1789140835719672,"colors":-3.143828370831573,"bundle":1.1940071657453704,"spec":-0.8584087456373986,"test":-0.8806199731832702,"config":1.3694625885818823,"snippets":1.0893269903047784,"vimrc":3.362362856297502,"elisp":1.3235095608220817,"vim":1.1482681197399456,"install":0.32567795919694004,"gitmodules":0.6955446555751821,"makefile":0.06450539039227374,"autoload":0.7286059838418643,"doc":-1.326408254717605,"ftplugin":0.17132501264876093,"indent":0.9088371424188609,"plugin":3.3084237869973148,"syntax":1.0293713509289257,"after":0.549763814357261}}},{"plugin":{"bias":-2.0911134819393924,"weights":{"0":0.3661243728355375,"1":-8.568177403786637,"2":0.5454746515686921,"3":2.7108471326654504,"4":0.22155103626382933,"5":-0.4965246664022063,"6":-1.2163561322864451,"7":-1.7121437452263515,"8":8.141701589388488,"9":5.808839861367901,"10":-8.796299129450691,"11":-3.178410455109635}},"other":{"bias":2.1115162190441383,"weights":{"0":-0.5096208725382709,"1":8.551953649534143,"2":-0.43909923247339644,"3":-2.7320673741429835,"4":-0.20018746932620088,"5":0.44204278060991703,"6":1.3520743452473534,"7":1.6528518201193811,"8":-8.134810558578366,"9":-5.794102176066858,"10":8.793340948232885,"11":3.181804327805322}}}],"outputLookup":true,"inputLookup":true}