{"layers":[{"vperc":{},"lib":{},"src":{},"bin":{},"vimdir":{},"colors":{},"eclim":{},"bundle":{},"spec":{},"test":{},"config":{},"snippets":{},"vimrc":{},"elisp":{},"vim":{},"bashrc":{},"install":{},"gitmodules":{},"makefile":{},"autoload":{},"doc":{},"ftplugin":{},"indent":{},"plugin":{},"syntax":{},"after":{}},{"0":{"bias":-1.731320891420521,"weights":{"vperc":-1.7141898039339412,"lib":0.3157902294707401,"src":0.0734459351486934,"bin":-0.006842645239163171,"vimdir":-0.05419891048705468,"colors":-1.56583710841826,"eclim":0.7697616808633727,"bundle":0.4955239181332423,"spec":-0.27209943013262466,"test":-0.7175517938635602,"config":0.5325180751306076,"snippets":0.10039380021554908,"vimrc":1.9613703339203243,"elisp":0.925576012757476,"vim":0.2013439387765831,"bashrc":-0.15070088609420765,"install":0.15828794028456752,"gitmodules":0.6316064926917592,"makefile":0.7491358392792091,"autoload":0.6273652535885751,"doc":-0.9083721007353516,"ftplugin":-0.037361682817365106,"indent":-0.07813741866888718,"plugin":-0.4846221676497009,"syntax":0.0275046353330375,"after":1.1786822776392205}},"1":{"bias":0.4653803131358577,"weights":{"vperc":-2.5386392823816792,"lib":0.40903726959286835,"src":-0.8669136081223039,"bin":0.14482815858477854,"vimdir":-0.15869062555080538,"colors":2.063275119714919,"eclim":0.7355622850761758,"bundle":0.8160542573868848,"spec":-0.15370371711194983,"test":-1.731870270080411,"config":0.4347134716073787,"snippets":0.10029201728347925,"vimrc":2.8523948877286616,"elisp":1.562552436928592,"vim":0.5097281609440975,"bashrc":-0.1747474591206052,"install":0.215973393860792,"gitmodules":0.7339892842423474,"makefile":1.4270457010056463,"autoload":1.1327900342215627,"doc":-1.2956549932890518,"ftplugin":0.33323018414268174,"indent":0.215218273522182,"plugin":-1.6127562408794713,"syntax":-1.8096982575749267,"after":1.1567725441344965}},"2":{"bias":-2.046917878310773,"weights":{"vperc":-0.3316751487202697,"lib":0.15524100447854505,"src":-0.38785858495543196,"bin":0.0014870672621266846,"vimdir":-0.03478412006678731,"colors":-1.0911837059181135,"eclim":0.30654671163344444,"bundle":0.004536862317368189,"spec":0.027759494525505832,"test":-0.40664780545948614,"config":0.006602825664745159,"snippets":-0.13165326660089943,"vimrc":0.11604323013536072,"elisp":0.03525764127642545,"vim":-0.10629820956192813,"bashrc":0.18244234260288808,"install":0.018344081588626087,"gitmodules":0.37892197232201424,"makefile":-0.05186157789773385,"autoload":-0.09538294166619841,"doc":-0.4931466554577478,"ftplugin":-0.11350220788856728,"indent":-0.051317829582715954,"plugin":-0.5559360877617014,"syntax":-0.2958137321866604,"after":0.1894773238216962}},"3":{"bias":-2.723043483643637,"weights":{"vperc":3.2922291592544446,"lib":-0.28755576043415915,"src":-1.58124855691109,"bin":-0.02549963407025055,"vimdir":-0.0836912047232802,"colors":-0.814692265498161,"eclim":-0.9171063112435837,"bundle":-0.2915053182040293,"spec":0.38947322331695927,"test":-0.1436814643632778,"config":-0.509431607755959,"snippets":0.4217304894059081,"vimrc":-1.974886634202157,"elisp":-1.4077007742843757,"vim":-0.06100495605551895,"bashrc":-0.1333404400948868,"install":-0.18105493953011442,"gitmodules":1.0568386585861482,"makefile":-0.8396625569589655,"autoload":1.7401451596852762,"doc":-0.4697562366563916,"ftplugin":0.25523877952291396,"indent":0.0800481703183088,"plugin":-0.028068174746593424,"syntax":1.0141882901916026,"after":0.6065720346101354}},"4":{"bias":-2.1898300220555074,"weights":{"vperc":0.5229939931870579,"lib":-0.19242950485529758,"src":-0.8313431300860011,"bin":0.08121744893287758,"vimdir":-0.09522708698864005,"colors":-1.1471298971927029,"eclim":-0.3631840131303075,"bundle":-0.33667018226912204,"spec":0.09421556547725127,"test":-0.22216395274120365,"config":-0.2497775528699754,"snippets":-0.08865845497546458,"vimrc":-0.6522798640328351,"elisp":-0.669048130101975,"vim":-0.07600034817797391,"bashrc":0.04041844647517239,"install":-0.12006900267394906,"gitmodules":-0.4405281524253535,"makefile":-0.2768358543499832,"autoload":-0.35387676151422526,"doc":-0.3065467741614024,"ftplugin":0.10004357338143967,"indent":0.039119947215155784,"plugin":-0.40994310900184244,"syntax":0.29740964210499554,"after":-0.387554942874105}},"5":{"bias":1.886757693567643,"weights":{"vperc":-8.066358569227075,"lib":0.18950881241001416,"src":1.2528489298473298,"bin":0.320774786192523,"vimdir":0.1471399288173095,"colors":2.619255572152025,"eclim":2.225376995433077,"bundle":1.4527801292032128,"spec":-1.159522942163824,"test":-5.430573813608735,"config":1.1767744227664974,"snippets":-0.5303418286302136,"vimrc":6.511223178924117,"elisp":0.919372349505136,"vim":1.007204375401093,"bashrc":-0.060725027553637095,"install":-0.8145975863107785,"gitmodules":1.2570564902569716,"makefile":-0.09297281137305542,"autoload":0.3706190859737628,"doc":-3.2273148199076083,"ftplugin":0.7323957329077556,"indent":0.06546836763719295,"plugin":2.1188024505353873,"syntax":0.3461745202841769,"after":2.3710677027206786}},"6":{"bias":0.7627755983085431,"weights":{"vperc":-8.456417179877397,"lib":1.295828394730661,"src":-1.3504774955768215,"bin":0.9444955041760946,"vimdir":0.05620328783586767,"colors":-6.970558005061733,"eclim":2.2515020516133886,"bundle":0.7038267266302142,"spec":-0.399321792090334,"test":3.622390369189359,"config":1.1318582689101375,"snippets":-0.37403596538187106,"vimrc":4.770211982342482,"elisp":4.058395366574867,"vim":-0.1230503539790225,"bashrc":0.02739166632856677,"install":4.021521786456734,"gitmodules":-1.8879455162251775,"makefile":4.714192394910967,"autoload":0.7845956434334769,"doc":0.5595607614991086,"ftplugin":0.9347329202084506,"indent":-0.4791481930549721,"plugin":-3.0204767031271054,"syntax":-3.567516753710097,"after":-1.9481137118223555}},"7":{"bias":-0.9821430330047809,"weights":{"vperc":5.305620223228595,"lib":-1.0855223601074573,"src":-5.100366896809162,"bin":-0.09884277065512216,"vimdir":-0.2241002195137323,"colors":5.347246078527226,"eclim":-1.9356324447674746,"bundle":-1.8579120238928495,"spec":0.6135071206050478,"test":0.6744397288362419,"config":-2.320862329228973,"snippets":0.19992008942325792,"vimrc":-6.594672125528265,"elisp":-3.7818509233019775,"vim":-0.7476756667729962,"bashrc":0.14271533570704653,"install":-1.91050680990014,"gitmodules":3.1788630337208996,"makefile":-1.628184023170185,"autoload":4.491942000839881,"doc":-1.2748630652828958,"ftplugin":0.13129760466905332,"indent":-0.3114544191453922,"plugin":-4.341485874791946,"syntax":1.5159721909217891,"after":0.924914411554668}},"8":{"bias":-3.9270155109021014,"weights":{"vperc":3.0871039137959966,"lib":-0.25563200320556895,"src":-2.7655425666768676,"bin":-0.1349057356600821,"vimdir":-0.12768867260047415,"colors":-1.2174012934038154,"eclim":-1.8520612250847799,"bundle":-0.9900466395784293,"spec":0.581824971060434,"test":0.636220375550654,"config":-0.4286860885202331,"snippets":0.07843227156150198,"vimrc":-2.9973962770312226,"elisp":-1.790370986046628,"vim":-0.3339058595978892,"bashrc":0.13995189449403686,"install":-0.17380693142196943,"gitmodules":0.18236170108045335,"makefile":-0.46764893348019004,"autoload":1.860160403873456,"doc":0.33202986569082954,"ftplugin":0.08214086896317205,"indent":-0.04496016404487061,"plugin":2.5089022581036167,"syntax":-0.6312218005708192,"after":-0.7429541209804701}},"9":{"bias":-0.6668617914563856,"weights":{"vperc":3.392064522239039,"lib":-0.9891485253957817,"src":-3.1202766121886643,"bin":-0.4495076183043455,"vimdir":-0.19315593729960562,"colors":3.6329090827527732,"eclim":-1.9535532286587731,"bundle":-0.6424766571223208,"spec":0.3651877100057148,"test":-0.2263424900003096,"config":-1.4535714443248686,"snippets":0.34348043645298176,"vimrc":-2.82621958837691,"elisp":-2.4643667278926533,"vim":-0.0044116885434722095,"bashrc":-0.013310109333147633,"install":-1.4081327336750387,"gitmodules":1.8461119737599727,"makefile":-1.3016099253817672,"autoload":1.8943385125819727,"doc":-1.2529318663841236,"ftplugin":0.27264439086250175,"indent":0.2125116733935234,"plugin":0.3923501936354383,"syntax":1.4279777621636884,"after":1.3484833499983293}},"10":{"bias":-2.002420960754234,"weights":{"vperc":-0.7043022997730054,"lib":0.0919095909827494,"src":-0.34994410586080593,"bin":0.043388588222036235,"vimdir":-0.17576768079095492,"colors":-1.141961011352911,"eclim":0.2672305493503374,"bundle":0.02826497799269001,"spec":0.08371494397164496,"test":-0.2964872811741087,"config":0.05242243053438919,"snippets":-0.16167747751661618,"vimrc":0.04063912119465199,"elisp":0.08914777931668585,"vim":-0.02330084276343241,"bashrc":0.18827252589078838,"install":0.1539228858604263,"gitmodules":0.0522905767809543,"makefile":0.11796261237226326,"autoload":-0.022784841911375062,"doc":-0.38985638544081513,"ftplugin":-0.13739235814959727,"indent":-0.06794766055453777,"plugin":-0.691244676751542,"syntax":-0.3872075551198616,"after":0.6092010437828476}},"11":{"bias":-4.379485530947565,"weights":{"vperc":3.937238886723089,"lib":-0.5086918447963912,"src":-3.1306807717784357,"bin":-0.4200318477480083,"vimdir":-0.05167541409757596,"colors":-0.6174810588901448,"eclim":-2.5217677666575162,"bundle":-1.1574289645682776,"spec":0.7176379133522487,"test":0.7964706119501538,"config":-0.5808894815757716,"snippets":0.06826063073477777,"vimrc":-3.5841834724377457,"elisp":-2.2455048874648025,"vim":-0.3867169873582345,"bashrc":0.12738626436406453,"install":-0.32295703881950916,"gitmodules":-0.1918797803997107,"makefile":-0.76953725062593,"autoload":1.9113178638070114,"doc":0.5419149568527329,"ftplugin":-0.010007285903185024,"indent":-0.39363785674480056,"plugin":2.7946359561220286,"syntax":-0.2987459100971757,"after":-1.0098776808275607}},"12":{"bias":0.7659257817796506,"weights":{"vperc":-16.660127877062852,"lib":0.8947691111466503,"src":4.9695345368633745,"bin":0.5578259028974893,"vimdir":0.1338310516394645,"colors":-5.596455888180735,"eclim":5.245059218847449,"bundle":2.045868545749945,"spec":-2.06829251482757,"test":-3.9925878205356304,"config":4.810881966721957,"snippets":-0.47665306305286625,"vimrc":10.161788969284725,"elisp":2.9388918236497026,"vim":0.5538156503581717,"bashrc":0.19480772907022212,"install":6.942515463898688,"gitmodules":5.469901463283405,"makefile":-1.1721336743710202,"autoload":5.184185029935153,"doc":-1.1466417920567455,"ftplugin":0.7149280656491555,"indent":0.1609374756885608,"plugin":7.269099833889745,"syntax":2.298830650163919,"after":5.3533700413304155}}},{"plugin":{"bias":0.29932009716658403,"weights":{"0":-0.40422065370593147,"1":-1.7007368037205157,"2":-0.05286341012911339,"3":0.6634981053502016,"4":0.13571103359807843,"5":-6.670794213943815,"6":-8.418193279593329,"7":6.561374908980752,"8":4.226685764581518,"9":2.1667782280782943,"10":-0.06784051163868071,"11":5.150443027879275,"12":-11.410144071404751}},"other":{"bias":-0.3151800632472172,"weights":{"0":0.7290663533742908,"1":1.6727013704066154,"2":0.08985011258135678,"3":-0.6790000639886727,"4":-0.14622771500077889,"5":6.675674107401614,"6":8.42086918833291,"7":-6.646138782517805,"8":-4.046326433929353,"9":-2.0564704652885597,"10":0.16202177687004066,"11":-5.323931718290804,"12":11.368626711940863}}}],"outputLookup":true,"inputLookup":true}