{"layers":[{"vperc":{},"lib":{},"vimdir":{},"colors":{},"spec":{},"test":{},"t":{},"snippets":{},"vimrc":{},"elisp":{},"vim":{},"autoload":{},"doc":{},"ftplugin":{},"indent":{},"plugin":{},"syntax":{},"after":{}},{"0":{"bias":-0.5012527101374676,"weights":{"vperc":-6.435261775663432,"lib":0.14896741943928646,"vimdir":-0.11755550265148398,"colors":-0.7257661191001283,"spec":0.24927963649993487,"test":-1.5771144115243527,"t":-0.9567169770106456,"snippets":-0.30651120682409305,"vimrc":6.567306895539594,"elisp":3.9387480586332835,"vim":-0.09703261000607517,"autoload":-0.9325878375309653,"doc":-2.9816196934387724,"ftplugin":-1.5032712443280152,"indent":-1.551703295172392,"plugin":3.97063398560591,"syntax":1.8015190829827403,"after":0.3130589169374944}},"1":{"bias":-1.5165484027971596,"weights":{"vperc":6.335538875048515,"lib":-0.270263885007914,"vimdir":0.1785743671335001,"colors":5.221528013962612,"spec":-0.4832224167210079,"test":-1.581476486758134,"t":0.5128168491164697,"snippets":0.26353316349889405,"vimrc":-3.579388353670186,"elisp":-4.1574271590953575,"vim":0.0638043486806006,"autoload":2.7967245209885836,"doc":-1.467183674027631,"ftplugin":2.6925255633856144,"indent":1.2768180716352833,"plugin":3.0694524454939893,"syntax":-2.869135421859415,"after":1.5626854257841991}},"2":{"bias":1.7981620612276328,"weights":{"vperc":-4.254386985606187,"lib":0.2793262830584609,"vimdir":0.07494436953424649,"colors":0.40362170249249496,"spec":0.10561439781011081,"test":-0.6127806631929112,"t":-0.761342182273977,"snippets":-0.0028239817705200555,"vimrc":4.427300976481072,"elisp":3.082868978924541,"vim":-0.212243034542441,"autoload":-0.8422919648735788,"doc":-0.1961405843118429,"ftplugin":-0.9116880741175708,"indent":-0.9035225130621274,"plugin":0.09050424701919436,"syntax":1.0071728807501754,"after":0.32934524641121926}},"3":{"bias":-1.6315934335207691,"weights":{"vperc":7.70932592570725,"lib":-0.1949641773470484,"vimdir":0.08028389550597984,"colors":5.217440624410014,"spec":-0.43030127272238927,"test":-1.4444814688141172,"t":0.7186626879805565,"snippets":0.41589032056974584,"vimrc":-8.107184138230872,"elisp":-5.34172312795919,"vim":0.21237496646535875,"autoload":1.183329009184299,"doc":-1.8441468421470584,"ftplugin":1.1377604419629896,"indent":1.7029514373347998,"plugin":3.2172623021179714,"syntax":-1.5891693243854261,"after":-0.4245373489913774}},"4":{"bias":-0.045639822962490535,"weights":{"vperc":-0.3360478573157531,"lib":-0.2470481021943886,"vimdir":0.02978730917618431,"colors":0.24458861964672354,"spec":0.16135617057355323,"test":-0.38768775691285007,"t":0.18707507265180226,"snippets":0.13605552262890774,"vimrc":-0.04194891741449556,"elisp":0.1134638004491214,"vim":-0.10779754319033157,"autoload":-0.024552661674537127,"doc":-0.4258347188485968,"ftplugin":-0.06593240361140859,"indent":0.10878887493702091,"plugin":0.17192906036407546,"syntax":0.19936085225046848,"after":0.20431589505338157}},"5":{"bias":0.38896931310740074,"weights":{"vperc":-1.0588548518543943,"lib":-0.09511540226370616,"vimdir":0.06756128182217562,"colors":0.789204342891331,"spec":0.208631371175432,"test":-0.26388665069081046,"t":-0.2157705644470972,"snippets":0.026181362532451374,"vimrc":0.673510360594081,"elisp":0.6735339419980263,"vim":0.17135964074571672,"autoload":-0.2038428898753849,"doc":-0.32025461918826525,"ftplugin":0.007234708159752049,"indent":-0.22501961217012906,"plugin":0.13618246386067673,"syntax":0.16981090966158946,"after":-0.01866531561085823}},"6":{"bias":-0.6328311797187591,"weights":{"vperc":2.462468732915756,"lib":0.06905160791906322,"vimdir":-0.1562436732132914,"colors":-0.34125079592732266,"spec":-0.324989040295381,"test":0.3183058737709912,"t":0.5739896735776114,"snippets":0.0750753279139437,"vimrc":-2.5625342491303353,"elisp":-1.7842473247928412,"vim":0.07626149141321385,"autoload":0.624739243339343,"doc":0.33944577694182837,"ftplugin":0.6127931248945099,"indent":0.5445488696626201,"plugin":-0.6390471396654789,"syntax":-0.6053189174268553,"after":-0.2630114830126777}},"7":{"bias":-0.5429008819441461,"weights":{"vperc":0.9691336324577535,"lib":-0.040191450166861334,"vimdir":-0.022489998260295917,"colors":-0.08396947882369797,"spec":-0.07061217936867607,"test":0.05522054105295605,"t":0.15101161629288165,"snippets":0.018583595145647665,"vimrc":-1.0333288370773315,"elisp":-0.7777259852699142,"vim":0.08663068964017294,"autoload":0.07044187532122087,"doc":0.224072793663594,"ftplugin":0.17098635873887386,"indent":0.07784877008982864,"plugin":-0.5936914796241707,"syntax":-0.21750641998466558,"after":0.016909264588680733}},"8":{"bias":1.4485753297271466,"weights":{"vperc":-6.926496776290084,"lib":0.1824781989117819,"vimdir":0.17952145896902538,"colors":-2.4206949894856895,"spec":0.29478765165538107,"test":-0.4001225083926185,"t":-0.9321451456745593,"snippets":-0.13985600877407683,"vimrc":7.180578923817174,"elisp":4.952399807019801,"vim":-0.17741927766805285,"autoload":-1.1339698349529415,"doc":1.7004630935606546,"ftplugin":-1.5106846382293648,"indent":-1.5113960872472014,"plugin":3.696539748704122,"syntax":0.9084961993203741,"after":0.26478009374418077}}},{"plugin":{"bias":-0.9145807853554068,"weights":{"0":-8.964606789255905,"1":7.786249920319639,"2":-5.838984300485502,"3":9.558532368237552,"4":-0.7256143149885839,"5":-1.7128259749910617,"6":2.827526412967106,"7":0.7760185027919272,"8":-9.269984271870783}},"other":{"bias":0.9967624335188228,"weights":{"0":8.974406408949367,"1":-7.825110583065693,"2":5.925108707088303,"3":-9.517637580374767,"4":0.7128857577628077,"5":1.5579618928135195,"6":-2.7329958327584043,"7":-0.9904497296493396,"8":9.254945593302951}}}],"outputLookup":true,"inputLookup":true}