{"layers":[{"vperc":{},"lib":{},"bin":{},"vimdir":{},"colors":{},"bundle":{},"spec":{},"test":{},"config":{},"snippets":{},"vimrc":{},"elisp":{},"vim":{},"install":{},"makefile":{},"autoload":{},"doc":{},"ftplugin":{},"indent":{},"plugin":{},"syntax":{},"after":{}},{"0":{"bias":-3.244121130655843,"weights":{"vperc":3.998967452625882,"lib":-0.45480327419557837,"bin":0.02533721471408676,"vimdir":-0.1403289210881612,"colors":-1.3865249475062944,"bundle":-0.6324698241626178,"spec":0.6424366786017062,"test":-0.131679404205154,"config":-0.597424687850776,"snippets":0.25588364892989063,"vimrc":-2.2980744258643764,"elisp":-1.968447059604752,"vim":-0.05639195384069003,"install":-0.44117570474738066,"makefile":-0.3596133625644598,"autoload":1.4617156746797755,"doc":0.6771491198312223,"ftplugin":0.8550157063316081,"indent":0.5443031285842261,"plugin":0.7550777406768785,"syntax":-0.8125827244581361,"after":0.29730051429695875}},"1":{"bias":-4.1975824529748875,"weights":{"vperc":8.60256720616572,"lib":-0.82802473476606,"bin":0.09264189989074118,"vimdir":-0.01555418602803646,"colors":-1.0261177332401898,"bundle":-2.0076851298597465,"spec":0.9057966568781416,"test":-0.760939748803608,"config":-0.8305572835554644,"snippets":-0.657144436622862,"vimrc":-5.175873599638136,"elisp":-4.603062534809869,"vim":-1.2497209952284862,"install":-0.5043110361556745,"makefile":-0.5065871752254115,"autoload":0.7323571320848227,"doc":0.29141841173064975,"ftplugin":0.7647451964965256,"indent":0.08503871826757631,"plugin":1.5007621637184225,"syntax":0.07615215827930136,"after":-0.11702859881942469}},"2":{"bias":-0.41305207339820554,"weights":{"vperc":6.85173238895632,"lib":-0.3244239323156678,"bin":0.8142980866622382,"vimdir":0.1023435072942366,"colors":4.7421740491946105,"bundle":-2.094010190724173,"spec":1.3454449768229557,"test":-0.5395676340775049,"config":-3.8024667584868173,"snippets":-0.5875568730146794,"vimrc":-6.523273951324062,"elisp":-4.273997922177653,"vim":-0.9729625919709275,"install":-4.846905543624614,"makefile":-0.20466235372649047,"autoload":-0.14469010417111222,"doc":-2.6541753205974827,"ftplugin":0.9894617928670936,"indent":0.18477594399455302,"plugin":-5.11917348002132,"syntax":-0.6518446263243859,"after":0.07278895168730351}},"3":{"bias":4.480629475167437,"weights":{"vperc":-7.56744698548873,"lib":1.1184137913899703,"bin":0.6488825596655529,"vimdir":0.19540877398409945,"colors":-0.13129595522902848,"bundle":1.8776871921587135,"spec":-1.1582722810863164,"test":-5.212612763439574,"config":1.131225025986113,"snippets":0.5154892863073216,"vimrc":4.997340659150742,"elisp":4.187186937787463,"vim":1.1548908677726486,"install":0.33847388550923446,"makefile":1.6717926363425248,"autoload":-0.8988884821533785,"doc":-1.3127267472680109,"ftplugin":-0.5247400318799543,"indent":-0.10713481899669255,"plugin":0.1553786868046793,"syntax":0.3422145681414124,"after":0.48242700428549534}},"4":{"bias":-1.658094305911521,"weights":{"vperc":-0.1822377472101346,"lib":-0.08988500781388262,"bin":-0.14423632451370638,"vimdir":0.011275367646262767,"colors":-1.1966364737815711,"bundle":-0.167749999330824,"spec":-0.1843660191789297,"test":-0.34587863914723443,"config":-0.029409981956730526,"snippets":0.030442238658203963,"vimrc":-0.02604042185716749,"elisp":0.01380009612009623,"vim":-0.03756993689475207,"install":0.21512121281801488,"makefile":-0.11768021163912218,"autoload":0.28459879618099754,"doc":-0.009656081503153597,"ftplugin":0.09622738315072216,"indent":-0.11076026752176482,"plugin":-0.35274205622770255,"syntax":-0.1621988228277138,"after":0.02997743833862172}},"5":{"bias":-1.099123462582081,"weights":{"vperc":-6.779646938354567,"lib":0.512245491085378,"bin":-0.09770688969829383,"vimdir":-0.15416641974522968,"colors":-3.544920789052855,"bundle":2.6587487235840697,"spec":-1.58359025398975,"test":-2.374303469539718,"config":4.302531168947369,"snippets":1.07805572528533,"vimrc":6.883701301739337,"elisp":2.9617758328171724,"vim":1.3395415954215895,"install":2.989051963418882,"makefile":1.0560609276726804,"autoload":1.540722897361662,"doc":-4.91838906340342,"ftplugin":-0.48586534616885313,"indent":0.49810027362364634,"plugin":5.203306682768486,"syntax":1.5136473040297582,"after":1.137643614766754}},"6":{"bias":-1.7437294815177218,"weights":{"vperc":0.6531426971758697,"lib":-0.03615967764483401,"bin":-0.06098755395149185,"vimdir":-0.10541691820492782,"colors":-1.1698124948507842,"bundle":-0.21091563325478413,"spec":-0.07201896923198434,"test":0.0638749953239649,"config":-0.09685651378392376,"snippets":-0.01740793634793816,"vimrc":-0.6288976935442108,"elisp":-0.22953385762095915,"vim":-0.24097350489036537,"install":-0.2532402668843151,"makefile":-0.1491113513169948,"autoload":0.3619948441109881,"doc":-0.03808849594284844,"ftplugin":0.22897265404221084,"indent":0.2045931662823995,"plugin":0.04355635939375981,"syntax":-0.3197440820870098,"after":0.12030332324610149}},"7":{"bias":-1.3957943063697036,"weights":{"vperc":-1.0447388233425094,"lib":0.1914472099269803,"bin":0.07475403088231157,"vimdir":-0.1766013192480275,"colors":-1.659621995645587,"bundle":0.07971412041824903,"spec":-0.26661271277192605,"test":-0.040401005530413654,"config":0.13078949212839888,"snippets":0.3204315664993898,"vimrc":0.6102299797680849,"elisp":0.3980079478122188,"vim":0.25144250883153557,"install":0.14147193832453941,"makefile":0.1376800503251642,"autoload":-0.009495940574003091,"doc":0.4484703740924001,"ftplugin":-0.17905072127814597,"indent":-0.07887585086655392,"plugin":-0.6263795682423332,"syntax":-0.20318082088408096,"after":0.28787591728760953}},"8":{"bias":-1.217986073092517,"weights":{"vperc":-1.205894276355339,"lib":0.31330464755681875,"bin":0.19342548332859744,"vimdir":0.08529523717988657,"colors":-2.2038374986046616,"bundle":0.35473964988296,"spec":-0.33442383275103627,"test":0.1889577513359897,"config":0.603929360204296,"snippets":0.04820180173006002,"vimrc":0.511146180139517,"elisp":0.8446921346345385,"vim":0.3774151189166885,"install":0.21259533989991386,"makefile":0.14588246990839512,"autoload":-0.18148035209852104,"doc":0.7269459217222222,"ftplugin":0.03863029308677326,"indent":0.05789858639316366,"plugin":-0.8030937112186152,"syntax":-0.44744559003883394,"after":0.2837919969957142}},"9":{"bias":0.17491844265137443,"weights":{"vperc":-5.778091781977782,"lib":1.3421948171042535,"bin":0.9386288635350275,"vimdir":-0.1502378212303748,"colors":-6.009309893980126,"bundle":1.1297263086013154,"spec":-0.6911203823644885,"test":2.2315355552589744,"config":0.8029243845606315,"snippets":0.2768177256722543,"vimrc":3.0308688730858506,"elisp":3.5981267392669767,"vim":0.607194606780583,"install":0.564358246210447,"makefile":1.1479759639411722,"autoload":1.0739199142160123,"doc":2.1964985504134953,"ftplugin":-0.4564829084143064,"indent":0.04716461326176852,"plugin":-3.759174622694969,"syntax":-1.5517099733043134,"after":-0.28606235377631895}},"10":{"bias":-2.488259557021221,"weights":{"vperc":2.8280247186021694,"lib":-0.18395497887653872,"bin":-0.09978945445088541,"vimdir":-0.17778355007513988,"colors":-1.5869653158755122,"bundle":-0.9426007372655583,"spec":0.49461309886492966,"test":0.18042728470519087,"config":-0.6406885549566155,"snippets":-0.2295715756316864,"vimrc":-1.8660829111504733,"elisp":-1.3428156579605062,"vim":-0.2426587451209045,"install":-0.2631591820275977,"makefile":-0.026296656966593307,"autoload":1.0137552060004518,"doc":0.3021784805576683,"ftplugin":0.40947308441342256,"indent":0.07724726267594352,"plugin":0.3417529727733741,"syntax":-0.7019528969734019,"after":-0.06504350854127965}}},{"plugin":{"bias":-0.43608092265866866,"weights":{"0":3.011900818839559,"1":7.869797605654435,"2":7.9295318987982775,"3":-6.769143075084204,"4":-0.1211343676313303,"5":-8.324495980680906,"6":0.1418505347020555,"7":-0.39468528708533307,"8":-0.8861427915122542,"9":-8.784850446675785,"10":1.8855722576469771}},"other":{"bias":0.3878826094574156,"weights":{"0":-3.1246401014651295,"1":-7.81287039772891,"2":-7.910447141756513,"3":6.814446227547357,"4":-0.017462200359202065,"5":8.327827591658286,"6":-0.18999599640048015,"7":0.33169553951304825,"8":0.7285202395537996,"9":8.892805355370534,"10":-1.7112048535906517}}}],"outputLookup":true,"inputLookup":true}