{"layers":[{"vperc":{},"lib":{},"vimdir":{},"colors":{},"spec":{},"test":{},"t":{},"snippets":{},"vimrc":{},"elisp":{},"vim":{},"autoload":{},"doc":{},"ftplugin":{},"indent":{},"plugin":{},"syntax":{},"after":{}},{"0":{"bias":-0.04146412869620494,"weights":{"vperc":3.0213714383750068,"lib":-0.6235872991675125,"vimdir":-0.13952131277186622,"colors":1.8729798036327194,"spec":0.6046019074333572,"test":0.39669199089868523,"t":0.8422485736018281,"snippets":0.20750816949106993,"vimrc":-3.8318962988932883,"elisp":-0.2943466814350815,"vim":-1.9236461177120985,"autoload":-1.1044620922884416,"doc":-1.3471469642985503,"ftplugin":-0.07529846982772333,"indent":0.9645536082125729,"plugin":-4.17543420145168,"syntax":-1.5375103617208794,"after":-1.0740633912962112}},"1":{"bias":2.805687367675043,"weights":{"vperc":3.085403224525812,"lib":-0.4033979043282029,"vimdir":-0.11635347371995805,"colors":-1.212637049013812,"spec":0.6590632168469546,"test":1.7147993481726271,"t":1.2954490595008123,"snippets":0.34744446586975203,"vimrc":-3.3030069679215153,"elisp":-0.35076914961370853,"vim":-2.132489268060124,"autoload":-1.2631716796690795,"doc":4.138243199095847,"ftplugin":-0.3019368105795007,"indent":-2.093761704099808,"plugin":-1.214140760828551,"syntax":-0.871233461911185,"after":-1.0365640177972968}},"2":{"bias":-0.7467401943033242,"weights":{"vperc":-3.5085254416880427,"lib":0.3887709304292575,"vimdir":-0.021156308571796872,"colors":-1.2411349089538333,"spec":-0.8374854236207941,"test":-1.366026724103795,"t":-1.288526924227654,"snippets":-0.0900964341813164,"vimrc":3.0500996114653742,"elisp":0.018898408156287856,"vim":1.8734056029721609,"autoload":1.6306738103726,"doc":-2.685788948103895,"ftplugin":-0.14824061296924507,"indent":2.2328947986158107,"plugin":-1.6227435935709633,"syntax":1.4523294177190171,"after":0.654980053950859}},"3":{"bias":-0.211929820857164,"weights":{"vperc":1.0280329498395333,"lib":0.23443557931359016,"vimdir":-0.04879760167255004,"colors":1.046763308130455,"spec":0.15687054257492375,"test":0.3563125113575121,"t":0.34290459317794586,"snippets":0.3495938935735176,"vimrc":-1.1936531179217562,"elisp":-0.1840220440945517,"vim":-0.6814701445728348,"autoload":1.5701485159699322,"doc":-0.4166422051973197,"ftplugin":0.2096471548544495,"indent":-0.620005544041682,"plugin":-1.1110421780787154,"syntax":-1.3751892719816488,"after":0.058382271158230005}},"4":{"bias":4.098917349909473,"weights":{"vperc":-8.027639916656643,"lib":0.3579370314615868,"vimdir":0.20106206883879618,"colors":4.636035388138506,"spec":-1.2430128139679415,"test":0.38094535595216417,"t":-0.7268180269419494,"snippets":-0.19090837802754973,"vimrc":4.592717890666781,"elisp":0.22120877973535533,"vim":2.2064074778913825,"autoload":0.3531785008350939,"doc":-0.9943130600949696,"ftplugin":-2.500143039045784,"indent":-1.4257265671730963,"plugin":-3.1379580126089333,"syntax":-1.5581811168141606,"after":-0.4646187694953066}},"5":{"bias":-0.00098323014325688,"weights":{"vperc":-4.4282667340908795,"lib":0.46714392195726245,"vimdir":-0.11933679894383963,"colors":-3.818740887776537,"spec":0.11186467882090156,"test":0.7250444447327911,"t":-0.11704273030064356,"snippets":0.084284839819648,"vimrc":0.7421959786192528,"elisp":-0.03965079877862691,"vim":-0.20961742851590942,"autoload":-2.0587742773761946,"doc":1.5364398204468839,"ftplugin":-1.0017816928568728,"indent":-1.0615987629741455,"plugin":-1.4722456922119582,"syntax":-1.6731303952336394,"after":-1.040230514465909}},"6":{"bias":0.5934907837887935,"weights":{"vperc":0.818690605517141,"lib":0.12289185191691684,"vimdir":0.009067480719135441,"colors":0.49040925353474,"spec":0.5024450897339499,"test":1.4210724862940198,"t":0.9245041049334477,"snippets":0.3388387446882278,"vimrc":-1.6391057358418308,"elisp":0.004895652469792963,"vim":-0.38322115099727144,"autoload":2.221281891714282,"doc":0.9295994439888452,"ftplugin":1.0896877843899886,"indent":-0.9130508798206878,"plugin":-1.7673082220699234,"syntax":-2.478069559154127,"after":0.11510177218317603}},"7":{"bias":-0.06923278338826445,"weights":{"vperc":2.605441919772622,"lib":-0.23911184146656841,"vimdir":-0.09085507620004811,"colors":1.9603628632240317,"spec":0.48645773085764865,"test":0.047884508072353955,"t":0.3646982319627696,"snippets":0.14688658235925323,"vimrc":-3.325336335421177,"elisp":-0.3302530465846143,"vim":-1.5985902616674006,"autoload":-1.6460935575921474,"doc":-1.4160922420080808,"ftplugin":-0.5530497799584052,"indent":0.8793454167024757,"plugin":-4.191065065607888,"syntax":-1.2826390937814165,"after":-0.9947834213156812}},"8":{"bias":0.7824540474081558,"weights":{"vperc":-6.246284029355396,"lib":0.7175267506344973,"vimdir":-0.040434380788272585,"colors":-4.421619521847626,"spec":-0.6001000840428816,"test":0.7524462235513961,"t":-0.6659922489026164,"snippets":0.13450564754264957,"vimrc":3.5840637728086167,"elisp":0.41513066404212273,"vim":1.600649072228663,"autoload":-0.6832399420953487,"doc":1.396596303844149,"ftplugin":-1.6711230770078296,"indent":-0.8522688328607458,"plugin":-2.8350633239208873,"syntax":-1.2859391514804355,"after":-0.56694626435066}}},{"plugin":{"bias":-2.5595941053636664,"weights":{"0":5.1792501160196265,"1":3.2301434396731135,"2":-4.926891130012489,"3":2.1292981699258164,"4":-8.45499203919589,"5":-4.810161583156096,"6":3.1018637212995497,"7":4.955933113614867,"8":-6.46726452702586}},"other":{"bias":2.5138576604676794,"weights":{"0":-5.29137993718947,"1":-3.2931790617996914,"2":4.948431616193347,"3":-1.860044995390197,"4":8.40857927803929,"5":4.949841572883727,"6":-3.043153428649045,"7":-4.944585077810314,"8":6.361816443262881}}}],"outputLookup":true,"inputLookup":true}