{"layers":[{"vperc":{},"lib":{},"vimdir":{},"colors":{},"spec":{},"test":{},"t":{},"snippets":{},"vimrc":{},"elisp":{},"vim":{},"autoload":{},"doc":{},"ftplugin":{},"indent":{},"plugin":{},"syntax":{}},{"0":{"bias":0.6637001801654674,"weights":{"vperc":4.749212976254062,"lib":-2.9807253074424183,"vimdir":-0.28545992467464104,"colors":1.8962184659941081,"spec":0.6909431708702427,"test":3.38381414349152,"t":0.6755578683153338,"snippets":-0.1521471329646622,"vimrc":-4.818560463555407,"elisp":-0.19019502128841664,"vim":-2.227823771442053,"autoload":-2.5090938605474555,"doc":-4.702097515345274,"ftplugin":-0.7443995551691638,"indent":1.7745506937617672,"plugin":-3.739112377222949,"syntax":-2.730221412570879}},"1":{"bias":-1.1254591855068241,"weights":{"vperc":-3.089256406122007,"lib":0.32277205385046104,"vimdir":0.2557017485012646,"colors":-0.6663870191308595,"spec":-0.7007771283186077,"test":-3.72396111215005,"t":-0.8758677976024717,"snippets":-0.2246375997057316,"vimrc":3.190098772138717,"elisp":0.2819419753624042,"vim":1.2710782623099117,"autoload":2.717052738393827,"doc":-4.024816913055261,"ftplugin":1.4077950562561188,"indent":2.385309515092758,"plugin":-2.045761631779308,"syntax":1.1568809300356588}},"2":{"bias":4.312102462850949,"weights":{"vperc":-8.861129777021546,"lib":0.37101415498473156,"vimdir":0.21685884410089265,"colors":1.9106221086921784,"spec":-1.3188713208404983,"test":2.389760426547939,"t":-0.5940666160393793,"snippets":0.06831488991993302,"vimrc":5.423379197179893,"elisp":0.0749260841307302,"vim":2.9322760182488112,"autoload":-0.409930181951788,"doc":-1.9439286523903803,"ftplugin":-2.210375289912249,"indent":-0.7361279119295241,"plugin":-2.0380041982836734,"syntax":-0.89246658005081}},"3":{"bias":0.8745164436561338,"weights":{"vperc":4.912884184752882,"lib":-3.8549736069348137,"vimdir":-0.013796089605009476,"colors":1.6964297468691414,"spec":0.5854896016376663,"test":3.50820496173914,"t":0.38969654898583556,"snippets":-0.18446123749382404,"vimrc":-4.782015508761435,"elisp":-0.4346708450174718,"vim":-2.481337159611171,"autoload":-3.3599013259844464,"doc":-2.5140852666448144,"ftplugin":-0.4618283010566519,"indent":2.020038722474635,"plugin":-7.2757710405359814,"syntax":-1.1053816344155694}},"4":{"bias":3.0617378468791654,"weights":{"vperc":1.374983114419684,"lib":0.44785427099474684,"vimdir":-0.19513532220765692,"colors":1.640096771938258,"spec":1.1177709606028654,"test":3.4256134240385085,"t":1.171082337077934,"snippets":0.2907339624904328,"vimrc":-3.876910149519991,"elisp":-0.09206663930972804,"vim":-2.195431834492928,"autoload":6.761355863356949,"doc":1.2099394095080251,"ftplugin":5.447688585092399,"indent":-7.0835473841821575,"plugin":-4.561310138077843,"syntax":-5.872973335654132}},"5":{"bias":-2.5640620033958887,"weights":{"vperc":2.618418014546857,"lib":-0.4431744674126359,"vimdir":-0.036722821843623285,"colors":0.8373785301057565,"spec":0.5448320276798106,"test":-1.9762900458693262,"t":0.8958374304230657,"snippets":0.18795216322673844,"vimrc":-2.2868283772652034,"elisp":-0.13952088362063078,"vim":-0.9944049146022707,"autoload":-0.9163371169617824,"doc":2.858583944262499,"ftplugin":-0.6948482565183501,"indent":-2.4729188132800064,"plugin":0.32614747469807,"syntax":-1.1248025456018926}},"6":{"bias":2.5480166576091223,"weights":{"vperc":-7.613811542233723,"lib":0.9547223822727344,"vimdir":-0.07949922014965982,"colors":-6.297642815870845,"spec":-0.28637716732149804,"test":2.436594855943885,"t":-0.38919582747662756,"snippets":0.21534891858796168,"vimrc":2.976303425302467,"elisp":0.03848224959889245,"vim":0.29112324616149277,"autoload":-1.7410163454250147,"doc":-0.3388346919020622,"ftplugin":-1.4754341920868863,"indent":-1.0796651574149043,"plugin":-2.9998536273189025,"syntax":-3.0474031771788312}},"7":{"bias":5.092216079198812,"weights":{"vperc":-10.260068159066918,"lib":0.5159404132968846,"vimdir":0.23306510408705594,"colors":2.4801786414207365,"spec":-1.1810401532410213,"test":2.7412833541897386,"t":-0.6829808262088105,"snippets":0.010535990288218087,"vimrc":6.544802584324657,"elisp":0.251423305102211,"vim":3.60185449654143,"autoload":-0.6160098091170804,"doc":-2.33986886118484,"ftplugin":-2.076657588584745,"indent":-0.6523248889760429,"plugin":-2.8395644852801403,"syntax":-1.13272966243848}}},{"plugin":{"bias":-1.099214952116521,"weights":{"0":7.302666986799392,"1":-6.230374075952662,"2":-6.791262822738259,"3":7.831169268369665,"4":8.99682561949203,"5":0.9969569376350825,"6":-8.324096556131849,"7":-9.103531644454842}},"other":{"bias":1.0916618626093426,"weights":{"0":-7.191568210531109,"1":6.218673495481067,"2":6.81924437598438,"3":-7.987970418017748,"4":-8.954401989420417,"5":-0.9881990761755028,"6":8.33141750491089,"7":9.079212369625132}}}],"outputLookup":true,"inputLookup":true}